tree
version=v4
num_class=4
num_tree_per_iteration=4
label_index=0
max_feature_idx=9
objective=multiclass num_class:4
feature_names=ARI Coleman Grade LexicalDensity LexicalDiversity Reading SentenceLength Smog Tree WordLength
feature_infos=[-11.853:64.102999999999994] [-13.031000000000001:16.138000000000002] [-6.3540000000000001:51.338000000000001] [0.052999999999999999:0.77900000000000003] [0.049000000000000002:0.74099999999999999] [-11.448:150.53100000000001] [5.5670000000000002:146.84999999999999] [3.7000000000000002:18.399000000000001] [5.5:150.97] [2.2549999999999999:5.7140000000000004]
tree_sizes=937 825 1033 832 1260 1129 1158 1248 1146 1154 1267 1248 1142 1260 1161 1348 1147 1370 1372 1257 1147 1367 1261 1359 1371 1370 1269 1266 1146 1171 1159 1374 1257 1376 1163 1377 1367 1349 1164 1385 1136 1136 1266 1271 1138 1369 1461 1361 1252 1370 1361 1275 1152 1464 1373 1380 1356 1361 1458 1379 1274 1464 1464 1484 1366 1571 1260 1380 1481 1378 1576 1262 1589 1477 1360 1591 1374 1373 1582 1381 1789 1354 1369 1599 1667 1467 1584 1689 1392 1373 1578 1701 1570 1471 1812 1497 1593 1483 1590 1499 1486 1273 1795 1502 1478 1486 1587 1699 1699 1694 1919 1485 1894 1479 1701 1600 1811 1465 1912 1598 1694 1475 1701 1605 2021 1490 1608 1709 1616 1258 1471 1608 1727 1374 1604 2029 1826 1367 1492 1610 1712 1500 1486 2025 1731 1602 1925 1716 1806 1275 1812 1728 1490 1589 1367 2047 1501 1901 1379 1933 2350 1384 1366 1832 2244 1704 1601 1835 1835 1589 1474 2459 2157 1499 1592 2344 1481 1489 1171 2131 1817 1822 1709 2338 1824 1489 1709 1508 2261 1586 1489 2155 2360 1814 2037 1724 2151 1595 1488 2053 1922 1819 1925 2464 2270 1595 1711 1612 2141 1811 1823 1731 1613 1704 2049 1966 2342 1829 1937 1949 1912 1391 1384 1848 2242 1496 2041 1963 1962 1727 1599 1737 2597 1940 1618 1835 2355 2045 1611 1728 2143 1606 1941 2060 1832 1616 1182 1963 2366 1840 1836 2168 2150 1945 1503 1748 2052 2065 1734 2051 2062 2069 1836 1741 2410 1511 1500 1740 2064 1393 1938 1633 2048 2053 1610 1619 2190 1752 1726 1842 2276 1512 1402 1746 2524 1830 1725 2377 1955 1722 1522 2418 2052 2188 2179 1857 2295 1731 2056 1863 1736 1734 1713 2393 2277 2295 1967 1967 2288 1845 1628 2195 1524 1629 1516 1871 2074 2166 1955 2505 1739 1970 2073 2401 1741 1520 1415 2078 1523 1727 1947 2841 2190 1305 1637 2838 2073 2197 1633 2739 1741 2199 1751 2847 2085 1731 1736 2414 1856 1850 1863 2315 1751 1641 1632 2093 2195 1641 1740 2307 1758 1618 1526 2207 1532 1727 1523 2427 1530 1878 1755 2535 1766 1861 1732 2098 1757 2091 1300 2097 1761 1745 2319 2212 2651 1755 1953 2205 2074 1741 1756 2324 1761 2099 1760 2538 1993 1970 1527 1880

Tree=0
num_leaves=8
num_cat=0
split_feature=8 6 3 8 9 9 0
split_gain=102.74 13.8715 8.49275 1.21947 3.75981 0.832943 3.55271e-15
threshold=9.9750000000000032 12.642000000000001 0.52950000000000019 11.490000000000002 4.2560000000000011 5.0005000000000015 11.622000000000002
decision_type=2 2 2 2 2 2 2
left_child=1 2 -1 4 -2 6 -5
right_child=3 -3 -4 5 -6 -7 -8
leaf_value=-1.4411153386469919 -1.7277456879374622 -1.5331201421229455 -1.250028439120012 -1.7277456879374622 -1.6083163757330996 -1.6799739630557171 -1.7277456879374622
leaf_weight=4.1865769028663617 7.1171807348728162 5.6518788188695899 5.2332211285829544 19.258253753185276 4.1865769028663635 4.1865769028663626 9.210469186305998
leaf_count=20 34 27 25 92 20 20 44
internal_value=-1.63457 -1.40927 -1.33496 -1.71182 -1.68351 -1.72162 -1.72775
internal_weight=0 15.0717 9.4198 43.9591 11.3038 32.6553 28.4687
internal_count=282 72 45 210 54 156 136
is_linear=0
shrinkage=1


Tree=1
num_leaves=7
num_cat=0
split_feature=8 6 4 0 8 1
split_gain=50.1266 27.1058 3.99413 5.48601 1.30817 0.174005
threshold=11.835000000000003 12.141500000000002 0.55650000000000011 4.8200000000000012 13.025 11.291000000000002
decision_type=2 2 2 2 2 2
left_child=1 -1 3 -3 -2 -6
right_child=4 2 -4 -5 5 -7
leaf_value=-1.5216160005972237 -1.515238172017465 -1.2708286889653282 -1.2629494957695893 -1.3980707475035332 -1.5649852349395814 -1.5438427331976821
leaf_weight=9.2231278717517871 8.0406755805015546 5.4392805397510555 8.2771660387516004 8.9866374135017377 21.993612617254261 4.7298091650009146
leaf_count=39 34 23 35 38 93 20
internal_value=-1.46752 -1.37705 -1.31832 -1.35009 -1.5506 -1.56124
internal_weight=0 31.9262 22.7031 14.4259 34.7641 26.7234
internal_count=282 135 96 61 147 113
is_linear=0
shrinkage=1


Tree=2
num_leaves=9
num_cat=0
split_feature=8 8 5 8 4 9 0 0
split_gain=20.6213 37.0668 8.6946 16.4368 8.82836 3.32829 0.174886 1.77636e-15
threshold=10.350000000000001 14.515000000000002 80.973500000000016 11.835000000000003 0.5335000000000002 4.8690000000000007 2.6500000000000008 11.155000000000003
decision_type=2 2 2 2 2 2 2 2
left_child=6 2 3 -2 -5 7 -1 -3
right_child=1 5 -4 4 -6 -7 -8 -9
leaf_value=-1.6529299594352551 -1.5993712316729582 -1.6758836999048108 -1.3315775928614744 -1.4993164655236126 -1.3227492311424145 -1.5898071731439769 -1.675883699904811 -1.6758836999048108
leaf_weight=4.3565884232521084 7.8418591618537965 6.0992237925529498 4.3565884232521048 5.6635649502277357 5.6635649502277374 6.9705414772033683 13.941082954406737 6.5348826348781586
leaf_count=20 36 28 20 26 26 32 64 30
internal_value=-1.58146 -1.54373 -1.4591 -1.48808 -1.41103 -1.64528 -1.67042 -1.67588
internal_weight=0 43.1302 23.5256 19.169 11.3271 19.6046 18.2977 12.6341
internal_count=282 198 108 88 52 90 84 58
is_linear=0
shrinkage=1


Tree=3
num_leaves=7
num_cat=0
split_feature=8 6 1 6 1 0
split_gain=140.414 8.38711 16.7028 3.91106 0.556101 7.10543e-15
threshold=13.025 23.275000000000002 8.9060000000000006 17.216500000000003 3.2395000000000005 5.916500000000001
decision_type=2 2 2 2 2 2
left_child=3 2 -2 4 -1 -6
right_child=1 -3 -4 -5 5 -7
leaf_value=-1.0841178324609528 -0.81310288423281718 -0.7941507899511292 -1.0138227918525109 -1.0322879746210327 -1.1163363927398222 -1.1163363927398222
leaf_weight=6.2076020240783683 10.552923440933229 17.691665768623352 6.8283622264862052 7.1387423276901236 26.07192850112915 13.035964250564573
leaf_count=20 34 57 22 23 84 42
internal_value=-0.997516 -0.842621 -0.891957 -1.10109 -1.11192 -1.11634
internal_weight=0 35.073 17.3813 52.4542 45.3155 39.1079
internal_count=282 113 56 169 146 126
is_linear=0
shrinkage=1


Tree=4
num_leaves=11
num_cat=0
split_feature=8 7 8 8 9 9 8 3 4 6
split_gain=75.2271 7.55272 14.0669 1.14753 3.37809 0.846012 0.00017234 0.000147131 7.22274e-05 4.68349e-05
threshold=9.9750000000000032 7.1715000000000009 8.7000000000000011 11.490000000000002 4.2560000000000011 5.0005000000000015 13.025 0.60750000000000004 0.53850000000000009 21.108500000000003
decision_type=2 2 2 2 2 2 2 2 2 2
left_child=1 2 -1 4 -2 6 8 9 -5 -8
right_child=3 -3 -4 5 -6 -7 7 -9 -10 -11
leaf_value=0.21493506518304062 -0.091323087343457149 0.26265091682248415 -0.010207391821039209 -0.091635011547343992 0.022471778390717095 -0.041479318786685454 -0.090369307779315219 -0.091226081893505492 -0.091041301902641425 -0.090767482208819153
leaf_weight=6.9456060528755206 6.6462958008050901 6.0790590196847907 4.62174291908741 4.3552368879318291 4.2942174971103668 3.9768628180026999 4.889935567975046 5.6453503072261801 3.8696507662534714 7.4619982689619064
leaf_count=27 34 25 20 22 20 20 26 29 20 39
internal_value=0 0.172406 0.124979 -0.0744058 -0.0466579 -0.0844583 -0.0909765 -0.0908031 -0.0913557 -0.0906099
internal_weight=0 17.6464 11.5673 41.1395 10.9405 30.199 26.2222 17.9973 8.22489 12.3519
internal_count=282 72 47 210 54 156 136 94 42 65
is_linear=0
shrinkage=0.1


Tree=5
num_leaves=10
num_cat=0
split_feature=8 6 7 6 1 8 5 1 8
split_gain=40.0284 19.3156 2.55978 5.20319 12.7985 1.21259 0.181486 0.000357141 0.000116389
threshold=11.835000000000003 12.141500000000002 8.3955000000000002 14.658500000000002 5.7550000000000008 13.025 42.534000000000013 8.9060000000000006 14.9
decision_type=2 2 2 2 2 2 2 2 2
left_child=1 -1 3 4 -3 -2 -7 8 -8
right_child=5 2 -4 -5 -6 6 7 -9 -10
leaf_value=-0.050851460002264995 -0.04511014857102693 0.22864587082857746 0.17990528137330264 0.032324637366646279 0.02578254669356328 -0.071908464932529004 -0.093617891876100312 -0.094871777161006504 -0.094252424668215415
leaf_weight=8.8687731176614744 7.8101022541522971 7.2176304757595116 5.6789381504058829 6.7060491591691962 5.4644457995891571 4.3871128559112575 4.6708044856786746 7.9325212091207495 7.5849514901638031
leaf_count=39 34 27 22 26 21 20 22 36 35
internal_value=0 0.0759852 0.12086 0.103565 0.141236 -0.0794346 -0.090343 -0.094349 -0.0940106
internal_weight=0 33.9358 25.0671 19.3881 12.6821 32.3855 24.5754 20.1883 12.2558
internal_count=282 135 96 74 48 147 113 93 57
is_linear=0
shrinkage=0.1


Tree=6
num_leaves=10
num_cat=0
split_feature=8 8 7 8 4 6 1 9 8
split_gain=17.8773 30.0878 7.33633 10.6448 4.19271 2.05517 0.256283 0.000511117 0.000170988
threshold=10.475000000000003 14.740000000000002 7.4280000000000008 11.490000000000002 0.52150000000000019 23.275000000000002 4.7865000000000011 4.8690000000000007 9.7850000000000019
decision_type=2 2 2 2 2 2 2 2 2
left_child=6 2 -2 -4 -5 -3 -1 -7 -8
right_child=1 5 3 4 -6 7 8 -9 -10
leaf_value=-0.06868807033754247 0.19197816187821881 -0.016606944624505685 -0.054147758157185533 0.053246916983591491 0.1636945089835648 -0.091727100697276021 -0.092069503351639465 -0.093112085432354677 -0.092898349977704339
leaf_weight=8.1274255663156527 6.8630525469779995 5.2204136997461346 4.9851242303848293 6.0488774180412275 7.9599070101976395 7.3557402044534665 6.2362533062696439 4.1780832260847092 4.1421272754669189
leaf_count=39 28 25 23 27 32 37 31 20 20
internal_value=0 0.0357243 0.103365 0.0713462 0.116004 -0.068666 -0.0819863 -0.0922288 -0.0924003
internal_weight=0 42.6112 25.857 18.9939 14.0088 16.7542 18.5058 11.5338 10.3784
internal_count=282 192 110 82 59 82 90 57 51
is_linear=0
shrinkage=0.1


Tree=7
num_leaves=11
num_cat=0
split_feature=8 8 6 8 6 1 2 4 2 7
split_gain=110.348 6.25903 3.53774 0.668808 0.560665 0.00449931 0.00115862 0.00134242 0.000945432 0.000333655
threshold=13.025 14.985000000000001 17.216500000000003 16.330000000000002 10.700000000000001 9.7585000000000015 6.1100000000000003 0.55650000000000011 4.676000000000001 6.9220000000000006
decision_type=2 2 2 2 2 2 2 2 2 2
left_child=2 -2 4 -3 -1 -5 8 -8 -6 -10
right_child=1 3 -4 5 6 -7 7 -9 9 -11
leaf_value=-0.079383341636720298 0.074370043358744697 0.13500201126295858 -0.030674686875147072 0.17074227827806959 -0.11254015640682653 0.17406415351376911 -0.11342656182231503 -0.11154569858776456 -0.11156219100755815 -0.11062994288190027
leaf_weight=6.1765542328357688 12.474365115165709 6.8015536963939693 7.0151654183864585 10.837358146905901 5.9192793667316463 6.5366584956645957 8.6597603261470777 6.754473388195037 7.0462153553962699 8.4349430799484235
leaf_count=21 39 21 23 33 20 20 29 23 24 29
internal_value=0 0.1319 -0.0965194 0.161585 -0.107264 0.171992 -0.111941 -0.112602 -0.111465 -0.111054
internal_weight=0 36.6499 50.0064 24.1756 42.9912 17.374 36.8147 15.4142 21.4004 15.4812
internal_count=282 113 169 74 146 53 125 52 73 53
is_linear=0
shrinkage=0.1


Tree=8
num_leaves=10
num_cat=0
split_feature=8 3 8 1 6 8 8 9 8
split_gain=57.8678 5.18517 4.55737 1.22833 1.29742 0.00304815 0.000416377 0.000105529 3.51071e-05
threshold=9.9750000000000032 0.51550000000000018 8.9850000000000012 10.290000000000001 14.9335 11.490000000000002 13.025 4.4640000000000013 14.740000000000002
decision_type=2 2 2 2 2 2 2 2 2
left_child=1 -1 -3 4 -2 -6 -7 8 -8
right_child=3 2 -4 -5 5 6 7 -9 -10
leaf_value=0.053567054069374079 -0.035654833910712024 0.21753862983135863 0.1028577374776881 -0.034442817967585297 -0.091738486723337107 -0.089679999999827828 -0.088300320486942321 -0.089194853609568386 -0.088695419971310252
leaf_weight=5.1213274002075222 5.3888325989246395 8.4983317255973798 5.8509971499443045 7.1927564889192572 5.3037572801113155 6.9254492372274425 3.4076647758483869 3.5606544911861411 6.6140146553516388
leaf_count=20 28 29 23 39 27 38 20 20 38
internal_value=0 0.139948 0.170777 -0.071696 -0.0802841 -0.0896016 -0.089049 -0.0887272 -0.0885611
internal_weight=0 19.4707 14.3493 38.3931 31.2004 25.8115 20.5078 13.5823 10.0217
internal_count=282 72 52 210 171 143 116 78 58
is_linear=0
shrinkage=0.1


Tree=9
num_leaves=10
num_cat=0
split_feature=8 6 4 8 8 4 3 3 8
split_gain=32.4264 14.3834 2.4188 3.47958 1.13738 0.19499 0.000273333 4.20138e-05 5.47012e-05
threshold=11.835000000000003 12.141500000000002 0.55650000000000011 10.475000000000003 13.025 0.55550000000000022 0.60750000000000004 0.5395000000000002 16.525000000000002
decision_type=2 2 2 2 2 2 2 2 2
left_child=1 -1 3 -3 -2 6 7 -6 -9
right_child=4 2 -4 -5 5 -7 -8 8 -10
leaf_value=-0.047824205497022688 -0.042604550763663949 0.11917910925723262 0.1401374066432283 0.027616148725349954 -0.091229203109236934 -0.067467272888206073 -0.092319576591889302 -0.091853044464139125 -0.091345528862330896
leaf_weight=8.5377955585718137 7.5898695439100292 9.2321846932172829 10.008029609918593 7.5400305390357962 4.4812009781599107 4.0380269587039939 5.4726883471012107 4.3907536268234235 4.1131937503814697
leaf_count=39 34 33 35 28 23 20 27 22 21
internal_value=0 0.0651989 0.101232 0.0780165 -0.0760785 -0.0873722 -0.0917268 -0.091477 -0.0916076
internal_weight=0 35.318 26.7802 16.7722 30.0857 22.4959 18.4578 12.9851 8.50395
internal_count=282 135 96 61 147 113 93 66 43
is_linear=0
shrinkage=0.1


Tree=10
num_leaves=11
num_cat=0
split_feature=8 8 5 8 8 6 6 9 3 8
split_gain=15.5219 21.885 4.60915 7.9299 3.67778 1.97588 0.184742 0.000299066 0.000260617 0.000123487
threshold=10.350000000000001 14.740000000000002 80.973500000000016 11.490000000000002 12.950000000000001 23.275000000000002 10.700000000000001 4.8690000000000007 0.51200000000000012 9.7250000000000014
decision_type=2 2 2 2 2 2 2 2 2 2
left_child=6 2 3 -2 -5 -3 -1 -7 -8 -10
right_child=1 5 -4 4 -6 7 8 -9 9 -11
leaf_value=-0.065798443558885353 -0.031846592664371447 -0.013839176480279986 0.16424768372214982 0.14310721345552879 0.049688543177107233 -0.089421729267990607 -0.091286786177596779 -0.090534078176828292 -0.089917916996344105 -0.090702849327350357
leaf_weight=4.0073605775833121 6.4231933206319871 5.0855404883623114 5.5340220779180518 8.8625642061233538 8.0349181145429593 6.6728872805833799 3.8909636884927741 3.7897687256336212 4.2304206490516645 3.808784544467926
leaf_count=21 30 25 20 33 33 37 20 20 23 20
internal_value=0 0.030668 0.0822027 0.0627333 0.0986857 -0.0649711 -0.0843751 -0.0898246 -0.090615 -0.0902898
internal_weight=0 44.4029 28.8547 23.3207 16.8975 15.5482 15.9375 10.4627 11.9302 8.03921
internal_count=282 198 116 96 66 82 84 57 63 43
is_linear=0
shrinkage=0.1


Tree=11
num_leaves=11
num_cat=0
split_feature=8 9 6 8 6 6 0 9 6 0
split_gain=88.4715 5.45584 3.28172 0.688082 0.54583 0.0321562 0.00167166 0.00137387 0.00125495 0.000632491
threshold=13.025 4.8690000000000007 17.216500000000003 14.660000000000002 10.700000000000001 23.475000000000005 5.7670000000000003 4.2765000000000013 12.283500000000002 4.7525000000000004
decision_type=2 2 2 2 2 2 2 2 2 2
left_child=2 3 4 -2 -1 -5 8 -8 -6 -10
right_child=1 -3 -4 5 6 -7 7 -9 9 -11
leaf_value=-0.073475055020970501 0.11473104563796044 0.060045389290466759 -0.026973738308617479 0.15719766566415846 -0.10707719888060048 0.14856657234828358 -0.10823258179500457 -0.10625097632859466 -0.10463335769493659 -0.10594843404413204
leaf_weight=5.8887526988983145 6.8655525445938137 12.112000226974486 6.8934255838394156 6.9724183976650265 5.8459118306636837 11.33195438981056 7.0855085849761945 6.9115980863571167 6.7532805204391462 7.9773682951927185
leaf_count=21 21 37 23 21 21 34 25 25 25 29
internal_value=0 0.115191 -0.090752 0.141728 -0.101618 0.151854 -0.106411 -0.107254 -0.105838 -0.105346
internal_weight=0 37.2819 47.3558 25.1699 40.4624 18.3044 34.5737 13.9971 20.5766 14.7306
internal_count=282 113 169 76 146 55 125 50 75 54
is_linear=0
shrinkage=0.1


Tree=12
num_leaves=10
num_cat=0
split_feature=8 7 8 1 6 8 8 9 8
split_gain=46.081 4.79186 7.94301 1.19935 1.27395 0.00355544 0.000647016 0.000174886 1.7515e-05
threshold=9.9750000000000032 7.1715000000000009 8.7000000000000011 10.290000000000001 14.9335 11.490000000000002 13.025 4.4640000000000013 14.740000000000002
decision_type=2 2 2 2 2 2 2 2 2
left_child=1 2 -1 4 -2 -6 -7 8 -8
right_child=3 -3 -4 -5 5 6 7 -9 -10
leaf_value=0.14165621646673449 -0.033429186247751125 0.1829382498062089 -0.018531568579202903 -0.0317957486444541 -0.090317220492482142 -0.088125703695753718 -0.086464057429463503 -0.08751361275486666 -0.086758505737518088
leaf_weight=8.3801148831844348 5.2356232851743725 7.3894083499908438 4.9086315482854834 6.9513294398784629 4.9865276068449047 6.4060477465391186 3.06263419985771 3.2553570121526709 5.9351430088281631
leaf_count=27 28 25 20 39 27 38 20 20 38
internal_value=0 0.118383 0.0824856 -0.069087 -0.0780625 -0.0879452 -0.0873113 -0.0868855 -0.0866583
internal_weight=0 20.6782 13.2887 35.8327 28.8813 23.6457 18.6592 12.2531 8.99778
internal_count=282 72 47 210 171 143 116 78 58
is_linear=0
shrinkage=0.1


Tree=13
num_leaves=11
num_cat=0
split_feature=8 8 3 4 2 8 5 3 3 7
split_gain=26.5003 11.4273 4.20906 3.05554 2.18414 1.09887 0.205464 0.000567636 4.43214e-05 5.78129e-06
threshold=11.835000000000003 9.5600000000000023 0.52950000000000019 0.50950000000000017 6.3135000000000003 13.025 42.534000000000013 0.60750000000000004 0.5395000000000002 10.356000000000002
decision_type=2 2 2 2 2 2 2 2 2 2
left_child=1 2 -1 -3 -5 -2 -7 8 -8 -10
right_child=5 3 -4 4 -6 6 7 -9 9 -11
leaf_value=0.038413412469803891 -0.039713319620715497 0.035827149901306865 -0.080953207976532687 0.15030149670206533 0.080843946353922391 -0.063601419633700848 -0.088804515645521109 -0.090310441736208502 -0.089143139849381922 -0.089320874647335749
leaf_weight=5.6590734720230085 7.3406428545713451 6.3015322089195278 6.1801076531410217 9.3482580035924929 8.7789450585842115 3.7427309900522259 3.6721719354391116 5.803905025124549 3.7358289361000061 3.587648332118988
leaf_count=23 34 23 28 31 30 20 21 31 21 20
internal_value=0 0.0567342 -0.0238965 0.0958113 0.116663 -0.0729227 -0.0847898 -0.0895104 -0.089088 -0.0892302
internal_weight=0 36.2679 11.8392 24.4287 18.1272 27.8829 20.5423 16.7996 10.9956 7.32348
internal_count=282 135 51 84 61 147 113 93 62 41
is_linear=0
shrinkage=0.1


Tree=14
num_leaves=10
num_cat=0
split_feature=8 8 2 7 6 8 1 9 8
split_gain=13.5061 18.1835 4.4898 4.96344 1.96193 0.989011 0.24934 0.000605272 0.000434786
threshold=10.475000000000003 14.740000000000002 6.6935000000000011 9.3360000000000021 23.275000000000002 12.820000000000002 4.7865000000000011 4.8690000000000007 9.7850000000000019
decision_type=2 2 2 2 2 2 2 2 2
left_child=6 2 -2 -4 -3 -5 -1 -6 -8
right_child=1 4 3 5 7 -7 8 -9 -10
leaf_value=-0.063787060130099882 0.13238343636141955 -0.010242369726075833 -0.0083394465477856332 0.063336330754153167 -0.087401251239843172 0.12447116129778309 -0.08816941004341089 -0.089049338213115614 -0.089596635035742875
leaf_weight=7.3133278340101269 9.4521707594394702 4.9126202762126914 8.583670452237131 5.2772963643074018 6.006258159875868 5.3076183348894119 5.2186933457851392 3.5428032726049423 3.6116618067026138
leaf_count=39 34 25 35 20 37 21 31 20 20
internal_value=0 0.0298001 0.0759804 0.0481677 -0.0615942 0.0939913 -0.0774431 -0.0880127 -0.0887532
internal_weight=0 43.0824 28.6208 19.1686 14.4617 10.5849 16.1437 9.54906 8.83036
internal_count=282 192 110 76 82 41 90 57 51
is_linear=0
shrinkage=0.1


Tree=15
num_leaves=12
num_cat=0
split_feature=8 3 6 6 6 4 8 0 6 9 8
split_gain=71.724 4.74962 11.0252 3.11302 0.574059 0.16832 0.0359085 0.00237407 0.00238806 0.00130269 0.000589203
threshold=13.025 0.59450000000000014 23.275000000000002 17.216500000000003 10.700000000000001 0.49750000000000005 16.625000000000004 5.7670000000000003 12.283500000000002 4.285000000000001 9.9750000000000032
decision_type=2 2 2 2 2 2 2 2 2 2 2
left_child=3 5 -3 4 -1 6 -2 8 -6 -9 -10
right_child=1 2 -4 -5 7 -7 -8 9 10 -11 -12
leaf_value=-0.067303290370904281 0.14523907874081834 -0.027394125704252637 0.13852387073492875 -0.023411100917016533 -0.1031756773815487 0.12138786921743341 0.13493097724993197 -0.10409861747550771 -0.099932605495662657 -0.10210809654884903 -0.10126508076607546
leaf_weight=5.5458967685699454 6.6193771064281481 7.50200027227402 8.5916738510131818 6.7717423141002646 5.4949198663234737 7.6138129830360404 6.9042368829250336 6.969662129878996 5.7158793956041318 6.2237553745508194 7.9122258126735687
leaf_count=21 20 23 26 23 21 23 21 26 23 24 31
internal_value=0 0.102115 0.0611819 -0.0858581 -0.0970268 0.133281 0.139976 -0.102128 -0.101416 -0.10316 -0.100706
internal_weight=0 37.2311 16.0937 44.6341 37.8623 21.1374 13.5236 32.3164 19.123 13.1934 13.6281
internal_count=282 113 49 169 146 64 41 125 75 50 54
is_linear=0
shrinkage=0.1


Tree=16
num_leaves=10
num_cat=0
split_feature=8 7 8 1 6 8 8 9 8
split_gain=37.0143 3.60314 6.16982 1.1869 1.28609 0.00338646 0.000928336 0.000243904 1.49933e-05
threshold=9.9750000000000032 7.1715000000000009 8.7000000000000011 10.290000000000001 14.9335 13.025 11.490000000000002 4.4640000000000013 14.740000000000002
decision_type=2 2 2 2 2 2 2 2 2
left_child=1 2 -1 4 -2 6 -6 8 -7
right_child=3 -3 -4 -5 5 7 -8 -9 -10
leaf_value=0.12139099816907883 -0.030414903733481796 0.15600241826464722 -0.018790342477032471 -0.028800541551660914 -0.088854740577801475 -0.084813362835553241 -0.086971074639697499 -0.08606561428196785 -0.085102082417301439
leaf_weight=8.7099615037441271 5.0372320562601116 7.8264312744140616 4.9094700068235388 6.6864858865737906 4.6453146338462847 2.7228114157915098 5.9901880621910095 2.964313179254531 5.2992036044597626
leaf_count=27 28 25 20 39 27 20 38 20 38
internal_value=0 0.101931 0.0708591 -0.0664719 -0.0759204 -0.0865218 -0.0877938 -0.0852905 -0.0850041
internal_weight=0 21.4459 13.6194 33.3455 26.6591 21.6218 10.6355 10.9863 8.02202
internal_count=282 72 47 210 171 143 65 78 58
is_linear=0
shrinkage=0.1


Tree=17
num_leaves=12
num_cat=0
split_feature=8 6 7 6 1 4 8 6 8 9 0
split_gain=21.9429 8.92885 1.60752 3.02343 7.35093 1.05886 0.409389 0.130608 0.00144051 0.000156479 3.68978e-06
threshold=11.835000000000003 12.141500000000002 8.3955000000000002 14.658500000000002 5.7550000000000008 0.5445000000000001 13.610000000000001 18.550000000000004 14.660000000000002 4.7235000000000005 11.155000000000003
decision_type=2 2 2 2 2 2 2 2 2 2 2
left_child=1 -1 3 4 -3 7 -7 -2 -9 10 -10
right_child=5 2 -4 -5 -6 6 -8 8 9 -11 -12
leaf_value=-0.043328323377319768 -0.067699805291687176 0.14821663609993618 0.11883787727515052 0.010878004634632711 0.0043425310682326202 -0.01686667562756354 -0.062687065854044696 -0.089736368886665779 -0.087070923382765286 -0.087968805840217698 -0.087216364033502636
leaf_weight=7.9968383461236945 4.1023969352245393 8.6722302436828667 6.7426814138889304 7.3895425498485556 6.0138394981622687 3.9846639186143866 3.8185868412256241 3.5605146437883368 3.8200462609529477 3.3381296247243881 3.2101836204528809
leaf_count=39 21 27 22 26 21 20 22 20 24 20 20
internal_value=0 0.0501605 0.0761028 0.06305 0.0893012 -0.070064 -0.0392893 -0.0833821 -0.088001 -0.087405 -0.0871373
internal_weight=0 36.8151 28.8183 22.0756 14.6861 25.8345 7.80325 18.0313 13.9289 10.3684 7.03023
internal_count=282 135 96 74 48 147 42 105 84 64 44
is_linear=0
shrinkage=0.1


Tree=18
num_leaves=12
num_cat=0
split_feature=8 8 5 8 4 4 4 6 8 3 7
split_gain=11.816 13.6677 2.78598 6.36072 3.39409 2.68058 0.258379 0.209545 0.0034043 0.000714174 0.000131918
threshold=10.350000000000001 14.660000000000002 80.973500000000016 11.835000000000003 0.5335000000000002 0.54950000000000021 0.45000000000000007 10.700000000000001 16.465000000000003 0.51550000000000018 7.4280000000000008
decision_type=2 2 2 2 2 2 2 2 2 2 2
left_child=7 2 3 -2 -5 6 -3 -1 -8 -9 -11
right_child=1 5 -4 4 -6 -7 8 9 -10 10 -12
leaf_value=-0.059154703329598393 -0.022844370576976941 -0.053784208014922175 0.12456796043170704 0.038865369942920405 0.13190789402523337 0.022308085296251792 -0.090347540066101725 -0.088710633784681428 -0.086175663824534066 -0.08739551247934528 -0.08649956755320827
leaf_weight=3.4773337244987479 8.1229813992977196 3.0393179506063444 6.1323578655719748 7.7106475830078107 7.9765268266201019 3.4757554680109015 3.6597011685371399 3.6169109940528852 4.2015731483697891 3.391460120677948 3.1883794069290161
leaf_count=21 36 20 20 30 26 18 20 21 28 21 21
internal_value=0 0.0259828 0.0644627 0.0489824 0.0861751 -0.0541618 -0.0785449 -0.0803528 -0.0881178 -0.0875819 -0.0869614
internal_weight=0 44.3189 29.9425 23.8102 15.6872 14.3763 10.9006 13.6741 7.86127 10.1968 6.57984
internal_count=282 198 112 92 56 86 68 84 48 63 42
is_linear=0
shrinkage=0.1


Tree=19
num_leaves=11
num_cat=0
split_feature=8 9 6 6 8 6 0 7 9 7
split_gain=59.1788 4.23783 2.88583 0.584693 0.515569 0.0409034 0.0031057 0.00248183 0.00112004 0.000417715
threshold=13.025 4.8690000000000007 17.216500000000003 10.700000000000001 14.660000000000002 23.475000000000005 5.7670000000000003 6.4195000000000011 4.285000000000001 7.1115000000000004
decision_type=2 2 2 2 2 2 2 2 2 2
left_child=2 4 3 -1 -2 -6 7 -5 -8 -9
right_child=1 -3 -4 6 5 -7 8 9 -10 -11
leaf_value=-0.062364057750043944 0.093244783881632529 0.043749551985601681 -0.021575821793262492 -0.099313178395432314 0.1314891756257498 0.12157693765058869 -0.10063973576764887 -0.097408038076452375 -0.098733369739358104 -0.09620579459306168
leaf_weight=5.2524285167455664 6.9523095190525082 12.004944235086439 6.7051994502544394 6.0826522856950822 6.8092606961727169 10.712672352790831 6.5621235817670804 5.8876341581344587 5.8111187368631363 5.6761714369058609
leaf_count=21 21 37 23 25 21 34 26 25 24 25
internal_value=0 0.0924153 -0.0817123 -0.0931442 0.116287 0.125429 -0.0985297 -0.097678 -0.0997444 -0.0968179
internal_weight=0 36.4792 41.9773 35.2721 24.4742 17.5219 30.0197 17.6465 12.3732 11.5638
internal_count=282 113 169 146 76 55 125 75 50 50
is_linear=0
shrinkage=0.1


Tree=20
num_leaves=10
num_cat=0
split_feature=8 3 8 1 6 8 8 9 3
split_gain=30.1547 3.18742 2.44714 1.1722 1.29275 0.00354451 0.000831749 0.000276765 7.47032e-06
threshold=9.9750000000000032 0.51550000000000018 8.9850000000000012 10.290000000000001 14.9335 13.025 11.490000000000002 4.4640000000000013 0.5415000000000002
decision_type=2 2 2 2 2 2 2 2 2
left_child=1 -1 -3 4 -2 6 -6 8 -7
right_child=3 2 -4 -5 5 7 -8 -9 -10
leaf_value=0.024819752585333407 -0.027702153041442724 0.14435155046503376 0.06516889963499907 -0.026011497413725715 -0.087657468850991946 -0.083491310582616426 -0.085809467404540263 -0.084803980170501628 -0.083699409114948733
leaf_weight=5.6473751515150097 4.8597647994756761 9.5789717137813586 6.5868515372276297 6.45412853360176 4.3460363522171992 2.9183638766407949 5.5401909649372101 2.6935383155941963 4.2187631502747536
leaf_count=20 28 29 23 39 27 24 38 20 34
internal_value=0 0.0894946 0.112088 -0.0639384 -0.0738985 -0.0852848 -0.0866219 -0.0839403 -0.0836143
internal_weight=0 21.8132 16.1658 31.0308 24.5767 19.7169 9.88623 9.83067 7.13713
internal_count=282 72 52 210 171 143 65 78 58
is_linear=0
shrinkage=0.1


Tree=21
num_leaves=12
num_cat=0
split_feature=6 6 6 5 0 1 8 3 8 9 5
split_gain=18.5903 6.42103 3.82478 1.86226 1.47084 4.82509 2.56465 0.62658 0.016239 0.0005948 2.43166e-05
threshold=17.425000000000004 12.141500000000002 16.183500000000006 85.425000000000011 6.0460000000000003 5.7550000000000008 10.425000000000002 0.65050000000000019 13.465000000000002 4.7235000000000005 62.382000000000012
decision_type=2 2 2 2 2 2 2 2 2 2 2
left_child=1 3 4 -1 5 6 -3 8 -2 10 -10
right_child=7 2 -4 -5 -6 -7 -8 -9 9 -11 -12
leaf_value=-0.091313722184639942 -0.093131944482175211 0.13863278125945161 -0.0061562551437846415 0.0059959299308749462 0.11936496133138129 -0.0066412450292717756 0.049624435328181164 -0.04655178878547412 -0.08563177907013772 -0.08703650644824544 -0.085270238183836056
leaf_weight=3.8507304340600959 4.2894136309623745 7.1809180676937157 7.0823040232062331 4.0195034891366959 6.1767057031393042 6.5504653900861731 5.8943901509046555 4.8170210719108573 3.0381601452827436 3.1550517231225967 4.7985783517360687
leaf_count=20 23 22 30 20 20 23 20 29 21 20 34
internal_value=0 0.0395208 0.058939 -0.0416155 0.0768064 0.0634122 0.0985075 -0.0780002 -0.0879136 -0.0858772 -0.0854104
internal_weight=0 40.755 32.8848 7.87023 25.8025 19.6258 13.0753 20.0982 15.2812 10.9918 7.83674
internal_count=282 155 115 40 85 65 42 127 98 75 55
is_linear=0
shrinkage=0.1


Tree=22
num_leaves=11
num_cat=0
split_feature=6 6 1 2 8 4 4 3 6 8
split_gain=10.4551 12.449 5.25326 2.40152 5.76661 2.14629 0.767199 0.238704 0.0218841 0.0137129
threshold=14.658500000000002 19.950000000000003 10.995500000000002 6.6525000000000007 11.835000000000003 0.52150000000000019 0.57150000000000001 0.59450000000000014 23.275000000000002 9.9350000000000005
decision_type=2 2 2 2 2 2 2 2 2 2
left_child=6 3 7 -2 -5 -6 9 8 -3 -1
right_child=1 2 -4 4 5 -7 -8 -9 -10 -11
leaf_value=-0.086216054499123673 0.1127535041739821 -0.095221289734324477 0.043165759944040268 -0.038073683567154147 0.038687606837124328 0.12642025166383669 -0.043639294476817733 -0.056863079272972045 -0.084706841284627132 -0.094290090877530153
leaf_weight=5.1591208800673467 8.8267838060855883 3.7625312209129351 4.9886638671159735 5.2841279208660152 4.9225872308015806 6.4318994134664536 6.272084452211856 3.0724004805088043 4.1771287769079208 3.5516262948513031
leaf_count=35 30 19 25 25 20 21 38 19 31 19
internal_value=0 0.0271585 -0.041965 0.0705911 0.0482239 0.0883849 -0.0703066 -0.0805309 -0.0896895 -0.0895081
internal_weight=0 41.4661 16.0007 25.4654 16.6386 11.3545 14.9828 11.0121 7.93966 8.71075
internal_count=282 190 94 96 66 41 92 69 50 54
is_linear=0
shrinkage=0.1


Tree=23
num_leaves=12
num_cat=0
split_feature=8 3 6 6 5 4 8 6 7 0 2
split_gain=49.0126 3.88068 8.99584 2.80362 0.608968 0.156279 0.025898 0.00352308 0.00225382 0.00135997 0.000511156
threshold=13.025 0.59450000000000014 23.275000000000002 17.216500000000003 87.293500000000009 0.49750000000000005 16.625000000000004 15.083500000000003 6.5385000000000009 5.5185000000000004 6.7125000000000012
decision_type=2 2 2 2 2 2 2 2 2 2 2
left_child=3 5 -3 4 7 6 -2 8 -1 -10 -9
right_child=1 2 -4 -5 -6 -7 -8 10 9 -11 -12
leaf_value=-0.096627347253116946 0.12459325248542003 -0.032158386789226154 0.11997703112229832 -0.01842904170441478 -0.057527455715854242 0.10166506619233349 0.11553256201230018 -0.096391738118598011 -0.09331557581730919 -0.095436124218509055 -0.097825389229735063
leaf_weight=5.0051265954971376 6.2727183103561419 7.5017287135124198 8.0654967427253705 6.5844054818153372 4.9258776754140845 7.3142086565494528 6.3460768759250641 4.573952376842497 7.9233519285917264 4.8914033770561218 5.450469121336937
leaf_count=22 20 23 26 23 21 23 21 20 38 22 23
internal_value=0 0.0840768 0.0466641 -0.0779737 -0.0899378 0.113295 0.120037 -0.0956715 -0.0948278 -0.094125 -0.0971712
internal_weight=0 35.5002 15.5672 39.3546 32.7702 19.933 12.6188 27.8443 17.8199 12.8148 10.0244
internal_count=282 113 49 169 146 64 41 125 82 60 43
is_linear=0
shrinkage=0.1


Tree=24
num_leaves=12
num_cat=0
split_feature=8 7 0 8 5 9 1 8 5 4 3
split_gain=24.771 2.85676 3.64582 1.18518 3.75017 1.19098 0.00290283 0.00172088 0.000116483 7.88901e-05 8.62119e-06
threshold=9.9750000000000032 7.1715000000000009 3.6215000000000006 11.490000000000002 74.729500000000016 5.0285000000000002 10.290000000000001 13.025 57.535500000000006 0.53650000000000009 0.5415000000000002
decision_type=2 2 2 2 2 2 2 2 2 2 2
left_child=1 2 -1 4 -2 6 7 9 -9 -5 -10
right_child=3 -3 -4 5 -6 -7 -8 8 10 -11 -12
leaf_value=0.093229024558645249 0.045904380708058426 0.12678559344178039 -0.011950762804014093 -0.085319877431165772 -0.086984173819399324 -0.012664800731906357 -0.086748218276975583 -0.083267353293779822 -0.082280025982012173 -0.084567223260524127 -0.082528866929438283
leaf_weight=8.3988517671823519 3.6899363249540347 8.0873178243637067 5.4237577617168418 2.8049122393131318 5.0028053447604179 2.6798484623432151 3.6831118166446677 2.3424014374613744 2.2527686730027199 2.7658276632428169 3.6449390426278114
leaf_count=27 21 25 20 20 33 17 24 20 21 21 33
internal_value=0 0.0795783 0.0519583 -0.0614432 -0.030575 -0.0747441 -0.0842538 -0.0835886 -0.0826708 -0.0849462 -0.0824338
internal_weight=0 21.9099 13.8226 28.8666 8.69274 20.1738 17.494 13.8108 8.24011 5.57074 5.89771
internal_count=282 72 47 210 54 156 139 115 74 41 54
is_linear=0
shrinkage=0.1


Tree=25
num_leaves=12
num_cat=0
split_feature=6 6 6 5 1 0 8 3 8 9 4
split_gain=15.6688 5.09888 3.04399 1.74259 1.10565 3.88479 2.14862 0.647526 0.0145787 0.000667745 3.66381e-05
threshold=17.425000000000004 12.141500000000002 16.183500000000006 85.425000000000011 5.7550000000000008 6.0460000000000003 10.425000000000002 0.65050000000000019 13.465000000000002 4.7505000000000015 0.49450000000000005
decision_type=2 2 2 2 2 2 2 2 2 2 2
left_child=1 3 4 -1 6 -6 -3 8 -2 10 -10
right_child=7 2 -4 -5 5 -7 -8 -9 9 -11 -12
leaf_value=-0.089634042346312531 -0.09168067645284228 0.12527101824796164 -0.0060887136440957064 0.0066970288999773381 -0.0068557262043308087 0.10293492440678448 0.044071112396976211 -0.04301539769464232 -0.083813534721765531 -0.085826688917003305 -0.084280304306250567
leaf_weight=3.5542184710502616 3.9691477715969112 7.2061507105827349 7.0081537067890158 3.9814191162586212 6.5283592343330366 6.3650276511907578 5.94893479347229 4.5332809388637534 4.3890648111700994 2.7521838545799255 2.726090632379055
leaf_count=20 23 22 30 20 23 20 20 29 35 19 21
internal_value=0 0.0354929 0.0524147 -0.038738 0.0681547 0.0473442 0.0885512 -0.0758161 -0.0865627 -0.084504 -0.0839924
internal_weight=0 40.5923 33.0566 7.53564 26.0485 12.8934 13.1551 18.3698 13.8365 9.86734 7.11516
internal_count=282 155 115 40 85 43 42 127 98 75 56
is_linear=0
shrinkage=0.1


Tree=26
num_leaves=11
num_cat=0
split_feature=8 6 9 8 1 3 6 9 3 0
split_gain=9.27287 9.88978 3.8867 7.74742 4.97497 2.79819 0.239412 0.000858643 0.000740766 0.000381044
threshold=10.350000000000001 23.275000000000002 4.8690000000000007 13.150000000000002 6.5425000000000013 0.52950000000000019 10.700000000000001 4.8690000000000007 0.51200000000000012 5.3805000000000005
decision_type=2 2 2 2 2 2 2 2 2 2
left_child=6 2 3 4 5 -2 -1 -3 -8 -10
right_child=1 7 -4 -5 -6 -7 8 -9 9 -11
leaf_value=-0.052856584572714915 0.051968444450914322 -0.083137654688107215 0.12076472325139874 -0.063844224536661068 0.0046295159821555121 0.14342266038073354 -0.086750503053204919 -0.085374706475378759 -0.084007717473283283 -0.085641371053174625
leaf_weight=3.0287785679101935 6.7200588434934669 4.3526114970445624 5.6344310492277137 6.7822767049074164 10.138167247176169 6.6624465882778168 3.0220350250601751 2.8322205692529678 2.8910611867904663 2.8208403959870338
leaf_count=21 23 37 21 35 39 23 20 20 23 20
internal_value=0 0.023085 0.044498 0.0303173 0.0574691 0.0974987 -0.0770831 -0.0840195 -0.0854844 -0.0848145
internal_weight=0 43.1222 35.9374 30.3029 23.5207 13.3825 11.7627 7.18483 8.73394 5.7119
internal_count=282 198 141 120 85 46 84 57 63 43
is_linear=0
shrinkage=0.1


Tree=27
num_leaves=11
num_cat=0
split_feature=8 9 4 9 9 8 4 6 2 5
split_gain=40.9389 4.03107 3.16116 0.841462 0.2465 0.0939967 0.0830479 0.0394948 0.00566775 0.00128341
threshold=13.150000000000002 4.8690000000000007 0.48700000000000004 4.4285000000000005 4.3700000000000001 15.210000000000003 0.52150000000000019 15.975000000000001 4.1730000000000009 80.973500000000016
decision_type=2 2 2 2 2 2 2 2 2 2
left_child=2 4 -1 6 5 -2 -4 8 -8 -10
right_child=1 -3 3 -5 -6 -7 7 -9 9 -11
leaf_value=-0.0074612983231096943 0.12336980799393978 0.033150259315351475 -0.081508518680555503 -0.051718266037223105 0.091668964831900401 0.1067818515860996 -0.096394121072176903 -0.10409604674550244 -0.093027912858475212 -0.090855030708616238
leaf_weight=6.3375194221734992 6.2598314583301562 11.640025585889815 5.1913926005363527 6.1902787387371054 7.378721594810485 7.5196205079555511 4.4856001287698808 4.3745526522397986 7.188089042901991 4.3713368773460388
leaf_count=27 20 37 24 26 25 27 20 18 35 23
internal_value=0 0.0804161 -0.0719527 -0.0848049 0.106419 0.114318 -0.0928021 -0.0956734 -0.093377 -0.0922062
internal_weight=0 32.7982 38.1388 31.8013 21.1582 13.7795 25.611 20.4196 16.045 11.5594
internal_count=282 109 173 146 72 47 120 96 78 58
is_linear=0
shrinkage=0.1


Tree=28
num_leaves=10
num_cat=0
split_feature=8 3 8 1 6 8 8 9 4
split_gain=20.3764 2.57924 2.07223 1.21623 1.36236 0.00375595 0.00112428 0.000376668 7.74746e-06
threshold=9.9750000000000032 0.51550000000000018 8.9850000000000012 10.290000000000001 14.9335 13.025 11.490000000000002 4.5150000000000015 0.49750000000000005
decision_type=2 2 2 2 2 2 2 2 2
left_child=1 -1 -3 4 -2 6 -6 8 -7
right_child=3 2 -4 -5 5 7 -8 -9 -10
leaf_value=0.013487411166830977 -0.021174158262670717 0.12219831833889712 0.0495511984803991 -0.018788511376659281 -0.08616837442388188 -0.081372429330064694 -0.083874329763909405 -0.083018298959061931 -0.081609945612376694
leaf_weight=5.729852348566058 4.4586007595062318 9.3245058655738848 6.7825071662664405 5.8867833018302909 3.890394404530527 3.4615448117256156 4.7382743582129478 2.1509832367300987 2.2764881476759911
leaf_count=20 28 29 23 39 27 36 38 19 23
internal_value=0 0.0711092 0.0916073 -0.0589541 -0.0702262 -0.0834668 -0.0849086 -0.0818897 -0.0814667
internal_weight=0 21.8369 16.107 26.8631 20.9763 16.5177 8.62867 7.88902 5.73803
internal_count=282 72 52 210 171 143 65 78 59
is_linear=0
shrinkage=0.1


Tree=29
num_leaves=10
num_cat=0
split_feature=6 8 6 3 8 3 8 9 4
split_gain=13.5304 4.33835 3.06727 2.91857 1.32242 0.666121 0.0159416 0.000670143 4.9231e-06
threshold=17.425000000000004 9.5600000000000023 16.183500000000006 0.52950000000000019 10.475000000000003 0.65050000000000019 13.365000000000002 4.6235000000000008 0.49450000000000005
decision_type=2 2 2 2 2 2 2 2 2
left_child=1 3 4 -1 -3 6 -2 8 -8
right_child=5 2 -4 -5 -6 -7 7 -9 -10
leaf_value=0.02828677652586405 -0.091380985993788633 0.094035049215037095 -0.0053132425866974095 -0.076216490296921513 0.045537437678411841 -0.039800133968036194 -0.082575665868849776 -0.084429018882835383 -0.082760465635210348
leaf_weight=5.6028404682874662 3.2795156687498119 11.672201097011571 6.9520913809537879 5.1096755713224411 10.847987681627272 4.302313156425952 3.6646310761570913 3.2508808299899101 2.3763743564486504
leaf_count=23 19 38 30 28 36 29 33 25 21
internal_value=0 0.0329401 0.0527495 -0.0215594 0.0706737 -0.0737636 -0.0853869 -0.0832713 -0.0826484
internal_weight=0 40.1848 29.4723 10.7125 22.5202 16.8737 12.5714 9.29189 6.04101
internal_count=282 155 104 51 74 127 98 79 54
is_linear=0
shrinkage=0.1


Tree=30
num_leaves=10
num_cat=0
split_feature=6 6 2 9 8 8 4 8 9
split_gain=8.29197 8.95531 2.80927 4.70287 3.54496 3.70773 0.768641 0.0201505 0.000905473
threshold=14.658500000000002 23.275000000000002 6.6525000000000007 4.8690000000000007 13.465000000000002 11.835000000000003 0.57150000000000001 9.9750000000000032 4.8690000000000007
decision_type=2 2 2 2 2 2 2 2 2
left_child=6 2 -2 4 5 -4 7 -1 -3
right_child=1 8 3 -5 -6 -7 -8 -9 -10
leaf_value=-0.083903464864602206 0.093017385780358494 -0.082027229431413842 -0.037638134862414269 0.10560480097303758 -0.070319683059688526 0.069327797690781026 -0.0392073982501751 -0.094644965837082137 -0.084432474064300822
leaf_weight=4.7388120591640455 9.0204906612634641 3.8604926466941825 5.2003577947616639 5.8968953043222418 4.8569857925176612 8.598736956715582 5.7230834513902664 2.7657470926642418 2.6324064657092094
leaf_count=39 30 37 25 21 28 29 38 15 20
internal_value=0 0.0245027 0.0452935 0.0277603 0.0031549 0.0290164 -0.0668111 -0.0878622 -0.0830024
internal_weight=0 40.0664 33.5735 24.553 18.6561 13.7991 13.2276 7.50456 6.4929
internal_count=282 190 133 103 82 54 92 54 57
is_linear=0
shrinkage=0.1


Tree=31
num_leaves=12
num_cat=0
split_feature=8 6 3 4 9 4 2 6 2 0 7
split_gain=34.1411 4.06645 8.6375 2.48325 0.407791 0.126295 0.0196316 0.0122465 0.00435653 0.00191238 0.000824373
threshold=12.950000000000001 22.500000000000004 0.59050000000000014 0.48700000000000004 4.4285000000000005 0.45800000000000007 13.296500000000002 16.058500000000006 4.1730000000000009 5.605500000000001 6.7575000000000012
decision_type=2 2 2 2 2 2 2 2 2 2 2
left_child=3 2 -2 -1 7 -3 -7 8 -5 10 -10
right_child=1 5 -4 4 -6 6 -8 -9 9 -11 -12
leaf_value=-0.014622206253899843 0.093605069890696474 0.087885389974651368 -0.05918167861716736 -0.09376730120285337 -0.061605350939822001 0.10978639250100447 0.10197954185642562 -0.097111986762445868 -0.090444968154557215 -0.091768091273050537 -0.088507863823646851
leaf_weight=5.9018654823303214 9.0496873408555967 5.2221770286560085 6.2593934237956992 4.3350536227226355 5.4642958194017401 7.1956353187561017 5.8315821886062622 4.000255659222602 3.683212146162985 4.7241884022951117 5.4443477392196655
leaf_count=26 31 20 20 21 24 26 20 18 20 24 32
internal_value=0 0.0691418 0.0311355 -0.0735075 -0.0860759 0.101025 0.106292 -0.0921025 -0.0910007 -0.0901349 -0.0892895
internal_weight=0 33.5585 15.3091 33.5532 27.6514 18.2494 13.0272 22.1871 18.1868 13.8517 9.12756
internal_count=282 117 51 165 139 66 46 115 97 76 52
is_linear=0
shrinkage=0.1


Tree=32
num_leaves=11
num_cat=0
split_feature=8 7 0 1 6 8 0 8 9 4
split_gain=16.9046 2.59421 2.71099 1.22189 1.36193 0.00326904 0.00101856 0.00101037 0.000362634 6.92787e-06
threshold=9.9750000000000032 7.1715000000000009 3.6215000000000006 10.290000000000001 14.9335 13.025 6.1855000000000011 11.890000000000002 4.5150000000000015 0.49750000000000005
decision_type=2 2 2 2 2 2 2 2 2 2
left_child=1 2 -1 4 -2 6 -6 -8 9 -7
right_child=3 -3 -4 -5 5 8 7 -9 -10 -11
leaf_value=0.073768754495302583 -0.019075287855633456 0.10976557150422284 -0.017643059516732746 -0.015531122669365236 -0.082263937102558041 -0.080528917775897046 -0.085986437963790394 -0.083301672378328168 -0.082226710730037067 -0.080767209646920191
leaf_weight=8.2629788070917147 4.3470439836382928 7.9551671743392935 5.3416114449501029 5.6559479981660834 2.3260194510221464 3.0656515583395958 3.0454927757382393 2.5971134155988693 1.9524281024932859 2.0266037210822105
leaf_count=27 28 25 20 39 22 36 21 22 19 23
internal_value=0 0.0644029 0.0378775 -0.0564202 -0.0683656 -0.0826374 -0.0840248 -0.0847507 -0.081068 -0.0806238
internal_weight=0 21.5598 13.6046 25.0163 19.3604 15.0133 7.96863 5.64261 7.04468 5.09226
internal_count=282 72 47 210 171 143 65 43 78 59
is_linear=0
shrinkage=0.1


Tree=33
num_leaves=12
num_cat=0
split_feature=6 7 6 8 9 3 3 8 3 1 8
split_gain=11.4323 3.76648 3.69711 3.74518 2.56535 2.44036 0.702585 0.0139499 0.000647857 4.61733e-05 1.30493e-06
threshold=17.425000000000004 8.3955000000000002 15.742000000000003 9.5600000000000023 4.0710000000000006 0.52950000000000019 0.65050000000000019 13.365000000000002 0.60750000000000004 8.2435000000000027 16.200000000000003
decision_type=2 2 2 2 2 2 2 2 2 2 2
left_child=1 2 3 5 -5 -1 7 -2 9 10 -9
right_child=6 -3 -4 4 -6 -7 -8 8 -10 -11 -12
leaf_value=0.025337092713236038 -0.09018303846218699 0.088354426949958098 -0.065712013977293302 0.10800396030166209 0.026260920748050059 -0.072771522618815601 -0.035802674669886826 -0.081625649804036249 -0.083809660049771473 -0.082147365973966019 -0.08151328170023131
leaf_weight=5.6571231335401588 3.0462498515844336 8.6106156036257726 4.9409196600317946 6.3730873465538052 9.656396269798277 4.5944701433181763 4.031341813504695 2.1863471418619138 2.0635256171226501 2.107683502137661 1.9599309042096136
leaf_count=23 19 31 21 21 32 27 29 22 17 20 20
internal_value=0 0.0297997 0.0136511 0.0285716 0.0587608 -0.0186324 -0.0716696 -0.0843936 -0.0822732 -0.0817663 -0.0815725
internal_weight=0 39.8326 31.222 26.2811 16.0295 10.2516 15.3951 11.3637 8.31749 6.25396 4.14628
internal_count=282 155 124 103 53 50 127 98 79 62 42
is_linear=0
shrinkage=0.1


Tree=34
num_leaves=10
num_cat=0
split_feature=8 6 2 9 8 6 1 6 9
split_gain=7.23282 7.21193 2.2613 3.94053 2.44685 1.49944 0.305833 0.000800768 0.000581188
threshold=10.475000000000003 23.275000000000002 6.6935000000000011 4.8690000000000007 13.465000000000002 17.216500000000003 4.7865000000000011 13.450000000000001 4.8690000000000007
decision_type=2 2 2 2 2 2 2 2 2
left_child=6 2 -2 4 5 -4 -1 -8 -3
right_child=1 8 3 -5 -6 -7 7 -9 -10
leaf_value=-0.051058764354421741 0.078231525463019036 -0.081051845770048953 -0.01634435019378809 0.091675847921170672 -0.066639221732636963 0.050168749595598972 -0.082829622251250207 -0.085142254288367372 -0.083100444420258865
leaf_weight=5.3577976748347265 10.370219334959982 3.4051255881786338 6.2736815810203606 6.1228966414928427 4.3367035016417494 7.3720305114984512 3.1850878894329071 2.8254279643297195 2.3341299816966057
leaf_count=39 35 37 26 21 27 26 29 22 20
internal_value=0 0.0219062 0.0391846 0.0223865 -0.00120608 0.019589 -0.068431 -0.0839167 -0.081885
internal_weight=0 40.2148 34.4755 24.1053 17.9824 13.6457 11.3683 6.01052 5.73926
internal_count=282 192 135 100 79 52 90 51 57
is_linear=0
shrinkage=0.1


Tree=35
num_leaves=12
num_cat=0
split_feature=8 6 3 4 9 6 9 2 3 0 7
split_gain=28.7048 3.6078 7.33134 2.42145 0.428791 0.101056 0.021374 0.0105921 0.00365644 0.000650338 0.000653105
threshold=12.950000000000001 22.500000000000004 0.59050000000000014 0.48700000000000004 4.4285000000000005 24.008500000000005 4.7235000000000005 6.791500000000001 0.50450000000000006 5.5185000000000004 6.7575000000000012
decision_type=2 2 2 2 2 2 2 2 2 2 2
left_child=3 2 -2 -1 7 -3 -7 8 -5 10 -10
right_child=1 5 -4 4 -6 6 -8 -9 9 -11 -12
leaf_value=-0.011897278484662923 0.087624406623132728 0.084941313924740566 -0.055094256472224018 -0.091777286442719708 -0.058059300844241934 0.096628850171187441 0.10535506664327843 -0.094699613166475696 -0.08850987602686311 -0.089367450839739654 -0.086781900886609642
leaf_weight=5.7595283389091518 8.6478414386510867 5.7587216347456005 6.1654747426509848 3.765303313732157 5.2111583948135367 5.3267603963613492 5.9337310492992401 4.1644789427518836 5.0826446115970594 3.5441493690013877 3.8396988287568092
leaf_count=26 31 21 20 20 24 23 22 20 30 20 25
internal_value=0 0.0643084 0.0282232 -0.0704829 -0.0836598 0.0957166 0.101227 -0.0902006 -0.0890463 -0.0882215 -0.0877662
internal_weight=0 31.8325 14.8133 31.367 25.6074 17.0192 11.2605 20.3963 16.2318 12.4665 8.92234
internal_count=282 117 51 165 139 66 45 115 95 75 55
is_linear=0
shrinkage=0.1


Tree=36
num_leaves=12
num_cat=0
split_feature=8 7 7 8 5 1 1 8 9 1 4
split_gain=13.8651 2.33771 2.34649 1.23568 4.34255 1.5182 0.00255471 0.00129486 0.000337897 6.63418e-05 9.0465e-06
threshold=9.9750000000000032 7.1715000000000009 6.3100000000000014 11.490000000000002 74.115500000000011 11.985500000000002 10.290000000000001 13.025 4.5150000000000015 6.5425000000000013 0.49950000000000006
decision_type=2 2 2 2 2 2 2 2 2 2 2
left_child=1 2 -1 4 -2 6 7 9 10 -5 -9
right_child=3 -3 -4 5 -6 -7 -8 8 -10 -11 -12
leaf_value=0.069976857252923796 0.068822970870546105 0.1014535823222229 -0.014123718967632601 -0.08219958745024003 -0.084791511837795819 0.0092186767532979226 -0.084632634451785094 -0.079792801856686801 -0.081532301794995488 -0.082972854942859872 -0.080086613673454973
leaf_weight=7.4755415618419665 3.1621808409690884 7.8078052103519431 5.9646105021238327 2.1912033930420858 4.4021247774362564 2.1072837188839904 2.8931485190987578 2.8566580265760422 1.7657857760787008 2.2475188300013542 1.6551312059164045
leaf_count=25 19 25 22 21 35 15 22 38 19 20 21
internal_value=0 0.0579351 0.0326538 -0.053783 -0.0205745 -0.0697658 -0.0819958 -0.0812839 -0.0803596 -0.0825911 -0.0799006
internal_weight=0 21.248 13.4402 23.281 7.56431 15.7167 13.6094 10.7163 6.27758 4.43872 4.51179
internal_count=282 72 47 210 54 156 141 119 78 41 59
is_linear=0
shrinkage=0.1


Tree=37
num_leaves=12
num_cat=0
split_feature=6 6 6 3 1 1 8 9 8 3 8
split_gain=9.69809 3.17353 2.02638 1.33842 0.926269 2.75697 1.58685 0.753901 0.0140015 0.00145242 2.18192e-05
threshold=17.425000000000004 12.141500000000002 16.183500000000006 0.52950000000000019 5.7550000000000008 6.5425000000000013 10.425000000000002 4.9105000000000008 13.025 0.60750000000000004 14.9
decision_type=2 2 2 2 2 2 2 2 2 2 2
left_child=1 3 4 -1 6 -6 -3 8 -2 10 -10
right_child=7 2 -4 -5 5 -7 -8 -9 9 -11 -12
leaf_value=0.0037702250520936864 -0.090309592180414219 0.10514738912500238 -0.0079293660385493115 -0.085247788740393085 -0.018258207971109174 0.075237780940609192 0.034522869419528819 -0.031970766299732348 -0.081076762017590717 -0.083795538313769929 -0.080655022910836122
leaf_weight=3.9390887916088095 2.5253531262278539 6.8359379172325152 6.8692534118890753 2.9569014757871628 5.6177030801773054 7.1911213546991348 5.9511043876409531 3.8635690957307807 1.9229081049561498 2.3454433977603912 3.3883652687072754
leaf_count=18 15 22 30 22 20 23 20 32 21 20 39
internal_value=0 0.0272101 0.0402967 -0.0343994 0.0532393 0.0342322 0.0722787 -0.0695813 -0.0838526 -0.081723 -0.0808077
internal_weight=0 39.3611 32.4651 6.89599 25.5959 12.8088 12.787 14.0456 10.1821 7.65672 5.31127
internal_count=282 155 115 40 85 43 42 127 95 80 60
is_linear=0
shrinkage=0.1


Tree=38
num_leaves=10
num_cat=0
split_feature=8 6 9 8 1 3 6 7 9
split_gain=6.37044 5.7809 1.69933 4.1698 3.88167 1.98679 0.293034 0.000602655 0.000369702
threshold=10.350000000000001 23.275000000000002 4.8690000000000007 13.150000000000002 6.5425000000000013 0.52950000000000019 10.700000000000001 7.4280000000000008 4.8690000000000007
decision_type=2 2 2 2 2 2 2 2 2
left_child=6 2 3 4 5 -2 -1 -8 -3
right_child=1 8 -4 -5 -6 -7 7 -9 -10
leaf_value=-0.042870908062220429 0.038142193909630029 -0.080206001114533909 0.080609448764095259 -0.054107079051254815 -0.0049708041475670997 0.11490521514094731 -0.083760220814140085 -0.081777559376880915 -0.081947210541521334
leaf_weight=2.4614965915679914 6.6842597723007255 2.9916396737098685 6.2829819172620764 5.6233264058828345 10.164382696151732 6.8035594522953033 4.5456320568919182 2.3133169338107109 2.0584484413266182
leaf_count=21 23 37 21 35 39 23 39 24 20
internal_value=0 0.019202 0.0334209 0.0232935 0.0416956 0.0768632 -0.0724694 -0.0830915 -0.0809157
internal_weight=0 40.6086 35.5585 29.2755 23.6522 13.4878 9.32045 6.85895 5.05009
internal_count=282 198 141 120 85 46 84 63 57
is_linear=0
shrinkage=0.1


Tree=39
num_leaves=12
num_cat=0
split_feature=8 6 3 4 9 5 7 6 3 0 7
split_gain=24.2287 3.22255 6.23079 2.37835 0.457175 0.113312 0.0213238 0.00838706 0.00273006 0.000956603 0.000510243
threshold=12.950000000000001 22.500000000000004 0.59050000000000014 0.48700000000000004 4.4285000000000005 43.931000000000004 12.231000000000002 16.058500000000006 0.51200000000000012 5.3805000000000005 6.7575000000000012
decision_type=2 2 2 2 2 2 2 2 2 2 2
left_child=3 2 -2 -1 7 -3 -7 8 -5 10 -10
right_child=1 5 -4 4 -6 6 -8 -9 9 -11 -12
leaf_value=-0.0090921609258531044 0.082335448569703623 0.080548639212585288 -0.05127097466512142 -0.089812769331661366 -0.054417645818149153 0.093488332094671958 0.10286544861996377 -0.092988613724123009 -0.086763772183284127 -0.087922821569805396 -0.085013929701408225
leaf_weight=5.6158337444067028 8.2390244603157061 6.0507530570030204 6.0562855899333945 4.0064207091927591 4.9477745890617362 5.0619251728057844 4.6553887575864792 3.5152722895145407 3.9976930394768697 4.4066414013504982 2.8575327396392822
leaf_count=26 31 23 20 23 24 24 19 18 26 27 21
internal_value=0 0.0601177 0.0257324 -0.0676128 -0.0814612 0.0912914 0.0979807 -0.0885848 -0.0875709 -0.0867733 -0.0860344
internal_weight=0 30.0634 14.2953 29.3472 23.7313 15.7681 9.71731 18.7836 15.2683 11.2619 6.85523
internal_count=282 117 51 165 139 66 43 115 97 74 47
is_linear=0
shrinkage=0.1


Tree=40
num_leaves=10
num_cat=0
split_feature=8 7 0 1 6 8 8 9 8
split_gain=11.4965 2.10536 2.05729 1.281 1.45883 0.00357708 0.000829769 0.00034033 1.45655e-05
threshold=9.9750000000000032 7.1715000000000009 3.6215000000000006 10.290000000000001 14.9335 11.490000000000002 13.025 4.6235000000000008 14.9
decision_type=2 2 2 2 2 2 2 2 2
left_child=1 2 -1 4 -2 -6 -7 8 -8
right_child=3 -3 -4 -5 5 6 7 -9 -10
leaf_value=0.060465109964773146 -0.012024132991060416 0.094526634188459746 -0.020242257984063435 -0.0077433318825768848 -0.084371195292266443 -0.08168570497506672 -0.079530486438273318 -0.081076586531940151 -0.079146426041581688
leaf_weight=7.9797830730676669 3.9723671376705232 7.6207405775785437 5.2274650782346725 5.1463001519441596 3.2756555825471869 3.7249168753623945 1.6261097677052019 1.4518967345356939 2.5143445208668709
leaf_count=27 28 25 20 39 27 38 23 17 38
internal_value=0 0.0526717 0.0285209 -0.0513228 -0.0648615 -0.0815287 -0.0805294 -0.0797592 -0.0792973
internal_weight=0 20.828 13.2072 21.7116 16.5653 12.5929 9.31727 5.59235 4.14045
internal_count=282 72 47 210 171 143 116 78 61
is_linear=0
shrinkage=0.1


Tree=41
num_leaves=10
num_cat=0
split_feature=6 7 6 6 7 9 8 3 8
split_gain=8.37823 2.94053 2.99732 2.76131 2.1099 0.793599 0.0113295 0.00138025 3.1448e-05
threshold=17.425000000000004 8.3955000000000002 15.742000000000003 12.141500000000002 7.1115000000000004 4.9105000000000008 13.025 0.60750000000000004 14.9
decision_type=2 2 2 2 2 2 2 2 2
left_child=1 2 3 -1 -5 6 -2 8 -8
right_child=5 -3 -4 4 -6 -7 7 -9 -10
leaf_value=-0.031601430996679607 -0.089036427414792452 0.076821254298412578 -0.062806417630301356 0.078674180828188001 0.01160889157257604 -0.027864526244083584 -0.080409304574867585 -0.083125100366368915 -0.079873159900230681
leaf_weight=6.5437325611710611 2.3804956749081594 8.6922882646322233 4.6743442118167868 9.0275166630744952 9.765482544898985 3.6211778819560996 1.729699485003948 2.1566785275936127 2.9769134372472763
leaf_count=39 15 31 21 30 34 32 21 20 39
internal_value=0 0.0256045 0.0107703 0.0243444 0.0438248 -0.0675468 -0.083092 -0.0810301 -0.0800702
internal_weight=0 38.7034 30.0111 25.3367 18.793 12.865 9.24379 6.86329 4.70661
internal_count=282 155 124 103 64 127 95 80 60
is_linear=0
shrinkage=0.1


Tree=42
num_leaves=11
num_cat=0
split_feature=6 6 2 8 3 1 4 8 7 9
split_gain=5.8149 5.1467 1.87917 2.70455 1.78081 1.80179 0.77476 0.0195562 0.000446861 0.000253505
threshold=14.658500000000002 23.275000000000002 6.6525000000000007 11.735000000000001 0.57550000000000001 10.158000000000001 0.57150000000000001 10.040000000000001 6.8710000000000013 4.8690000000000007
decision_type=2 2 2 2 2 2 2 2 2 2
left_child=6 2 -2 -4 -5 -6 7 8 -1 -3
right_child=1 9 3 4 5 -7 -8 -9 -10 -11
leaf_value=-0.08257416281548112 0.073821647851562949 -0.079478391615025984 -0.049961235640006811 -0.0014118714363729626 0.1001398138521164 0.022026265982152581 -0.03262775205493703 -0.093387484949727539 -0.080389295778710568 -0.081013969731333263
leaf_weight=2.0877467766404139 8.8920476585626584 2.6204259172081938 4.4909589290618923 7.6658078059554127 5.8157583922147733 5.9987568110227585 4.9678938910365105 2.2374666258692741 1.6969996131956575 1.8230156004428861
leaf_count=20 30 37 23 38 21 21 38 13 21 20
internal_value=0 0.0209021 0.0345597 0.0199957 0.0361234 0.0604781 -0.0618608 -0.085976 -0.0815945 -0.0801084
internal_weight=0 37.3068 32.8633 23.9713 19.4803 11.8145 10.9901 6.02221 3.78475 4.44344
internal_count=282 190 133 103 80 42 92 54 41 57
is_linear=0
shrinkage=0.1


Tree=43
num_leaves=11
num_cat=0
split_feature=6 8 5 5 6 9 4 0 7 9
split_gain=20.7214 5.07509 6.94573 2.0537 0.430955 0.0209212 0.0122803 0.00211931 0.00113091 0.000370503
threshold=17.216500000000003 14.740000000000002 70.244500000000016 89.134000000000015 23.275000000000002 4.8690000000000007 0.50750000000000017 5.5185000000000004 6.7575000000000012 4.307500000000001
decision_type=2 2 2 2 2 2 2 2 2 2
left_child=3 2 -2 6 -3 -6 -1 8 -8 -9
right_child=1 4 -4 -5 5 -7 7 9 -10 -11
leaf_value=-0.092278222123968523 -0.051638169666362803 0.06172093748141514 0.091302829566185961 -0.00016031419361734833 0.090599262419765098 0.099127122583093405 -0.086390401807437081 -0.086930175133638224 -0.084027088271262373 -0.088348027661348971
leaf_weight=4.4929184913635316 8.8349621891975385 6.2830428481102016 5.5254240781068793 3.0953840613365164 7.0070628523826581 4.880462259054184 4.100045368075369 4.1578600257635108 4.0004695355892181 3.31038848310709
leaf_count=24 33 24 20 17 37 20 28 27 32 20
internal_value=0 0.0477908 0.00336102 -0.075975 0.0829042 0.0941004 -0.0876726 -0.0863435 -0.0852233 -0.0875587
internal_weight=0 32.531 14.3604 23.1571 18.1706 11.8875 20.0617 15.5688 8.10051 7.46825
internal_count=282 134 53 148 81 57 131 107 60 47
is_linear=0
shrinkage=0.1


Tree=44
num_leaves=10
num_cat=0
split_feature=8 3 8 1 6 8 8 9 8
split_gain=9.58872 1.99741 1.79235 1.25903 1.42547 0.0029343 0.000693318 0.000223149 2.16924e-05
threshold=9.9750000000000032 0.51550000000000018 8.9850000000000012 10.290000000000001 14.9335 11.490000000000002 13.025 4.6235000000000008 14.9
decision_type=2 2 2 2 2 2 2 2 2
left_child=1 -1 -3 4 -2 -6 -7 8 -8
right_child=3 2 -4 -5 5 6 7 -9 -10
leaf_value=-0.0022641226903473781 -0.011020390764798341 0.0995773046680868 0.029490738952588677 -0.0052230072495420745 -0.083566288906243194 -0.081036485961283294 -0.079085490650246587 -0.080320012003092633 -0.078590518837775625
leaf_weight=5.6543169915676144 3.921906121075156 8.0137334614992124 6.6990264058113089 4.9947006776928893 3.0365128405392161 3.4071347638964635 1.4782802052795889 1.2835532464087007 2.2077410407364368
leaf_count=20 28 29 23 39 27 38 23 17 38
internal_value=0 0.0482516 0.0676654 -0.0488284 -0.0630309 -0.0809031 -0.0799377 -0.0791845 -0.078789
internal_weight=0 20.3671 14.7128 20.3298 15.3351 11.4132 8.37671 4.96957 3.68602
internal_count=282 72 52 210 171 143 116 78 61
is_linear=0
shrinkage=0.1


Tree=45
num_leaves=12
num_cat=0
split_feature=6 7 8 8 6 3 3 8 3 1 8
split_gain=7.04327 2.32723 2.17399 2.39301 2.70534 1.84263 0.836645 0.00906368 0.000659779 7.27114e-05 5.57775e-06
threshold=17.425000000000004 8.3955000000000002 11.290000000000001 9.5600000000000023 14.166500000000001 0.52950000000000019 0.65050000000000019 13.025 0.60750000000000004 8.2435000000000027 16.200000000000003
decision_type=2 2 2 2 2 2 2 2 2 2 2
left_child=1 2 3 5 -5 -1 7 -2 9 10 -9
right_child=6 -3 -4 4 -6 -7 -8 8 -10 -11 -12
leaf_value=0.01986446548797538 -0.087826504984675549 0.068695129050495546 -0.05078098443907423 0.089762079983960671 0.0046597761251571867 -0.069613380855177043 -0.022625783526263338 -0.079419084710396437 -0.081924081287248179 -0.080126737802750925 -0.079149257179296953
leaf_weight=5.544393137097364 2.0440059155225736 8.6961058825254423 4.9293536841869345 7.4263575673103315 7.5158707648515701 3.9348346814513206 3.2967321798205367 1.8174340203404429 1.6163843497633932 1.6404000893235204 1.3243554458022115
leaf_count=23 14 31 22 26 26 27 29 26 17 21 20
internal_value=0 0.0232584 0.0097963 0.0220235 0.046956 -0.0172779 -0.0653471 -0.0820293 -0.0801775 -0.0795871 -0.0793053
internal_weight=0 38.0469 29.3508 24.4215 14.9422 9.47923 11.7393 8.44258 6.39857 4.78219 3.14179
internal_count=282 155 124 102 52 50 127 98 84 67 46
is_linear=0
shrinkage=0.1


Tree=46
num_leaves=13
num_cat=0
split_feature=6 6 1 6 1 4 3 1 7 8 8 4
split_gain=5.01415 3.89093 3.19668 1.22135 3.76734 1.29771 0.80487 0.318784 0.218807 0.0376917 0.01986 0.00027049
threshold=14.658500000000002 19.950000000000003 10.995500000000002 18.041500000000003 7.027000000000001 0.50750000000000017 0.49650000000000005 8.9060000000000006 6.3755000000000015 15.055000000000001 10.185 0.56950000000000001
decision_type=2 2 2 2 2 2 2 2 2 2 2 2
left_child=6 3 7 4 5 -2 -1 9 -8 -3 11 -10
right_child=1 2 -4 -5 -6 -7 8 -9 10 -11 -12 -13
leaf_value=-0.011107706727144945 0.019710158331068137 -0.097785567472187029 0.034813377337126215 0.080290478560552353 -0.038986746418702166 0.083632723128405639 -0.048010165886217107 -0.042019754389570015 -0.080268428920012569 -0.079503144316871638 -0.093344564608956432 -0.082038190806594399
leaf_weight=2.5744231566786748 5.2783193439245277 2.1815190836787206 4.6365301162004471 6.1198332980275145 5.7107789218425742 7.9734833911061287 2.088929895311594 2.2150327116250992 1.692322798073292 2.3342900611460209 2.1892533749341965 1.7636179924011228
leaf_count=20 19 12 25 24 24 29 20 23 22 34 12 18
internal_value=0 0.0194523 -0.0290803 0.0414474 0.0289115 0.0581718 -0.0595394 -0.0730933 -0.0756607 -0.0883351 -0.0858924 -0.0811716
internal_weight=0 36.4498 11.3674 25.0824 18.9626 13.2518 10.3085 6.73084 7.73412 4.51581 5.64519 3.45594
internal_count=282 190 94 96 72 48 92 69 72 46 52 40
is_linear=0
shrinkage=0.1


Tree=47
num_leaves=12
num_cat=0
split_feature=6 6 5 1 5 6 0 4 0 7 2
split_gain=18.0696 3.41002 4.88307 2.51435 2.03149 0.309814 0.144736 0.00818884 0.00171469 0.00094294 0.000208301
threshold=19.950000000000003 17.216500000000003 69.612500000000026 10.995500000000002 89.134000000000015 22.092000000000002 11.8665 0.50750000000000017 5.5185000000000004 6.6300000000000008 6.791500000000001
decision_type=2 2 2 2 2 2 2 2 2 2 2
left_child=1 4 -3 5 7 -2 -7 -1 9 -9 -10
right_child=3 2 -4 -5 -6 6 -8 8 10 -11 -12
leaf_value=-0.090293300394997764 0.11582189180668304 -0.073836059906674897 0.063487179620307407 0.018425299167486014 0.0017780609387924541 0.068227541068573913 0.093184556409027161 -0.085444877787570483 -0.085783078802156104 -0.083170529016272851 -0.086883921361333036
leaf_weight=4.1228327900171378 4.219103246927264 5.091414660215376 5.2693734169006348 6.6372200995683661 3.0473351329565039 3.8266282528638822 5.9168180972337723 3.2675215601921064 3.2355757057666779 4.1232874169945717 3.6668195426464081
leaf_count=24 17 20 20 25 17 21 31 24 23 36 24
internal_value=0 -0.0511094 -0.0039951 0.0690976 -0.0738523 0.0931851 0.083383 -0.086367 -0.0852345 -0.084176 -0.0863679
internal_weight=0 31.8242 10.3608 20.5998 21.4634 13.9625 9.74345 18.416 14.2932 7.39081 6.9024
internal_count=282 188 40 94 148 69 52 131 107 60 47
is_linear=0
shrinkage=0.1


Tree=48
num_leaves=11
num_cat=0
split_feature=8 7 7 9 8 9 6 1 8 8
split_gain=7.97106 1.9448 1.92064 1.2725 3.49399 1.75821 0.00200421 0.00179633 0.000675487 0.000185815
threshold=9.9750000000000032 7.1715000000000009 6.3100000000000014 4.2560000000000011 11.490000000000002 5.0870000000000006 16.225000000000005 10.290000000000001 15.49 13.875000000000002
decision_type=2 2 2 2 2 2 2 2 2 2
left_child=1 2 -1 6 -5 7 -2 8 -6 -8
right_child=3 -3 -4 4 5 -7 9 -9 -10 -11
leaf_value=0.055509702766105923 -0.0824097150340206 0.085691010635870979 -0.023028216605440219 0.06064977324966149 -0.080866435584024329 0.030975362919262742 -0.079730298369116728 -0.083274410466282728 -0.078168030957868506 -0.07816959832846343
leaf_weight=7.005112901329996 3.7719435691833523 7.2171222865581504 5.6053774803876877 3.3172646090388289 3.0278787948191148 1.729711167514324 1.5516954399645331 2.8295655101537704 1.3374664820730684 1.500585004687309
leaf_count=25 38 25 22 20 36 14 22 25 26 29
internal_value=0 0.0442924 0.0205995 -0.0462666 -0.026978 -0.0595491 -0.0808681 -0.0813118 -0.0800397 -0.078963
internal_weight=0 19.8276 12.6105 19.0661 12.2419 8.92462 6.82422 7.19491 4.36535 3.05228
internal_count=282 72 47 210 121 101 89 87 62 51
is_linear=0
shrinkage=0.1


Tree=49
num_leaves=12
num_cat=0
split_feature=6 6 6 3 9 9 7 8 9 8 6
split_gain=5.95613 1.87328 1.62689 1.45817 0.865256 0.807302 1.35452 0.00835236 0.0010083 0.00015136 7.75947e-07
threshold=17.425000000000004 12.141500000000002 16.183500000000006 0.52000000000000013 4.9105000000000008 4.0580000000000007 8.161500000000002 12.615000000000002 4.5395000000000012 14.740000000000002 24.216500000000003
decision_type=2 2 2 2 2 2 2 2 2 2 2
left_child=1 3 5 -1 7 -3 -7 -2 9 -9 -11
right_child=4 2 -4 -5 -6 6 -8 8 -10 10 -12
leaf_value=0.0135997618801119 -0.088714249495998002 0.070868009123512751 -0.01238228666128372 -0.083809745093753787 -0.019664002930660351 0.0098283595813591154 0.068263403472915166 -0.07992712780603517 -0.081843010590231108 -0.07872330996018656 -0.078608752822750316
leaf_weight=3.5352289378643027 1.3881528079509715 7.3680605888366761 6.7114845514297476 2.7184780836105347 3.2003126069903374 10.813143104314806 6.2651435434818259 1.5956123471260073 2.2036373540759087 1.1983141154050829 1.1671859845519064
leaf_count=16 9 26 30 24 32 38 21 22 24 20 20
internal_value=0 0.0212035 0.0312285 -0.028744 -0.0632417 0.0432014 0.0312652 -0.0817064 -0.0801284 -0.0791745 -0.0786668
internal_weight=0 37.4115 31.1578 6.25371 10.7532 24.4463 17.0783 7.5529 6.16475 3.96111 2.3655
internal_count=282 155 115 40 127 85 59 95 86 62 40
is_linear=0
shrinkage=0.1


Tree=50
num_leaves=12
num_cat=0
split_feature=8 8 3 5 6 0 8 5 6 6 7
split_gain=4.47273 2.95624 1.54284 1.23315 2.99449 1.32751 2.5825 0.458521 0.00276746 0.000678595 0.000465363
threshold=10.350000000000001 14.660000000000002 0.62950000000000006 80.973500000000016 16.183500000000006 7.3130000000000015 12.820000000000002 88.143500000000003 23.275000000000002 13.775 6.6300000000000008
decision_type=2 2 2 2 2 2 2 2 2 2 2
left_child=7 3 8 4 -2 -6 -7 9 -3 10 -1
right_child=1 2 -4 -5 5 6 -8 -9 -10 -11 -12
leaf_value=-0.081890200618073866 -0.037269609719079222 -0.083842756287762651 0.003947198074154658 0.071093671578440695 0.087709504078346226 -0.020605715948666174 0.072583832126716416 -0.021720319168914329 -0.078548916265074042 -0.083233440411483145 -0.079772877854765376
leaf_weight=2.1437182910740367 6.4396372288465562 1.7786891683936104 4.6174344569444656 6.1297193169593802 4.7525297105312374 6.0515749305486661 5.8469709753990173 1.6387565396726129 2.2200462631881237 1.706234239041805 2.0126130320131779
leaf_count=22 29 17 30 20 19 21 23 16 39 18 28
internal_value=0 0.0160436 -0.0354318 0.0312221 0.0206376 0.0430327 0.0251878 -0.0684828 -0.0809037 -0.0815543 -0.0808649
internal_weight=0 37.8366 8.61617 29.2204 23.0907 16.6511 11.8985 7.50132 3.99874 5.86257 4.15633
internal_count=282 198 86 112 92 63 44 84 56 68 50
is_linear=0
shrinkage=0.1


Tree=51
num_leaves=11
num_cat=0
split_feature=6 8 5 5 6 1 4 0 7 2
split_gain=15.2564 4.26159 5.4414 2.01664 0.455796 0.0167187 0.00676594 0.00140035 0.000705801 0.00017143
threshold=17.216500000000003 14.740000000000002 70.244500000000016 89.134000000000015 23.275000000000002 10.290000000000001 0.50750000000000017 5.5185000000000004 6.6300000000000008 6.791500000000001
decision_type=2 2 2 2 2 2 2 2 2 2
left_child=3 2 -2 6 -3 -6 -1 8 -8 -9
right_child=1 4 -4 -5 5 -7 7 9 -10 -11
leaf_value=-0.088941402826545737 -0.049282857256868748 0.054791410335529013 0.07982012148925044 0.0038834125608273105 0.086677552096877275 0.095060407517564782 -0.08430737410493698 -0.084676174888177788 -0.082239499344839651 -0.085717612281569683
leaf_weight=3.8436274081468644 8.4143770188093203 5.8323334455490103 5.3342953771352759 2.9872447401285163 5.9858913868665677 3.9484963715076447 2.9675985872745496 2.9678891226649284 3.7191474437713623 3.381433866918087
leaf_count=24 33 24 20 17 39 18 24 23 36 24
internal_value=0 0.0414987 0.000807319 -0.0718513 0.0769818 0.0900094 -0.0852543 -0.0841672 -0.0831572 -0.0852308
internal_weight=0 29.5154 13.7487 19.8669 15.7667 9.93439 16.8797 13.0361 6.68675 6.34932
internal_count=282 134 53 148 81 57 131 107 60 47
is_linear=0
shrinkage=0.1


Tree=52
num_leaves=10
num_cat=0
split_feature=6 5 8 3 1 8 8 3 8
split_gain=6.72283 2.97799 5.05747 2.33548 2.08134 0.00619603 0.000480881 0.000156224 9.31216e-06
threshold=15.083500000000003 76.386500000000012 9.5600000000000023 0.52950000000000019 10.290000000000001 11.490000000000002 13.025 0.59050000000000014 14.9
decision_type=2 2 2 2 2 2 2 2 2
left_child=1 -1 3 -3 5 -2 -7 8 -8
right_child=4 2 -4 -5 -6 6 7 -9 -10
leaf_value=0.090980791659469193 -0.084606349472153994 0.0058147615852738276 -0.076865793750659731 0.095095442929305316 0.00086790448446300331 -0.080006964119196833 -0.078133798932008072 -0.079287104170982364 -0.077757003329658653
leaf_weight=6.4418715834617641 2.8093010522425157 6.5646401494741458 4.7056224010884753 5.2918349355459213 4.6445064693689337 2.8754640631377697 1.0586916841566569 1.1473156511783598 1.7239680886268614
leaf_count=25 25 22 33 22 39 38 21 19 38
internal_value=0 0.0332893 0.0108501 0.0456629 -0.0541016 -0.0806553 -0.0790242 -0.0783052 -0.0779004
internal_weight=0 23.004 16.5621 11.8565 14.2592 9.61474 6.80544 3.92998 2.78266
internal_count=282 102 77 44 180 141 116 78 59
is_linear=0
shrinkage=0.1


Tree=53
num_leaves=13
num_cat=0
split_feature=6 7 8 5 8 8 9 9 8 9 8 6
split_gain=5.05473 1.75083 1.8425 2.41576 2.55226 2.20852 1.97817 0.891436 0.00660413 0.000805099 0.000127938 1.57066e-06
threshold=17.425000000000004 8.3955000000000002 11.290000000000001 76.386500000000012 9.4550000000000018 10.185 4.0920000000000014 4.9105000000000008 12.615000000000002 4.5395000000000012 14.740000000000002 24.216500000000003
decision_type=2 2 2 2 2 2 2 2 2 2 2 2
left_child=1 2 3 -1 6 -6 -5 8 -2 10 -10 -12
right_child=7 -3 -4 4 5 -7 -8 -9 9 -11 11 -13
leaf_value=-0.04499888529915913 -0.087506010202871756 0.059060055247400128 -0.049462446662152673 -0.061275614069137063 0.10740996843314621 0.019180318414629891 0.04234056489528007 -0.01598632343746215 -0.079413639734929611 -0.081203794368234744 -0.078273312390341687 -0.078099479231371782
leaf_weight=4.7149099260568681 1.3063953742384891 8.5960658416151983 4.7256505712866774 3.7770460620522526 5.8768777102231962 5.4849608838558197 3.5973476320505142 3.0365837812423706 1.4438475593924525 1.9965127296745775 1.0646962113678458 1.0155690163373945
leaf_count=19 9 31 22 22 21 20 20 32 22 24 20 20
internal_value=0 0.0195548 0.00750275 0.0189818 0.0350824 0.0648168 -0.01073 -0.0610628 -0.0811124 -0.0795994 -0.0786904 -0.0781884
internal_weight=0 36.7729 28.1768 23.4511 18.7362 11.3618 7.37439 9.8636 6.82702 5.52063 3.52411 2.08027
internal_count=282 155 124 102 83 41 42 127 95 86 62 40
is_linear=0
shrinkage=0.1


Tree=54
num_leaves=12
num_cat=0
split_feature=8 8 3 1 7 0 5 8 7 9 5
split_gain=3.9287 2.29831 1.47229 1.17086 3.1517 1.73611 0.467277 0.00230492 0.000619114 0.000447326 8.35612e-06
threshold=10.350000000000001 14.660000000000002 0.62950000000000006 6.5185000000000004 9.3360000000000021 5.8580000000000014 88.143500000000003 15.885000000000002 7.4280000000000008 4.1115000000000013 62.382000000000012
decision_type=2 2 2 2 2 2 2 2 2 2 2
left_child=6 3 7 5 -5 -2 8 -3 9 -1 -9
right_child=1 2 -4 4 -6 -7 -8 10 -10 -11 -12
leaf_value=-0.080688297333944115 0.021285218456195094 -0.083567827218016352 0.0056708303172830973 -0.053547060185383757 0.041518517364137246 0.095327660846865434 -0.01913051416082346 -0.078148966679280799 -0.079464942735326671 -0.082905789248401696 -0.078540416704153238
leaf_weight=1.8768644854426377 8.2098702564835566 1.3516362309455856 4.5221246890723705 5.25632020831108 10.362539067864416 5.1553219631314269 1.5782654397189615 1.2207942157983782 1.7285413071513174 1.7653663493692873 0.98556628078222264
leaf_count=23 30 14 30 24 37 21 16 24 27 18 18
internal_value=0 0.01497 -0.0321925 0.0281179 0.00952546 0.0498454 -0.0669663 -0.080316 -0.0810235 -0.0817631 -0.0783238
internal_weight=0 37.0642 8.08012 28.9841 15.6189 13.3652 6.94904 3.558 5.37077 3.64223 2.20636
internal_count=282 198 86 112 61 51 84 56 68 41 42
is_linear=0
shrinkage=0.1


Tree=55
num_leaves=12
num_cat=0
split_feature=8 6 9 4 8 9 1 0 2 0 7
split_gain=13.1317 2.58352 4.74588 1.85313 1.07687 0.574748 0.0130555 0.00622813 0.00345815 0.000582533 0.000352468
threshold=12.820000000000002 23.275000000000002 4.8690000000000007 0.48700000000000004 13.465000000000002 4.4285000000000005 10.290000000000001 6.5540000000000012 4.1730000000000009 5.605500000000001 6.7575000000000012
decision_type=2 2 2 2 2 2 2 2 2 2 2
left_child=3 2 4 -1 -2 7 -3 8 -5 10 -10
right_child=1 6 -4 5 -6 -7 -8 -9 9 -11 -12
leaf_value=2.7895997259050919e-05 0.021313152535789807 0.085054060832963296 -0.055819885339649822 -0.08680261658317287 0.086453918760561341 -0.041990975241859921 0.092812553038019788 -0.089498879248636462 -0.083126456944847021 -0.083897826413668539 -0.081459613868942085
leaf_weight=4.043014049530032 4.2710701152682322 5.3246092051267606 5.3268564492464057 2.9523988217115429 6.2536258548498154 4.0620679855346671 3.6595811545848846 2.3738554641604415 2.2086860090494138 3.1217200085520744 2.9806099832057953
leaf_count=23 17 39 18 21 29 24 18 15 20 26 32
internal_value=0 0.0453729 0.0210917 -0.0610558 0.0600189 -0.0750089 0.0882144 -0.0848438 -0.0838628 -0.0828184 -0.0821691
internal_weight=0 24.8357 15.8516 21.7424 10.5247 17.6993 8.98419 13.6373 11.2634 8.31102 5.1893
internal_count=282 121 64 161 46 138 57 114 99 78 52
is_linear=0
shrinkage=0.1


Tree=56
num_leaves=12
num_cat=0
split_feature=8 5 6 5 1 1 1 8 3 1 8
split_gain=5.64521 2.93535 4.18418 2.61367 2.40163 1.53228 0.00179657 0.000741464 0.000135353 0.0001207 8.62891e-06
threshold=11.490000000000002 72.054500000000004 13.258500000000002 84.684500000000014 13.133500000000002 6.3435000000000015 10.290000000000001 13.025 0.59050000000000014 6.5425000000000013 14.9
decision_type=2 2 2 2 2 2 2 2 2 2 2
left_child=1 -1 3 -3 6 -4 7 9 10 -2 -9
right_child=4 2 5 -5 -6 -7 -8 8 -10 -11 -12
leaf_value=0.10293938983046565 -0.079392596514439973 0.087346807103152971 -0.094692265820702753 0.00031548031588106765 0.063987008490880376 -0.00064278615579671462 -0.081986970581630084 -0.077760239476006895 -0.078890765464154688 -0.080666468566116423 -0.077373879147679625
leaf_weight=4.1128723546862629 1.384448785334824 6.6821602284908312 3.8597650080919257 7.1352356821298599 1.3292379304766644 3.1428588926792145 2.7205428406596184 0.94091686978936273 1.028232406824827 1.6073551848530767 1.4989364221692083
leaf_count=21 21 28 32 29 9 16 28 21 19 20 38
internal_value=0 0.0257404 0.0104902 0.0424043 -0.0616415 -0.0524818 -0.0798313 -0.0789235 -0.0779284 -0.080077 -0.0775229
internal_weight=0 24.9329 20.82 13.8174 10.5097 7.00262 9.18043 6.45989 3.46809 2.9918 2.43985
internal_count=282 126 105 57 156 48 147 119 78 41 59
is_linear=0
shrinkage=0.1


Tree=57
num_leaves=12
num_cat=0
split_feature=8 6 3 6 5 9 7 2 3 3 8
split_gain=4.25253 1.2944 1.74423 1.6769 4.00724 0.704944 1.19704 0.640918 0.00321838 0.000450214 9.3337e-05
threshold=13.025 12.141500000000002 0.51850000000000007 16.183500000000006 69.612500000000026 4.0580000000000007 8.161500000000002 13.835000000000003 0.66100000000000014 0.60750000000000004 14.740000000000002
decision_type=2 2 2 2 2 2 2 2 2 2 2
left_child=1 2 -1 5 -5 -3 -7 8 9 10 -2
right_child=7 3 -4 4 -6 6 -8 -9 -10 -11 -12
leaf_value=0.024203590001067966 -0.078963400510400988 0.064249862003041947 -0.084566770473509842 0.060282482323447253 -0.079798503235732926 0.0059579314097148233 0.061899766899594068 -0.0029004188802723395 -0.084209338225389188 -0.08041173867375967 -0.077824580607007976
leaf_weight=3.1427378058433524 1.2212607301771634 7.0175488144159379 2.7770220339298248 3.8105508014559728 4.4004075974225998 10.463361576199533 6.0290721952915183 1.2937753684818742 1.6178662553429601 1.5117968693375585 1.7523371316492555
leaf_count=14 21 26 26 19 25 38 21 19 15 20 38
internal_value=0 0.0161049 -0.0268217 0.0241159 -0.0147896 0.0377038 0.0264084 -0.0668332 -0.0803858 -0.0790067 -0.0782923
internal_weight=0 37.6407 5.91976 31.7209 8.21096 23.51 16.4924 7.39704 6.10326 4.48539 2.9736
internal_count=282 169 40 129 44 85 59 113 94 79 59
is_linear=0
shrinkage=0.1


Tree=58
num_leaves=13
num_cat=0
split_feature=6 6 5 2 3 6 1 4 7 8 8 7
split_gain=3.36538 2.10449 2.54687 3.73985 0.997941 0.842142 2.82809 1.06023 0.225814 0.025272 0.0149128 0.000267547
threshold=14.658500000000002 19.950000000000003 53.531500000000008 13.042500000000002 0.49550000000000005 18.041500000000003 7.027000000000001 0.50750000000000017 6.1915000000000004 14.9 10.350000000000001 7.1715000000000009
decision_type=2 2 2 2 2 2 2 2 2 2 2 2
left_child=4 5 3 -3 -1 6 7 -2 -6 -4 11 -10
right_child=1 2 9 -5 8 -7 -8 -9 10 -11 -12 -13
leaf_value=0.0070743779443252532 0.011961282074303636 0.09194189639377251 -0.095814380507766972 -0.065194168222738227 -0.040921091459616366 0.063911987324883776 -0.038954557435095481 0.070905796465296142 -0.080639804507935842 -0.079447296442047941 -0.091245495781767369 -0.078782139819243868
leaf_weight=2.028488449752329 5.1348326951265388 3.1793275438249093 1.8622724562883379 2.8926629759371281 1.6241181939840315 6.1105886399745932 5.4893496669828883 7.5210956633090973 1.6682325154542925 1.9119936451315878 1.7819179370999334 1.4484417848289011
leaf_count=17 19 16 11 31 18 24 24 29 21 36 10 26
internal_value=0 0.0159757 -0.0230145 0.0170831 -0.0541842 0.0318032 0.0209902 0.0469905 -0.0732349 -0.087523 -0.0839485 -0.0797765
internal_weight=0 34.1021 9.84626 6.07199 8.5512 24.2559 18.1453 12.6559 6.52271 3.77427 4.89859 3.11667
internal_count=282 190 94 47 92 96 72 48 75 47 57 47
is_linear=0
shrinkage=0.1


Tree=59
num_leaves=12
num_cat=0
split_feature=6 7 8 5 5 6 1 4 0 7 2
split_gain=11.4658 3.80607 6.33933 2.47558 0.723521 0.552663 0.00971744 0.00535094 0.000992657 0.000433638 0.000131923
threshold=17.216500000000003 8.3465000000000007 14.740000000000002 89.766500000000022 62.994000000000007 23.275000000000002 10.290000000000001 0.50750000000000017 5.5185000000000004 6.6300000000000008 6.791500000000001
decision_type=2 2 2 2 2 2 2 2 2 2 2
left_child=3 -2 4 7 -3 -4 -7 -1 9 -9 -10
right_child=1 2 5 -5 -6 6 -8 8 10 -11 -12
leaf_value=-0.087060815798118793 0.12639823372889078 -0.063701549589016929 0.043710690710887012 0.024984178454034934 -0.011057527354288929 0.083787495300294529 0.091088670091062807 -0.082539838699216009 -0.082988683779073563 -0.08081887481165434 -0.083979012720820395
leaf_weight=3.4166085124015835 4.0211234092712429 5.011686637997629 4.8626721203327161 2.4499984532594672 5.4493200778961182 3.901435874402523 3.4216575175523758 2.8082288876175863 2.5048045590519905 3.0590785779058933 2.9053299352526665
leaf_count=24 21 20 21 14 22 32 18 27 23 36 24
internal_value=0 0.0367435 0.0208245 -0.0680773 -0.0362784 0.0698451 0.0871989 -0.0835938 -0.0825435 -0.0816426 -0.0835205
internal_weight=0 26.6679 22.6468 17.144 10.461 12.1858 7.32309 14.6941 11.2774 5.86731 5.41013
internal_count=282 134 113 148 42 71 50 134 110 63 47
is_linear=0
shrinkage=0.1


Tree=60
num_leaves=11
num_cat=0
split_feature=6 5 6 5 1 8 8 9 8 9
split_gain=4.86144 2.35065 3.33396 2.31296 2.10426 0.00542783 0.000319739 0.000163859 8.87089e-05 1.36152e-06
threshold=15.083500000000003 76.386500000000012 12.458500000000003 85.425000000000011 10.290000000000001 11.490000000000002 15.49 4.3505000000000011 12.950000000000001 4.3640000000000017
decision_type=2 2 2 2 2 2 2 2 2 2
left_child=1 -1 3 -3 5 -2 7 8 -7 -8
right_child=4 2 -4 -5 -6 6 9 -9 -10 -11
leaf_value=0.080469617425887707 -0.083838592939060236 0.090490894251295736 -0.057009141614306362 -0.0052212220577135407 0.0061994503279166509 -0.078771236908465631 -0.076977130721747111 -0.079477981384300803 -0.077488075680782253 -0.077165147039592596
leaf_weight=6.2203303128480938 2.5953263081610185 4.9019013792276365 5.2542196027934542 5.2066770941019058 4.3481001742184153 1.1747502833604819 0.79867760092020013 1.7762281484901903 0.99519353359937657 0.74387728236615658
leaf_count=25 25 20 35 22 39 20 24 26 25 21
internal_value=0 0.0286057 0.00760628 0.041192 -0.0498978 -0.0800704 -0.0782886 -0.0787657 -0.0781827 -0.0770678
internal_weight=0 21.5831 15.3628 10.1086 12.4322 8.08405 5.48873 3.94617 2.16994 1.54255
internal_count=282 102 77 42 180 141 116 71 45 45
is_linear=0
shrinkage=0.1


Tree=61
num_leaves=13
num_cat=0
split_feature=6 7 8 5 8 8 9 3 8 3 8 1
split_gain=3.6762 1.37487 1.43812 1.36971 1.6489 1.73925 1.71926 0.986085 0.00565954 0.000411587 8.20129e-05 1.5619e-05
threshold=17.425000000000004 8.3955000000000002 11.290000000000001 76.701000000000008 9.4550000000000018 10.185 4.0920000000000014 0.65050000000000019 12.820000000000002 0.60750000000000004 14.740000000000002 8.0665000000000013
decision_type=2 2 2 2 2 2 2 2 2 2 2 2
left_child=1 2 3 -1 6 -6 -5 8 -2 10 -10 -12
right_child=7 -3 -4 4 5 -7 -8 -9 9 -11 11 -13
leaf_value=-0.031359641240352842 -0.086354877636191776 0.051943190878710147 -0.04628831204168514 -0.058216048957165471 0.095101253910515202 0.013785655712069859 0.040648468854172302 -0.006410987916051096 -0.078658442837216486 -0.080099302944756312 -0.077379094594249159 -0.0779430418829824
leaf_weight=4.7884460911154809 1.1916822418570499 8.4722425043582898 4.4354490786790839 3.4977290332317379 5.2084986269474012 5.3139528334140778 3.5384053997695446 2.646797887980938 1.1922133490443232 1.3170791566371916 1.1846686117351057 0.83885375410318364
leaf_count=20 9 31 22 22 20 20 20 29 22 19 30 18
internal_value=0 0.0168318 0.0057248 0.0160484 0.0289772 0.054036 -0.00849802 -0.0568851 -0.0802225 -0.0786104 -0.0780005 -0.0776129
internal_weight=0 35.2547 26.7825 22.347 17.5586 10.5225 7.03613 8.3713 5.7245 4.53281 3.21574 2.02352
internal_count=282 155 124 102 82 40 42 127 98 89 70 48
is_linear=0
shrinkage=0.1


Tree=62
num_leaves=13
num_cat=0
split_feature=8 6 5 2 7 6 5 0 6 6 6 7
split_gain=3.06515 1.5057 2.29306 2.99262 0.89145 1.83508 0.933398 0.518417 0.0245424 0.000955586 0.000701277 0.000251334
threshold=10.350000000000001 19.950000000000003 53.531500000000008 13.042500000000002 7.1115000000000004 18.041500000000003 74.729500000000016 2.1140000000000003 20.808000000000003 22.983500000000003 13.775 6.6300000000000008
decision_type=2 2 2 2 2 2 2 2 2 2 2 2
left_child=7 4 3 -3 -2 6 -6 -1 -4 -10 11 -9
right_child=1 2 8 -5 5 -7 -8 10 9 -11 -12 -13
leaf_value=-0.010562083933946753 0.058454889959660153 0.08120966600259083 -0.097536663123007517 -0.061748689161574291 -0.025815953318725104 0.061423804499036075 0.027545354502068981 -0.080168161434930899 -0.082086491870756756 -0.077877782004683829 -0.082066322447193613 -0.078398618778899809
leaf_weight=1.3914324492216099 6.2399195060133961 3.2300280816853029 1.2637910693883898 2.6786632537841797 8.3931620121002215 5.9651320949196807 5.378773719072341 1.7916140779852869 1.0823608264327051 1.0755627788603304 1.3803378604352472 1.454105421900749
leaf_count=14 23 16 7 31 36 23 22 24 13 27 18 28
internal_value=0 0.0131323 -0.0213249 0.0164005 0.0255086 0.0150926 -0.00497514 -0.0640809 -0.08647 -0.0799888 -0.0801783 -0.0793754
internal_weight=0 35.3074 9.33041 5.90869 25.977 19.7371 13.7719 6.01749 3.42171 2.15792 4.62606 3.24572
internal_count=282 198 94 47 104 81 58 84 47 40 70 52
is_linear=0
shrinkage=0.1


Tree=63
num_leaves=13
num_cat=0
split_feature=6 5 8 5 6 5 5 1 4 0 7 8
split_gain=9.88343 3.4311 5.59134 2.3268 0.706993 0.566325 0.0458425 0.0158246 0.00452457 0.000755521 0.000337074 8.18564e-05
threshold=17.216500000000003 74.447500000000005 14.740000000000002 89.766500000000022 22.500000000000004 62.994000000000007 42.534000000000013 9.9410000000000007 0.50750000000000017 5.5185000000000004 6.6300000000000008 11.290000000000001
decision_type=2 2 2 2 2 2 2 2 2 2 2 2
left_child=3 2 5 8 -4 -2 -6 -8 -1 10 -10 -11
right_child=1 -3 4 -5 6 -7 7 -9 9 11 -12 -13
leaf_value=-0.086116067903202004 -0.059217517087549514 0.12812425956829135 0.026391842768345913 0.022370493585313227 0.072043512903365928 -0.011993373933233702 0.082396449103609382 0.093178304273939264 -0.081792950971761244 -0.082284386736896309 -0.080202762443045278 -0.083099559101862411
leaf_weight=3.1698445454239836 4.8341755568981224 3.3726294487714759 3.1451163291931143 2.4933484941720954 3.0647085234522802 5.3496743589639664 2.9860314056277275 2.5017897114157677 2.5749398283660394 2.4953864961862564 2.7637080550193787 2.4327642545104027
leaf_count=24 20 17 16 14 17 22 28 14 27 25 36 22
internal_value=0 0.0342374 0.0197665 -0.0663503 0.0669322 -0.0344102 0.0818405 0.0873117 -0.0828136 -0.0817939 -0.0809697 -0.0826868
internal_weight=0 25.2541 21.8815 15.93 11.6976 10.1838 8.55253 5.48782 13.4366 10.2668 5.33865 4.92815
internal_count=282 134 117 148 75 42 59 42 134 110 63 47
is_linear=0
shrinkage=0.1


Tree=64
num_leaves=12
num_cat=0
split_feature=8 5 6 5 5 1 1 8 1 8 9
split_gain=4.27498 2.52284 3.24053 2.41036 2.26501 1.27286 0.00170331 0.000527222 0.000109181 8.58627e-05 6.40516e-07
threshold=11.490000000000002 72.054500000000004 13.258500000000002 38.169500000000006 84.684500000000014 6.3435000000000015 10.290000000000001 13.025 6.5425000000000013 15.49 4.3640000000000017
decision_type=2 2 2 2 2 2 2 2 2 2 2
left_child=1 -1 4 -2 -3 -4 7 8 -5 -9 -11
right_child=3 2 5 6 -6 -7 -8 9 -10 10 -12
leaf_value=0.094511374738053627 0.068279611116898703 0.080886159769296292 -0.092729762734894611 -0.078712550681645177 -0.0028684884115627012 -0.0038044241338998871 -0.081554413824437164 -0.077946379350807296 -0.080024681554274515 -0.076725522748477853 -0.076870153485397066
leaf_weight=4.0297096744179752 1.2878140024840812 6.0765256509184855 3.3769551180303088 1.1626334078609946 6.8900247737765312 3.0756658986210823 2.5680966190993786 1.4045077562332156 1.3950937353074548 0.58181534148752667 0.64638977311551571
leaf_count=21 12 28 32 21 29 16 29 33 20 20 21
internal_value=0 0.0225064 0.00756456 -0.0584179 0.0363815 -0.0503432 -0.079448 -0.0784057 -0.0794282 -0.0774123 -0.0768016
internal_weight=0 23.4489 19.4192 9.04635 12.9666 6.45262 7.75854 5.19044 2.55773 2.63271 1.22821
internal_count=282 126 105 156 57 48 144 115 41 74 41
is_linear=0
shrinkage=0.1


Tree=65
num_leaves=14
num_cat=0
split_feature=6 9 8 6 3 9 7 6 8 8 8 6 8
split_gain=3.197 1.98304 2.63147 1.48726 0.745701 0.635834 1.09068 0.471461 0.0849877 0.00706867 0.00410439 0.000263597 1.64984e-05
threshold=16.183500000000006 4.3360000000000012 12.255000000000001 12.141500000000002 0.65050000000000019 4.0580000000000007 8.161500000000002 11.042000000000002 11.735000000000001 13.365000000000002 13.025 23.783500000000004 15.210000000000003
decision_type=2 2 2 2 2 2 2 2 2 2 2 2 2
left_child=3 8 -3 7 9 -5 -7 -1 -2 -4 -10 -11 -12
right_child=1 2 4 5 -6 6 -8 -9 10 11 12 -13 -14
leaf_value=-0.052735883407693022 -0.1103931200186026 0.060849671259359028 -0.08864300821659378 0.059551725377192923 -0.011684292951128597 0.0027775534151796752 0.05715065994866813 0.0053761681571173961 -0.084413561499018408 -0.079799926474250799 -0.077663485006413416 -0.077518401408418675 -0.077037904901344045
leaf_weight=2.8336005844175842 1.375458002090453 3.3754867315292341 1.1387483626604082 6.6311514526605633 2.7929363399744034 10.074313685297964 5.8206577450036994 2.751949954777956 1.6138910837471487 1.2042204365134241 0.86993275396525838 0.87387735582888115 0.81796865537762642
leaf_count=24 6 13 9 26 30 38 21 16 14 18 21 22 24
internal_value=0 -0.0363142 -0.00980436 0.0220867 -0.0494883 0.0335403 0.0226887 -0.0241046 -0.0895081 -0.0823105 -0.0808079 -0.0788405 -0.0773603
internal_weight=0 14.0625 9.38527 28.1117 6.00978 22.5261 15.895 5.58555 4.67725 3.21685 3.30179 2.0781 1.6879
internal_count=282 157 92 125 79 85 59 40 65 49 59 40 45
is_linear=0
shrinkage=0.1


Tree=66
num_leaves=11
num_cat=0
split_feature=8 2 1 1 7 7 9 0 1 6
split_gain=2.68628 1.50811 1.67802 1.93306 1.58394 1.29332 1.96224 2.87894 0.3506 0.000701316
threshold=10.475000000000003 5.6960000000000006 5.3250000000000002 6.5185000000000004 8.897000000000002 13.774000000000003 4.8690000000000007 9.5645000000000007 4.7865000000000011 13.450000000000001
decision_type=2 2 2 2 2 2 2 2 2 2
left_child=8 -2 -3 -4 -5 6 7 -6 -1 -10
right_child=1 2 3 4 5 -7 -8 -9 9 -11
leaf_value=-0.03434317326502731 0.066545497941251253 -0.07197856540089978 0.066513981110487216 -0.065833334849299943 0.042862524178084338 -0.046978807477447732 0.079126102057870393 -0.065630163980806261 -0.07876745003183136 -0.08174495913274607
leaf_weight=3.4721748679876319 4.591775268316268 2.5882514994591501 5.2770117949694422 3.210962817072871 6.0568478293716925 3.2079822719097129 4.3794872500002375 4.1025326699018478 1.5059717409312727 1.6663617603480814
leaf_count=39 16 16 28 19 27 31 17 38 29 22
internal_value=0 0.0133191 0.00483968 0.0124183 -0.00120251 0.0104912 0.0231719 -0.00094869 -0.0562997 -0.0803315
internal_weight=0 33.4149 28.8231 26.2348 20.9578 17.7469 14.5389 10.1594 6.64451 3.17233
internal_count=282 192 176 160 132 113 82 65 90 51
is_linear=0
shrinkage=0.1


Tree=67
num_leaves=12
num_cat=0
split_feature=8 3 6 4 9 0 6 2 1 0 7
split_gain=8.63964 2.09648 4.06896 1.6146 0.657389 0.544737 0.0638815 0.00442518 0.00512107 0.000350177 0.000211266
threshold=12.820000000000002 0.59450000000000014 22.500000000000004 0.48700000000000004 4.4285000000000005 8.5790000000000024 22.983500000000003 7.003000000000001 3.2395000000000005 5.8580000000000014 6.6590000000000007
decision_type=2 2 2 2 2 2 2 2 2 2 2
left_child=3 5 -3 -1 7 -2 -7 8 -5 10 -10
right_child=1 2 -4 4 -6 6 -8 -9 9 -11 -12
leaf_value=0.0038109977440554891 0.045789308319719252 -0.056488800175075141 0.068011603583011615 -0.086842916820252844 -0.033331722973643549 0.10388188501034926 0.082483295545836666 -0.0874354971054251 -0.081129359405345547 -0.081913067607495171 -0.079810771918126577
leaf_weight=3.6533248573541668 4.7092724815011042 5.1011257320642454 5.4081524237990379 1.7901685684919337 3.5449439585208884 2.4697343036532402 3.206226073205471 1.851348653435706 2.1731968186795712 2.1845652125775814 2.7561434991657734
leaf_count=23 23 20 32 13 24 14 32 14 25 23 39
internal_value=0 0.0390684 0.00758003 -0.0555205 -0.0706779 0.0709329 0.0917943 -0.0829871 -0.0820622 -0.0808592 -0.0803921
internal_weight=0 20.8945 10.5093 17.9537 14.3004 10.3852 5.67596 10.7554 8.90407 7.11391 4.92934
internal_count=282 121 52 161 138 69 46 114 100 87 64
is_linear=0
shrinkage=0.1


Tree=68
num_leaves=13
num_cat=0
split_feature=8 9 5 6 5 1 1 8 3 1 9 6
split_gain=3.63853 2.88942 2.24916 2.70374 2.09211 1.18883 0.00238919 0.000362121 0.000147597 9.10153e-05 1.68738e-05 1.57748e-06
threshold=11.490000000000002 5.1830000000000007 72.054500000000004 13.258500000000002 84.684500000000014 6.3435000000000015 10.675000000000002 13.025 0.60150000000000003 6.5425000000000013 4.3285000000000009 21.925000000000004
decision_type=2 2 2 2 2 2 2 2 2 2 2 2
left_child=2 6 -1 4 -4 -5 7 9 10 -2 11 -9
right_child=1 -3 3 5 -6 -7 -8 8 -10 -11 -12 -13
leaf_value=0.088102092243381169 -0.07832816711677712 0.095198873696898043 0.076193852189168798 -0.091310457866226852 -0.0052958851993078612 -0.0038071251290832555 -0.081993720338806017 -0.076730045888503989 -0.078625008582167838 -0.079581485634682397 -0.077216824204373744 -0.076494058831359263
leaf_weight=4.0565586686134401 1.0510824844241127 1.0905177667737005 5.8797668442130107 3.1379791125655165 6.7872355133295059 3.073258101940155 2.3633721806108952 0.57494411617517494 0.62975902669131745 1.2912027165293691 0.78567233681678761 0.5583470705896616
leaf_count=21 21 8 28 32 29 16 28 20 14 20 23 22
internal_value=0 -0.0565685 0.020546 0.00602954 0.03253 -0.0480147 -0.079383 -0.0781215 -0.0772966 -0.0790191 -0.0768607 -0.0766138
internal_weight=0 8.3449 22.9348 18.8782 12.667 6.21124 7.25438 4.89101 2.54872 2.34229 1.91896 1.13329
internal_count=282 156 126 105 57 48 148 120 79 41 65 42
is_linear=0
shrinkage=0.1


Tree=69
num_leaves=12
num_cat=0
split_feature=8 7 6 9 9 9 9 0 1 3 9
split_gain=2.88808 1.46556 1.27359 2.96396 0.815213 0.844929 0.936421 0.295481 0.00381909 0.000338191 3.5845e-05
threshold=14.740000000000002 6.0445000000000002 16.183500000000006 4.3360000000000012 4.2560000000000011 4.1535000000000002 4.0460000000000012 9.2820000000000018 11.985500000000002 0.62950000000000006 4.5150000000000015
decision_type=2 2 2 2 2 2 2 2 2 2 2
left_child=1 -1 4 -4 5 6 -3 -5 9 10 -2
right_child=8 2 3 7 -6 -7 -8 -9 -10 -11 -12
leaf_value=-0.053455423263334759 -0.07679026631332686 0.050138046939558548 -0.092243584187022998 0.047030109875000649 0.0046495549050709403 0.080332443340509818 -0.0090282944342369321 0.0028990300375626265 -0.085258479105173757 -0.079347253613650734 -0.077734951550200923
leaf_weight=3.1847545057535163 1.1721933204680679 7.3809918425977248 3.1847369503229839 3.301103550940752 8.6148616746067983 4.3630951792001715 4.1955058239400387 2.8075358793139458 0.95600542798638333 1.0940959956496952 0.61102626472711552
leaf_count=20 39 33 33 16 35 18 21 24 10 18 15
internal_value=0 0.0113986 0.0175008 -0.0140295 0.0294343 0.0428297 0.0286952 0.0267474 -0.0797826 -0.0779632 -0.077114
internal_weight=0 37.0326 33.8478 9.29338 24.5545 15.9396 11.5765 6.10864 3.83332 2.87732 1.78322
internal_count=282 200 180 73 107 72 54 40 82 72 54
is_linear=0
shrinkage=0.1


Tree=70
num_leaves=14
num_cat=0
split_feature=6 2 1 1 7 0 9 2 3 6 5 8 4
split_gain=2.40202 1.42488 1.5603 2.17985 1.24421 1.21407 2.37688 1.18935 0.98327 0.559585 0.213934 0.0131025 0.000126396
threshold=14.658500000000002 6.0480000000000009 5.6530000000000014 6.5185000000000004 8.897000000000002 9.5645000000000007 4.8490000000000011 12.334500000000002 0.49550000000000005 21.925000000000004 86.655000000000015 10.560000000000002 0.57150000000000001
decision_type=2 2 2 2 2 2 2 2 2 2 2 2 2
left_child=8 -2 -3 -4 -5 -6 9 -8 -1 -7 11 12 -10
right_child=1 2 3 4 5 6 7 -9 10 -11 -12 -13 -14
leaf_value=0.012191019862404276 0.064912361203546987 -0.060477262510213486 0.084546163055040119 -0.060668939343420783 0.046683752223862271 -0.11114768601901495 0.060126119033936144 -0.021519193492366018 -0.078157283211547746 -0.03335164753943206 -0.036904093247740445 -0.090677050138224802 -0.079540890008234166
leaf_weight=1.8904870785772789 4.633756875991824 3.2166145965456989 3.6733274478465345 2.8331930879503515 6.0914508365094688 1.9433983340859398 4.0675507485866547 3.178422886878252 1.4396760929375889 1.7636890169233082 1.341125179082155 1.4243923649191854 1.2195376716554163
leaf_count=17 17 21 20 18 29 10 15 27 32 33 15 8 20
internal_value=0 0.0137143 0.00485143 0.0137741 0.000695641 0.0108959 -0.00900727 0.0243127 -0.0499138 -0.0741353 -0.0715569 -0.0829375 -0.0787918
internal_weight=0 31.4014 26.7676 23.551 19.8777 17.0445 10.9531 7.24597 7.31522 3.70709 5.42473 4.08361 2.65921
internal_count=282 190 173 152 132 114 85 42 92 43 75 60 52
is_linear=0
shrinkage=0.1


Tree=71
num_leaves=11
num_cat=0
split_feature=6 5 6 9 4 1 4 8 7 4
split_gain=7.46738 2.9917 2.24511 3.23871 1.54174 0.00490694 0.00328381 0.000678306 0.000415476 0.000284289
threshold=17.216500000000003 90.700000000000017 23.275000000000002 4.8490000000000011 0.49750000000000005 10.290000000000001 0.50750000000000017 10.040000000000001 7.1715000000000009 0.5635
decision_type=2 2 2 2 2 2 2 2 2 2
left_child=1 6 3 4 -2 -4 -1 8 -8 -9
right_child=2 -3 5 -5 -6 -7 7 9 -10 -11
leaf_value=-0.084872682534318039 0.088715620041478746 0.050332017573320779 0.080615386804435751 -0.05297960343951405 0.013209145572446099 0.086399550824553459 -0.080688123569659292 -0.081133233416729122 -0.078505772483955544 -0.082688827217484426
leaf_weight=2.8403203263878813 4.3105485737323814 1.9992036223411549 3.2454313561320296 5.3114999234676352 7.2567739635705948 2.6759728640317917 2.9415636546909791 2.8254160359501839 1.2401456497609613 2.0109706521034241
leaf_count=24 22 11 39 21 34 18 36 33 23 21
internal_value=0 -0.0628297 0.0302498 0.0116636 0.0413465 0.0832293 -0.0819075 -0.0809736 -0.0800409 -0.08178
internal_weight=0 13.8576 22.8002 16.8788 11.5673 5.9214 11.8584 9.0181 4.18171 4.83639
internal_count=282 148 134 77 56 57 137 113 59 54
is_linear=0
shrinkage=0.1


Tree=72
num_leaves=14
num_cat=0
split_feature=8 5 5 8 3 5 9 1 3 8 8 1 8
split_gain=3.12476 3.53793 1.90262 2.37098 2.36493 1.08415 0.0774922 0.00395275 0.00065365 0.00033538 0.000200197 3.90022e-05 5.58387e-06
threshold=11.490000000000002 34.003000000000007 72.054500000000004 9.5600000000000023 0.52950000000000019 76.386500000000012 4.1190000000000007 12.370000000000001 0.60750000000000004 14.740000000000002 13.025 8.6460000000000026 15.055000000000001
decision_type=2 2 2 2 2 2 2 2 2 2 2 2 2
left_child=2 -2 -1 4 -4 -5 -7 8 10 -10 -3 12 -12
right_child=1 7 3 5 -6 6 -8 -9 9 -11 11 -13 -14
leaf_value=0.080438063434132664 0.13163615788638797 -0.078364708384230486 -0.0058502798817172382 0.0056015392611928859 0.087378419206794178 -0.085051941500876596 -0.05778481798061294 -0.085506087160984443 -0.080838146608356296 -0.078519829019275122 -0.076725939308361524 -0.077482870043259044 -0.076289930681812224
leaf_weight=4.0913874357938829 0.89865221828222175 1.6365487389266493 6.3467387259006518 3.0956493169069281 4.7628581300377846 2.2510300148278475 1.9409720152616499 0.92069090902805317 1.2636355832219126 1.2327878493815658 0.56117862649261929 0.61009937897324551 0.61631493084132671
leaf_count=21 9 32 23 15 25 26 16 7 17 26 20 17 28
internal_value=0 -0.0549068 0.0187593 0.00504249 0.0341183 -0.0392819 -0.0724268 -0.0794106 -0.0784627 -0.0796933 -0.0775656 -0.076834 -0.0764977
internal_weight=0 7.73991 22.4886 18.3972 11.1096 7.28765 4.192 6.84126 5.92057 2.49642 3.42414 1.78759 1.17749
internal_count=282 156 126 105 48 57 42 147 140 43 97 65 48
is_linear=0
shrinkage=0.1


Tree=73
num_leaves=13
num_cat=0
split_feature=8 7 7 1 1 5 0 5 0 1 3 1
split_gain=2.55278 1.27747 1.08229 1.03395 1.33262 1.6441 1.22602 0.836733 0.278312 0.00322645 0.000267663 3.57577e-06
threshold=14.740000000000002 6.0445000000000002 6.4195000000000011 6.5185000000000004 5.854000000000001 82.030500000000018 6.6125000000000007 69.294000000000025 9.5645000000000007 11.985500000000002 0.60750000000000004 8.0665000000000013
decision_type=2 2 2 2 2 2 2 2 2 2 2 2
left_child=1 -1 -3 4 5 -4 -5 8 -8 10 11 -2
right_child=9 2 3 6 -6 -7 7 -9 -10 -11 -12 -13
leaf_value=-0.050512727920142331 -0.076553187774338449 0.061451541644498855 0.045645700344980382 0.07065728723336856 -0.053936130811129523 -0.036807093510981236 0.050500334561743826 -0.03118293279152845 0.0068920382864703887 -0.084673839220996472 -0.078746081234752352 -0.076885752795775933
leaf_weight=3.1056650504469863 0.78300908207893349 4.6217960342764846 5.7866936996579188 4.6480980888009062 4.5942953247576943 4.1545982211828232 3.2273989394307119 3.4637049771845341 2.6777753569185734 0.88646712154149998 1.2065211758017538 0.55069174058735371
leaf_count=20 30 22 35 19 23 23 17 18 23 10 24 18
internal_value=0 0.0108163 0.0165577 0.00929073 -0.00939622 0.0111876 0.0286691 0.00783782 0.0307256 -0.0794795 -0.0776668 -0.0766905
internal_weight=0 36.28 33.1744 28.5526 14.5356 9.94129 14.017 9.36888 5.90517 3.42669 2.54022 1.3337
internal_count=282 200 180 158 81 58 77 58 40 82 72 48
is_linear=0
shrinkage=0.1


Tree=74
num_leaves=12
num_cat=0
split_feature=8 2 4 4 0 6 3 6 6 3 4
split_gain=2.23133 1.18242 0.885186 1.5212 1.431 1.65404 0.595408 1.1745 0.392728 0.184591 0.00187392
threshold=10.475000000000003 5.6960000000000006 0.45000000000000007 0.52150000000000019 9.615000000000002 16.358000000000001 0.5445000000000001 21.925000000000004 10.65 0.5485000000000001 0.52700000000000014
decision_type=2 2 2 2 2 2 2 2 2 2 2
left_child=8 -2 -3 6 5 -5 -4 -8 -1 10 -10
right_child=1 2 3 4 -6 -7 7 -9 9 -11 -12
leaf_value=-0.0067263165777908659 0.060493492916332964 0.056160683055181716 -0.0092004069248628802 -0.00062423147149886159 -0.022200341467389331 0.08173646586369851 -0.10930852686051783 -0.0037695538613011104 -0.084494929495289015 -0.039322934811333643 -0.079583959075337551
leaf_weight=1.3519014324992884 4.406539827585223 2.9693202264606979 4.2437810972332972 4.9069124311208707 5.8656211700290433 4.8470804244279861 2.3576090857386589 1.9076778441667555 1.4598258864134552 1.5133627988398073 1.6611241512000559
leaf_count=18 16 28 25 24 37 20 12 30 19 25 28
internal_value=0 0.0124517 0.00463938 -0.00170092 0.0168315 0.0403035 -0.0357198 -0.0621055 -0.0541494 -0.0679835 -0.0818811
internal_weight=0 31.5045 27.098 24.1287 15.6196 9.75399 8.50907 4.26529 5.98621 4.63431 3.12095
internal_count=282 192 176 148 81 44 67 42 90 72 47
is_linear=0
shrinkage=0.1


Tree=75
num_leaves=14
num_cat=0
split_feature=8 6 1 4 8 9 6 0 1 7 0 7 2
split_gain=6.4103 1.69093 2.92412 1.44235 0.776156 0.705147 0.00360836 0.00552489 0.00339143 0.000161986 0.00013303 0.000180247 1.89265e-05
threshold=12.820000000000002 23.275000000000002 8.9060000000000006 0.48700000000000004 13.610000000000001 4.4285000000000005 16.183500000000006 2.1140000000000003 10.675000000000002 11.949000000000003 5.8580000000000014 6.6300000000000008 5.4440000000000008
decision_type=2 2 2 2 2 2 2 2 2 2 2 2 2
left_child=3 2 4 -1 -2 6 7 -5 9 -3 11 -9 -13
right_child=1 8 -4 5 -6 -7 -8 10 -10 -11 -12 12 -14
