tree
version=v4
num_class=3
num_tree_per_iteration=3
label_index=0
max_feature_idx=3
objective=multiclass num_class:3
feature_names=SentimentNeg SentimentNeu SentimentPos Compound
feature_infos=[0.0089999999999999993:0.222] [0.13:0.73799999999999999] [0.01:0.183] [-0.45800000000000002:0.38700000000000001]
tree_sizes=552 672 448 668 761 665 992 864 774 1103 867 992 1104 970 884 1212 1184 994 1320 1604 1213 1432 1393 1436 1543 1620 1325 1323 1512 1101 1551 1725 1436 1653 1727 1649 1775 1732 1650 1662 1729 1644 1778 1735 1659 1673 1733 1758 1676 1737 1661 1678 1836 1758 1566 1843 1661 1459 1844 1761 1683 1844 1666 1568 1846 1657 1567 1743 1671 1572 1743 1671 1799 1640 1784 1566 1755 1571 1797 1866 1572 1802 1648 1684 1685 1646 1793 1570 1756 1688 1690 1760 1681 1791 1651 1455 1579 1766 1675 1581 1874 1462 1354 1659 1350 1470 1656 1572 1474 1765 1343 1481 1651 1797 1708 1544 1355 1365 1990 1453 1478 1771 1466 1595 2105 1235 1594 2110 1466 1476 1781 1595 1832 2118 1585 1485 2009 1364 1368 2009 1584 1602 1898 1359 1484 2007 1357 1487 2015 1247 1374 2133 1696 1259 2021 1822 1489 1906 1710 1257 2134 1592 1146 2135 1600 1033 2017 1590 1148 1913 1821 1035 1799 1824 923 1915 1369 922 1696 1261 811 1805 1358 697 1811 1365 698 1693 1257 580 1577 1139 581 1463 1028 579 1351 807 468 1244 915 466 1245 910 470 1134 806 469 1020 695 354 1022 691 353 912 693 354 914 691 355 912 466 223 802 580 223 693 580 223 688 577 223 687 467 223 693 580 223 695 579 223 695 354 223 695 468 223 471 356 223 470 356 223 471 469 223 468 355 223 469 355 223 467 470 223 470 470 223 471 356 223 355 357 223 470 357 223 469 356 223 356 356 223 356 355 223 356 356 223 355 355 223 355 354 223 356 354 223 356 354

Tree=0
num_leaves=4
num_cat=0
split_feature=0 0 1
split_gain=53.5391 4.44089e-16 1.11022e-16
threshold=0.10050000000000002 0.067500000000000018 0.49350000000000005
decision_type=2 2 2
left_child=1 -1 -3
right_child=-2 2 -4
leaf_value=-3.9182635418377454 -2.957828753836278 -3.9182635418377449 -3.9182635418377454
leaf_weight=6.12222722917795 0.62471706420183259 0.62471706420183215 1.436849247664213
leaf_count=196 20 20 46
internal_value=-3.85015 -3.91826 -3.91826
internal_weight=0 8.18379 2.06157
internal_count=282 262 66
is_linear=0
shrinkage=1


Tree=1
num_leaves=5
num_cat=0
split_feature=3 0 0 0
split_gain=107.011 14.7921 1.77636e-15 1.77636e-15
threshold=0.18550000000000003 0.10050000000000002 0.032500000000000008 0.057500000000000009
decision_type=2 2 2 2
left_child=1 2 -1 -4
right_child=-2 -3 3 -5
leaf_value=-0.012492134603563063 -0.73295069872180696 -0.27948560248267684 -0.012492134603562896 -0.012492134603562868
leaf_weight=3.9326805993914702 2.3596083596348754 2.2472460567951194 11.573317192494871 11.573317192494867
leaf_count=35 21 20 103 103
internal_value=-0.085079 -0.0329514 -0.0124921 -0.0124921
internal_weight=0 29.3266 27.0793 23.1466
internal_count=282 261 241 206
is_linear=0
shrinkage=1


Tree=2
num_leaves=3
num_cat=0
split_feature=3 0
split_gain=149.893 1.77636e-15
threshold=0.18550000000000003 0.03450000000000001
decision_type=2 2
left_child=1 -1
right_child=-2 -3
leaf_value=-2.879637120974206 -1.9269686457291413 -2.879637120974206
leaf_weight=3.3989739418029847 1.7844613194465626 18.779331028461456
leaf_count=40 21 221
internal_value=-2.80869 -2.87964
internal_weight=0 22.1783
internal_count=282 261
is_linear=0
shrinkage=1


Tree=3
num_leaves=5
num_cat=0
split_feature=0 0 3 0
split_gain=48.9494 0.000747141 5.90154e-05 4.44089e-16
threshold=0.12450000000000001 0.10050000000000002 0.18550000000000003 0.08450000000000002
decision_type=2 2 2 2
left_child=1 2 3 -1
right_child=-2 -3 -4 -5
leaf_value=-0.06793617610268686 0.81438176603523527 -0.070928620252100213 -0.068783077485258304 -0.067936176102686749
leaf_weight=6.0239007622003538 0.67772841453552324 1.0165926218032835 0.93941214680671681 0.60514071583747853
leaf_count=219 8 12 21 22
internal_value=0 -0.0683832 -0.0680413 -0.0679362
internal_weight=0 8.58505 7.56845 6.62904
internal_count=282 274 262 241
is_linear=0
shrinkage=0.1


Tree=4
num_leaves=6
num_cat=0
split_feature=3 0 3 0 0
split_gain=37.1725 13.9891 0.0094466 0.000867565 1.77636e-15
threshold=0.19850000000000004 0.10950000000000001 0.15950000000000003 0.090500000000000011 0.074500000000000011
decision_type=2 2 2 2 2
left_child=1 2 3 4 -1
right_child=-2 -3 -4 -5 -6
leaf_value=0.07179909575323111 -0.24082080295344677 -0.18491610558443616 0.07890226914086651 0.073985526998265203 0.071799095753231165
leaf_weight=18.418609648942962 5.1445739865303031 2.2978640496730796 2.1517096757888785 1.9803993999958027 3.2854817211627951
leaf_count=185 18 14 16 16 33
internal_value=0 0.0515289 0.0725583 0.0719819 0.0717991
internal_weight=0 28.1341 25.8362 23.6845 21.7041
internal_count=282 264 250 234 218
is_linear=0
shrinkage=0.1


Tree=5
num_leaves=5
num_cat=0
split_feature=3 3 0 0
split_gain=45.8623 0.00895181 0.000138589 1.77636e-15
threshold=0.19850000000000004 0.16650000000000004 0.10050000000000002 0.048500000000000008
decision_type=2 2 2 2
left_child=1 2 3 -1
right_child=-2 -3 -4 -5
leaf_value=-0.070382615090343312 0.27457483197703869 -0.078404774778381384 -0.071299335422086205 -0.070382615090343464
leaf_weight=6.6761965006590023 4.7138525247573844 1.535776525735854 1.8225941061973561 10.651909023523329
leaf_count=89 18 13 20 142
internal_value=0 -0.071059 -0.0704699 -0.0703826
internal_weight=0 20.6865 19.1507 17.3281
internal_count=282 264 251 231
is_linear=0
shrinkage=0.1


Tree=6
num_leaves=8
num_cat=0
split_feature=3 0 0 3 3 0 0
split_gain=27.0585 0.00302129 0.000182731 8.52824e-05 9.42189e-10 8.43148e-12 4.44089e-16
threshold=-0.18999999999999997 0.10950000000000001 0.092000000000000012 0.18550000000000003 0.14750000000000002 0.081500000000000017 0.053500000000000006
decision_type=2 2 2 2 2 2 2
left_child=-1 2 3 4 5 6 -2
right_child=1 -3 -4 -5 -6 -7 -8
leaf_value=0.45376083344132523 -0.067778548902793792 -0.07412044908380061 -0.069752874041237992 -0.0688035422678617 -0.067773884870563836 -0.067778128837440346 -0.067778548902793737
leaf_weight=1.1280123889446265 2.4687279090285283 0.93347744643688191 0.59564029052853573 0.9460003226995467 0.48209724947810162 0.53227579593658436 2.2024925462901592
leaf_count=6 102 8 12 21 20 22 91
internal_value=0 -0.0687666 -0.0680751 -0.0679244 -0.0677781 -0.0677785 -0.0677785
internal_weight=0 8.16071 7.22723 6.63159 5.68559 5.2035 4.67122
internal_count=282 276 268 256 235 215 193
is_linear=0
shrinkage=0.1


Tree=7
num_leaves=7
num_cat=0
split_feature=3 0 3 0 0 0
split_gain=24.2852 15.1771 0.00586583 0.00467089 3.41648e-09 1.77636e-15
threshold=0.19850000000000004 0.12450000000000001 0.15950000000000003 0.10050000000000002 0.08450000000000002 0.051500000000000004
decision_type=2 2 2 2 2 2
left_child=1 2 3 4 5 -1
right_child=-2 -3 -4 -5 -6 -7
leaf_value=0.071121715691868384 -0.17035033240491637 -0.21419448556497273 0.077332494479960989 0.076244933474844553 0.07111729634379764 0.071121715691868523
leaf_weight=8.7193295583129089 6.2018128037452689 2.0077333450317374 1.92431479692459 1.9522659480571736 1.9359457790851582 9.4239218458533269
leaf_count=99 18 8 16 12 22 107
internal_value=0 0.0499037 0.0720378 0.0715753 0.0711213 0.0711217
internal_weight=0 25.9635 23.9558 22.0315 20.0792 18.1433
internal_count=282 264 256 240 228 206
is_linear=0
shrinkage=0.1


Tree=8
num_leaves=6
num_cat=0
split_feature=3 3 0 0 3
split_gain=29.9414 0.00600009 0.000332897 1.75165e-09 5.65031e-10
threshold=0.19850000000000004 0.16650000000000004 0.10050000000000002 0.083500000000000019 0.13450000000000004
decision_type=2 2 2 2 2
left_child=1 2 3 4 -1
right_child=-2 -3 -4 -5 -6
leaf_value=-0.069898429792215458 0.18767597853021539 -0.076922298587835725 -0.071328974309604817 -0.06989476483320621 -0.069896300970308689
leaf_weight=12.237052954733381 5.9320292472839347 1.3724694252014149 1.8188684284687031 1.6519490182399739 1.3882350549101818
leaf_count=185 18 13 20 25 21
internal_value=0 -0.0705608 -0.0700501 -0.0698978 -0.0698982
internal_weight=0 18.4686 17.0961 15.2772 13.6253
internal_count=282 264 251 231 206
is_linear=0
shrinkage=0.1


Tree=9
num_leaves=9
num_cat=0
split_feature=3 0 0 3 3 0 0 0
split_gain=15.4875 0.00415405 0.00034767 8.96232e-05 2.21721e-09 8.77041e-11 2.22045e-16 2.22045e-16
threshold=-0.18999999999999997 0.11450000000000002 0.10050000000000002 0.18550000000000003 0.14750000000000002 0.08450000000000002 0.072500000000000009 0.055500000000000008
decision_type=2 2 2 2 2 2 2 2
left_child=-1 2 3 4 5 6 7 -2
right_child=1 -3 -4 -5 -6 -7 -8 -9
leaf_value=0.26749276152072399 -0.067640373755284325 -0.076368825033505158 -0.070244868992128603 -0.068717688329621079 -0.067632666469769662 -0.067638930490643775 -0.067640373404316265 -0.067640373848003948
leaf_weight=1.6840202808380125 2.3836000990122561 0.65742741525173176 0.64476464688777912 0.90768127888441075 0.42235763743519772 0.46753206849098194 0.51077150180935849 1.3407750595360992
leaf_count=6 112 5 9 21 20 22 24 63
internal_value=0 -0.0687844 -0.0680377 -0.0678018 -0.0676396 -0.0676402 -0.0676404 -0.0676404
internal_weight=0 7.33491 6.67748 6.03272 5.12504 4.70268 4.23515 3.72438
internal_count=282 276 271 262 241 221 199 175
is_linear=0
shrinkage=0.1


Tree=10
num_leaves=7
num_cat=0
split_feature=3 3 0 3 0 3
split_gain=17.8755 11.0286 0.00573989 0.00461366 2.44758e-09 1.42109e-14
threshold=0.19850000000000004 -0.15799999999999997 0.10050000000000002 0.15950000000000003 0.08450000000000002 0.13000000000000003
decision_type=2 2 2 2 2 2
left_child=1 -1 3 4 5 -3
right_child=-2 2 -4 -5 -6 -7
leaf_value=-0.15370848654221234 -0.13708160502505382 0.070537897528995017 0.076800467754855953 0.075967847536997202 0.070533833899248499 0.070537906860461325
leaf_weight=2.4214584305882516 6.6469913721084586 14.316015779972089 1.8839332163333882 1.7166518941521633 1.6323627904057492 1.7117000967264164
leaf_count=9 18 184 12 16 21 22
internal_value=0 0.0485006 0.071531 0.0710186 0.0705375 0.0705379
internal_weight=0 23.6821 21.2607 19.3767 17.6601 16.0277
internal_count=282 264 255 243 227 206
is_linear=0
shrinkage=0.1


Tree=11
num_leaves=8
num_cat=0
split_feature=3 3 0 0 3 0 0
split_gain=22.2294 0.00403358 0.000409973 6.81151e-06 2.81114e-09 1.42109e-14 8.88178e-16
threshold=0.19850000000000004 0.16650000000000004 0.10950000000000001 0.088500000000000009 0.13450000000000004 0.078500000000000014 0.041500000000000009
decision_type=2 2 2 2 2 2 2
left_child=1 2 3 4 5 6 -1
right_child=-2 -3 -4 -5 -6 -7 -8
leaf_value=-0.069479638315685738 0.14818792421445318 -0.075627181389068196 -0.071365343886562266 -0.069729886221893939 -0.069474697349876935 -0.069479649717790179 -0.06947963831568589
leaf_weight=2.622182518243795 6.5198965072631827 1.2236851826310147 1.2883014380931843 1.1844063214957703 1.2798628732562054 1.2819601483643044 7.5169232189655304
leaf_count=45 18 13 14 19 22 22 129
internal_value=0 -0.0701043 -0.0696589 -0.0695005 -0.0694791 -0.0694796 -0.0694796
internal_weight=0 16.3973 15.1736 13.8853 12.7009 11.4211 10.1391
internal_count=282 264 251 237 218 196 174
is_linear=0
shrinkage=0.1


Tree=12
num_leaves=9
num_cat=0
split_feature=3 0 0 3 3 3 0 3
split_gain=11.0304 0.00386041 0.000247091 8.16466e-05 5.64542e-09 3.01768e-09 2.26825e-11 2.22045e-16
threshold=-0.18999999999999997 0.11450000000000002 0.10050000000000002 0.18550000000000003 -0.05849999999999999 0.14750000000000002 0.079500000000000015 0.11850000000000001
decision_type=2 2 2 2 2 2 2 2
left_child=-1 2 3 4 -2 6 7 -6
right_child=1 -3 -4 -5 5 -7 -8 -9
leaf_value=0.19945095441914543 -0.067531118185464548 -0.076203671787113889 -0.069859564398482149 -0.068587367138633309 -0.067519287292417046 -0.067509735015384972 -0.067518499757932712 -0.067519283763467039
leaf_weight=2.0027452111244202 0.37816190905868907 0.6183975189924239 0.5813993103802203 0.85106628388166417 2.9362865835428256 0.36993872746825207 0.41108411550521839 0.41145412623882283
leaf_count=6 20 5 9 21 157 20 22 22
internal_value=0 -0.0686844 -0.0679015 -0.0676891 -0.0675194 -0.0675184 -0.0675192 -0.0675193
internal_weight=0 6.55779 5.93939 5.35799 4.50693 4.12876 3.75882 3.34774
internal_count=282 276 271 262 241 221 201 179
is_linear=0
shrinkage=0.1


Tree=13
num_leaves=8
num_cat=0
split_feature=3 3 0 3 0 3 0
split_gain=13.8367 11.0796 0.0091386 0.0030586 5.70994e-05 5.68434e-14 8.88178e-15
threshold=0.19850000000000004 -0.18999999999999997 0.10600000000000001 0.15950000000000003 0.087500000000000008 0.13000000000000003 0.076500000000000012
decision_type=2 2 2 2 2 2 2
left_child=1 -1 3 4 5 6 -3
right_child=-2 2 -4 -5 -6 -7 -8
leaf_value=-0.16789129310643103 -0.11698457103249582 0.070033718452441482 0.078068290410562347 0.07478071504600077 0.070652282954150686 0.070033739892558067 0.070033727235318144
leaf_weight=2.1546716094017091 6.7490880489349356 11.464424297213563 1.7581291943788517 1.527983471751212 1.6655737012624729 1.5102909356355656 1.3729874864220608
leaf_count=6 18 167 11 16 22 22 20
internal_value=0 0.047183 0.0711949 0.070506 0.0700981 0.0700337 0.0700337
internal_weight=0 21.4541 19.2994 17.5413 16.0133 14.3477 12.8374
internal_count=282 264 258 247 231 209 187
is_linear=0
shrinkage=0.1


Tree=14
num_leaves=7
num_cat=0
split_feature=3 3 0 0 3 0
split_gain=17.4314 0.00270676 0.000390776 9.26869e-06 3.67498e-09 5.32907e-15
threshold=0.19850000000000004 0.16650000000000004 0.10950000000000001 0.088500000000000009 0.13450000000000004 0.078500000000000014
decision_type=2 2 2 2 2 2
left_child=1 2 3 4 5 -1
right_child=-2 -3 -4 -5 -6 -7
leaf_value=-0.069116853212424459 0.12490593573272497 -0.074495924358089868 -0.071034229883223429 -0.069424591963548027 -0.069110829081165157 -0.069116860624142559
leaf_weight=8.9244149252772349 6.7357606887817374 1.0887422785162915 1.1997515186667431 1.0680067129433144 1.1257577091455448 1.128379814326762
leaf_count=174 18 13 14 19 22 22
internal_value=0 -0.0697002 -0.0693119 -0.0691431 -0.0691162 -0.0691169
internal_weight=0 14.5351 13.4463 12.2466 11.1786 10.0528
internal_count=282 264 251 237 218 196
is_linear=0
shrinkage=0.1


Tree=15
num_leaves=10
num_cat=0
split_feature=3 0 0 3 3 3 0 3 3
split_gain=8.264 0.002621 0.000160377 6.91289e-05 3.86703e-09 3.21025e-09 2.64295e-11 2.22045e-16 2.22045e-16
threshold=-0.18999999999999997 0.11450000000000002 0.10050000000000002 0.18550000000000003 -0.05849999999999999 0.14750000000000002 0.079500000000000015 0.11850000000000001 -0.017499999999999998
decision_type=2 2 2 2 2 2 2 2 2
left_child=-1 2 3 4 -2 6 7 8 -6
right_child=1 -3 -4 -5 5 -7 -8 -9 -10
leaf_value=0.15951212002291729 -0.06742343564251542 -0.074998986527791342 -0.069445932687854761 -0.068439243627533661 -0.067413192509338096 -0.067402662216635462 -0.067412286096238935 -0.067413194767200632 -0.067413192509338443
leaf_weight=2.1893969178199768 0.33210452273488034 0.55357089638710011 0.51218535751104344 0.78709896281361569 0.37781939469277981 0.32397019304335106 0.36096115596592415 0.36139236949384201 2.201208647340537
leaf_count=6 20 5 9 21 23 20 22 22 134
internal_value=0 -0.068454 -0.0677648 -0.0675833 -0.0674131 -0.0674122 -0.0674131 -0.0674132 -0.0674132
internal_weight=0 5.81031 5.25674 4.74456 3.95746 3.62535 3.30138 2.94042 2.57903
internal_count=282 276 271 262 241 221 201 179 157
is_linear=0
shrinkage=0.1


Tree=16
num_leaves=10
num_cat=0
split_feature=3 3 2 3 0 1 3 0 3
split_gain=11.2093 8.3255 1.19036 0.0845697 0.00680707 6.68995e-06 3.96799e-09 1.52882e-09 1.77636e-15
threshold=0.20600000000000002 -0.18999999999999997 0.12450000000000001 0.16650000000000004 0.10600000000000001 0.62450000000000017 0.13000000000000003 0.081500000000000017 -0.019499999999999997
decision_type=2 2 2 2 2 2 2 2 2
left_child=1 -1 3 4 5 6 7 8 -3
right_child=-2 2 -4 -5 -6 -7 -8 -9 -10
leaf_value=-0.13950343744856444 -0.11832369527594913 0.069597556988294659 -0.020493672459157963 0.097511363249628349 0.076820400161710128 0.06984318513691154 0.069591387717104991 0.069593798356837655 0.069597559506192133
leaf_weight=2.2455984950065675 5.5344852805137625 1.6337120570242447 1.5072509683668602 1.232980728149413 1.4482063725590695 1.2036160603165615 1.3285512961447228 1.2087329551577557 8.5921235419809818
leaf_count=6 15 27 10 11 10 19 22 20 142
internal_value=0 0.0421385 0.0646056 0.0723102 0.0702945 0.0696178 0.0695966 0.0695972 0.0695976
internal_weight=0 20.4008 18.1552 16.6479 15.4149 13.9667 12.7631 11.4346 10.2258
internal_count=282 267 261 251 240 230 211 189 169
is_linear=0
shrinkage=0.1


Tree=17
num_leaves=8
num_cat=0
split_feature=3 3 0 0 3 0 1
split_gain=14.0687 0.0018218 0.000331896 6.14429e-06 3.75243e-09 1.05986e-11 8.88178e-16
threshold=0.19850000000000004 0.16650000000000004 0.10950000000000001 0.088500000000000009 0.13450000000000004 0.078500000000000014 0.47450000000000003
decision_type=2 2 2 2 2 2 2
left_child=1 2 3 4 5 6 -1
right_child=-2 -3 -4 -5 -6 -7 -8
leaf_value=-0.068802156982828808 0.10931041034611898 -0.073507938375608303 -0.070647882826896796 -0.069069103156291237 -0.068795624563206134 -0.068801810027958418 -0.06880215676522132
leaf_weight=4.2405394762754387 6.7135466337203971 0.96685104817152101 1.1006565615534789 0.93976975232362825 0.98956037685275156 0.99231638759374607 3.6089697889983654
leaf_count=94 18 13 14 19 22 22 80
internal_value=0 -0.0693338 -0.0689938 -0.0688248 -0.0688015 -0.0688021 -0.0688022
internal_weight=0 12.8387 11.8718 10.7712 9.83139 8.84183 7.84951
internal_count=282 264 251 237 218 196 174
is_linear=0
shrinkage=0.1


Tree=18
num_leaves=11
num_cat=0
split_feature=3 0 0 3 1 0 3 3 0 3
split_gain=6.5343 0.0017694 0.000117329 5.54308e-05 3.0066e-09 1.42073e-09 1.55677e-09 6.20606e-10 1.17953e-11 1.11022e-15
threshold=-0.18999999999999997 0.11450000000000002 0.10050000000000002 0.18550000000000003 0.60400000000000009 0.036500000000000005 0.11250000000000002 0.11850000000000001 0.079500000000000015 -0.025499999999999998
decision_type=2 2 2 2 2 2 2 2 2 2
left_child=-1 2 3 4 5 6 -2 8 9 -7
right_child=1 -3 -4 -5 -6 7 -8 -9 -10 -11
leaf_value=0.13602143997796784 -0.067320260635961707 -0.07394602945071474 -0.069162708430767064 -0.06828443815206138 -0.067329287204514227 -0.067320254289394241 -0.067310196748912116 -0.06732497822292377 -0.067319611976530511 -0.06732026063596204
leaf_weight=2.2491213083267212 0.31727775931358415 0.49414820596575726 0.46350810676813115 0.72048418037593354 0.36456442810595024 0.31727495044469911 0.29814335238188505 0.30469841323792923 0.33137592393904913 1.5431236475706098
leaf_count=6 22 5 9 21 25 22 21 21 23 107
internal_value=0 -0.0682562 -0.0676529 -0.0674861 -0.0673207 -0.0673197 -0.0673154 -0.0673207 -0.0673202 -0.0673203
internal_weight=0 5.1546 4.66045 4.19694 3.47646 3.11189 0.615421 2.49647 2.19177 1.8604
internal_count=282 276 271 262 241 216 43 173 152 129
is_linear=0
shrinkage=0.1


Tree=19
num_leaves=14
num_cat=0
split_feature=3 3 2 3 0 0 2 3 1 0 3 0 1
split_gain=9.21693 6.7806 1.32516 0.0849282 0.00494032 7.55072e-05 1.02232e-08 2.78854e-09 2.72049e-11 1.72218e-12 3.55271e-15 4.44089e-16 2.22045e-16
threshold=0.20600000000000002 -0.18999999999999997 0.13050000000000003 0.16650000000000004 0.10950000000000001 0.088500000000000009 0.10400000000000001 0.11500000000000002 0.58450000000000013 0.070500000000000021 -0.013499999999999998 0.052500000000000005 0.47450000000000003
decision_type=2 2 2 2 2 2 2 2 2 2 2 2 2
left_child=1 -1 3 4 5 6 7 8 9 10 -3 12 -12
right_child=-2 2 -4 -5 -6 -7 -8 -9 -10 -11 11 -13 -14
leaf_value=-0.12210839475106204 -0.10812687650778235 0.069219671141383804 -0.0360348184142859 0.097861722327681658 0.076209430734239067 0.070092639611043464 0.069228841494709911 0.069214403992533133 0.069219158565896027 0.069219549290398169 0.069219677043034875 0.06921967704303493 0.069219677043034916
leaf_weight=2.2309867143631044 5.3193113207817069 1.1722379960119722 1.2271797768771637 1.1755585260689247 1.1252125278115261 1.0845686979591835 1.1756844483315934 1.1699477322399605 1.2785654775798319 1.2787472978234289 2.5043289437890075 1.9182094037532804 1.0656718909740446
leaf_count=6 15 22 7 12 8 17 22 22 24 24 47 36 20
internal_value=0 0.0413209 0.0638611 0.0720618 0.0698597 0.0692948 0.06922 0.069219 0.0692196 0.0692197 0.0692197 0.0692197 0.0692197
internal_weight=0 18.4069 16.1759 14.9487 13.7732 12.648 11.5634 10.3877 9.21776 7.9392 6.66045 5.48821 3.57
internal_count=282 267 261 254 242 234 217 195 173 149 125 103 67
is_linear=0
shrinkage=0.1


Tree=20
num_leaves=10
num_cat=0
split_feature=3 3 0 0 2 3 1 0 0
split_gain=11.6391 0.00130875 0.000270133 5.1756e-06 2.12125e-08 1.2094e-09 1.05191e-11 5.8975e-13 4.44089e-16
threshold=0.19850000000000004 0.16650000000000004 0.10950000000000001 0.088500000000000009 0.10550000000000001 0.12250000000000001 0.58450000000000013 0.070500000000000021 0.060500000000000005
decision_type=2 2 2 2 2 2 2 2 2
left_child=1 2 3 4 5 6 7 8 -1
right_child=-2 -3 -4 -5 -6 -7 -8 -9 -10
leaf_value=-0.06852886612650666 0.098433582104216669 -0.072768824140859542 -0.070277239823805182 -0.068790693894473467 -0.068545490647495752 -0.068524681995035461 -0.068528495377695398 -0.068528780486681998 -0.068528866610313779
leaf_weight=4.361869297921654 6.5427507758140555 0.86326722800731737 1.0048006810247905 0.83486771956086236 0.79914262518286694 0.79134444519877423 0.95150033012032498 0.95163772627711285 0.79306715726852406
leaf_count=110 18 13 14 19 20 20 24 24 20
internal_value=0 -0.0690262 -0.0687181 -0.0685529 -0.06853 -0.0685284 -0.0685288 -0.0685289 -0.0685289
internal_weight=0 11.3515 10.4882 9.48343 8.64856 7.84942 7.05807 6.10657 5.15494
internal_count=282 264 251 237 218 198 178 154 130
is_linear=0
shrinkage=0.1


Tree=21
num_leaves=12
num_cat=0
split_feature=3 0 0 3 0 3 3 3 0 1 0
split_gain=5.32187 0.00119076 8.37053e-05 4.35594e-05 2.93827e-09 3.0299e-09 2.19191e-09 1.41322e-09 1.80346e-11 6.99441e-14 1.11022e-16
threshold=-0.18999999999999997 0.11450000000000002 0.10050000000000002 0.18550000000000003 0.036500000000000005 0.13000000000000003 0.11250000000000002 -0.05849999999999999 0.079500000000000015 0.57250000000000012 0.061500000000000006
decision_type=2 2 2 2 2 2 2 2 2 2 2
left_child=-1 2 3 4 6 7 -2 -6 9 10 -9
right_child=1 -3 -4 -5 5 -7 -8 8 -10 -11 -12
leaf_value=0.12055504052471949 -0.067238863306748525 -0.073023119280501772 -0.068892765959111688 -0.068137340554413159 -0.067246632532354897 -0.067250848000629679 -0.067226090778112771 -0.067238863215372299 -0.06723796890777034 -0.067238805982231503 -0.067238862086590565
leaf_weight=2.2247210741043091 0.27843778766691762 0.43983125686645497 0.41701186075806607 0.65651122108101834 0.25584444403648499 0.27011327352374781 0.25965726934373379 1.101094466634094 0.26537111867219199 0.25309994444251049 0.36703105550259341
leaf_count=6 22 5 9 21 20 21 21 87 21 20 29
internal_value=0 -0.068077 -0.0675495 -0.0673984 -0.0672394 -0.0672408 -0.0672327 -0.0672396 -0.0672387 -0.0672389 -0.0672389
internal_weight=0 4.564 4.12417 3.70716 3.05065 2.51255 0.538095 2.24244 1.9866 1.72123 1.46813
internal_count=282 276 271 262 241 198 43 177 157 136 116
is_linear=0
shrinkage=0.1


Tree=22
num_leaves=12
num_cat=0
split_feature=3 3 2 3 0 0 2 3 1 0 0
split_gain=7.69434 5.63848 1.20172 0.0897428 0.00330454 5.05437e-05 6.7738e-09 1.8462e-09 1.8245e-11 1.0667e-12 4.44089e-16
threshold=0.20600000000000002 -0.18999999999999997 0.13050000000000003 0.16650000000000004 0.10950000000000001 0.088500000000000009 0.10400000000000001 0.11500000000000002 0.58450000000000013 0.070500000000000021 0.059500000000000004
decision_type=2 2 2 2 2 2 2 2 2 2 2
left_child=1 -1 3 4 5 6 7 8 9 10 -3
right_child=-2 2 -4 -5 -6 -7 -8 -9 -10 -11 -12
leaf_value=-0.1103276062476992 -0.10059761963658931 0.068891856924453349 -0.032883857595330697 0.099698371931764243 0.07494699529903992 0.069652604083681083 0.068899810646267753 0.068887283862642909 0.068891405713841683 0.068891750442343871 0.068891856083560063
leaf_weight=2.1521669626236024 5.0293506681919089 4.7353601343929714 1.1934775337576855 1.0673223286867131 1.0042456761002529 0.9561289772391327 1.0345105305314071 1.0294372886419285 1.1250195428729055 1.1251819878816602 1.1252336502075193
leaf_count=6 15 101 7 12 8 17 22 22 24 24 24
internal_value=0 0.0406417 0.0632114 0.0718982 0.0694531 0.0689575 0.0688921 0.0688913 0.0688918 0.0688918 0.0688919
internal_weight=0 16.5481 14.3959 13.2024 12.1351 11.1309 10.1747 9.14023 8.1108 6.98578 5.86059
internal_count=282 267 261 254 242 234 217 195 173 149 125
is_linear=0
shrinkage=0.1


Tree=23
num_leaves=12
num_cat=0
split_feature=3 3 0 0 2 3 1 0 0 0 3
split_gain=9.72885 0.000986943 0.0002057 4.78931e-06 4.7498e-08 8.0616e-10 6.89582e-12 3.67262e-13 4.44089e-16 2.22045e-16 3.33067e-16
threshold=0.19850000000000004 0.16650000000000004 0.10950000000000001 0.088500000000000009 0.10550000000000001 0.12250000000000001 0.58450000000000013 0.070500000000000021 0.059500000000000004 0.041500000000000009 0.084000000000000019
decision_type=2 2 2 2 2 2 2 2 2 2 2
left_child=1 2 3 4 5 6 7 8 9 10 -1
right_child=-2 -3 -4 -5 -6 -7 -8 -9 -10 -11 -12
leaf_value=-0.068291303851562124 0.090039686022960835 -0.07220097543908198 -0.069903749440782578 -0.068559323582222484 -0.068318122385144828 -0.068287660138705242 -0.068290984119561179 -0.068291232014349154 -0.068291303964591266 -0.068291303541546888 -0.068291306663273058
leaf_weight=0.6967169083654865 6.2735932469367972 0.76894717290997583 0.90579646080732423 0.74362153932452191 0.70601279661059368 0.69519628211855877 0.83590131625533093 0.83602245151996601 0.83606029301881779 2.2991654872894287 0.69671757519245148
leaf_count=20 18 13 14 19 20 20 24 24 24 66 20
internal_value=0 -0.0687586 -0.0684725 -0.0683171 -0.0682934 -0.0682909 -0.0682913 -0.0682913 -0.0682913 -0.0682913 -0.0682913
internal_weight=0 10.0202 9.25121 8.34541 7.60179 6.89578 6.20058 5.36468 4.52866 3.6926 1.39343
internal_count=282 264 251 237 218 198 178 154 130 106 40
is_linear=0
shrinkage=0.1


Tree=24
num_leaves=13
num_cat=0
split_feature=3 0 0 3 2 3 3 0 1 0 0 0
split_gain=4.41678 0.000799866 6.0705e-05 3.36056e-05 5.02537e-09 3.61892e-09 9.4254e-10 1.75318e-11 3.57492e-14 4.44089e-16 1.11022e-16 5.55112e-17
threshold=-0.18999999999999997 0.11450000000000002 0.10050000000000002 0.18550000000000003 0.10750000000000001 0.13450000000000004 -0.05849999999999999 0.079500000000000015 0.56800000000000006 0.037500000000000006 0.062500000000000014 0.048500000000000008
decision_type=2 2 2 2 2 2 2 2 2 2 2 2
left_child=-1 2 3 4 5 6 -2 8 9 -8 11 -11
right_child=1 -3 -4 -5 -6 -7 7 -9 -10 10 -12 -13
leaf_value=0.10964739229488066 -0.067174308095576812 -0.07221861929444659 -0.0686623060204931 -0.067998900007516613 -0.067181590273717798 -0.06715460153274827 -0.06716758383427035 -0.067166631288578763 -0.067167538649881606 -0.067167579765376184 -0.067167580117247314 -0.067167579846674305
leaf_weight=2.1450052857398987 0.22441914025694298 0.39069976285099972 0.37532832100987423 0.5956373494118451 0.25982675421982993 0.21596556995064009 0.34419822786003385 0.22164639644324768 0.23314557224512089 0.37750474270433165 0.23316491302102804 0.56625727005302906
leaf_count=6 20 5 9 21 23 20 31 20 21 34 21 51
internal_value=0 -0.0679184 -0.0674578 -0.0673196 -0.0671684 -0.067167 -0.0671682 -0.0671675 -0.0671676 -0.0671676 -0.0671676 -0.0671676
internal_weight=0 4.03779 3.64709 3.27177 2.67613 2.4163 2.20034 1.97592 1.75427 1.52113 1.17693 0.943762
internal_count=282 276 271 262 241 218 198 178 158 137 106 85
is_linear=0
shrinkage=0.1


Tree=25
num_leaves=14
num_cat=0
split_feature=3 3 2 3 0 0 1 3 0 2 3 3 1
split_gain=6.49536 4.74799 1.09586 0.0938655 0.00221121 3.38307e-05 4.48684e-09 1.39763e-09 4.00791e-12 7.01661e-14 7.54952e-15 3.10862e-15 2.22045e-16
threshold=0.20600000000000002 -0.18999999999999997 0.13050000000000003 0.16650000000000004 0.10950000000000001 0.088500000000000009 0.60400000000000009 0.13000000000000003 0.076500000000000012 0.092500000000000013 0.10250000000000001 -0.029499999999999995 0.37150000000000005
decision_type=2 2 2 2 2 2 2 2 2 2 2 2 2
left_child=1 -1 3 4 5 6 7 8 9 10 11 -3 -13
right_child=-2 2 -4 -5 -6 -7 -8 -9 -10 -11 -12 12 -14
leaf_value=-0.10184368854052972 -0.094848590909813069 0.068607144994225197 -0.03025763872534154 0.10156830227869398 0.073859756669220747 0.069270385218807115 0.068614411456217356 0.068602772757318881 0.068606918519828738 0.06860712046674286 0.068607160150598312 0.068607151265477548 0.068607151313723802
leaf_weight=2.0348952412605312 4.6989427506923667 0.82451789081096105 1.156397484242915 0.97131500393152315 0.89404843747615892 0.84209808707237321 0.82707470655441362 0.82272706553339947 0.86564847826957692 0.82450850680470456 0.86574997380375851 0.86574616283178008 3.0507246106863022
leaf_count=6 15 20 7 12 8 17 20 20 21 20 21 21 74
internal_value=0 0.0400527 0.0625922 0.0718054 0.0690992 0.0686644 0.0686074 0.0686067 0.0686071 0.0686071 0.0686072 0.0686072 0.0686072
internal_weight=0 14.8455 12.8106 11.6542 10.6828 9.7888 8.9467 8.11962 7.2969 6.43125 5.60674 4.74099 3.91647
internal_count=282 267 261 254 242 234 217 197 177 156 136 115 95
is_linear=0
shrinkage=0.1


Tree=26
num_leaves=11
num_cat=0
split_feature=3 3 0 0 2 3 1 0 3 3
split_gain=8.20138 0.000761666 0.000152313 4.49385e-06 7.85754e-08 5.36926e-10 4.67715e-12 2.75779e-13 4.44089e-16 2.22045e-16
threshold=0.19850000000000004 0.16650000000000004 0.10950000000000001 0.088500000000000009 0.10550000000000001 0.12250000000000001 0.58450000000000013 0.070500000000000021 0.10050000000000002 0.012500000000000002
decision_type=2 2 2 2 2 2 2 2 2 2
left_child=1 2 3 4 5 6 7 8 9 -1
right_child=-2 -3 -4 -5 -6 -7 -8 -9 -10 -11
leaf_value=-0.068084618301371719 0.083366421625240522 -0.071729733194592096 -0.069555352486508862 -0.06836078716365733 -0.068121533481561206 -0.06808144327090615 -0.068084336075661209 -0.068084551195833246 -0.06808461950543325 -0.068084617197399874
leaf_weight=1.0094326175749273 5.9467514157295236 0.68423922918737012 0.81246903538703907 0.66253570280969132 0.62367653101682652 0.61043657176196564 0.73399275541305531 0.73409950919449318 0.64236680418252934 2.3247537612915039
leaf_count=33 18 13 14 19 20 20 24 24 21 76
internal_value=0 -0.0685251 -0.0682562 -0.0681124 -0.0680877 -0.0680843 -0.0680846 -0.0680846 -0.0680846 -0.0680846
internal_weight=0 8.838 8.15376 7.34129 6.67876 6.05508 5.44465 4.71065 3.97655 3.33419
internal_count=282 264 251 237 218 198 178 154 130 109
is_linear=0
shrinkage=0.1


Tree=27
num_leaves=11
num_cat=0
split_feature=3 0 0 3 2 3 3 0 1 3
split_gain=3.7127 0.00053628 4.47722e-05 2.55994e-05 8.27942e-09 3.58407e-09 6.24035e-10 1.47236e-11 2.67564e-14 5.55112e-16
threshold=-0.18999999999999997 0.11450000000000002 0.10050000000000002 0.18550000000000003 0.10750000000000001 0.13450000000000004 -0.05849999999999999 0.079500000000000015 0.56800000000000006 0.10650000000000001
decision_type=2 2 2 2 2 2 2 2 2 2
left_child=-1 2 3 4 5 6 -2 8 9 -8
right_child=1 -3 -4 -5 -6 -7 7 -9 -10 -11
leaf_value=0.10158993283560463 -0.067110992935728378 -0.071517022976613512 -0.068465480036313364 -0.067870699563039677 -0.067124376869187069 -0.067091192495567192 -0.067105158675452498 -0.067104230501685375 -0.067105120533311399 -0.067105163766577228
leaf_weight=2.0303211808204651 0.19679710827768016 0.34643901512026776 0.33800300210714329 0.53871877677738655 0.2292990069836377 0.18800313584506501 1.1392967300489547 0.19434249680489291 0.20447141863405693 0.1947534754872321
leaf_count=6 20 5 9 21 23 20 117 20 21 20
internal_value=0 -0.0677784 -0.0673766 -0.067249 -0.0671063 -0.0671044 -0.0671057 -0.0671051 -0.0671052 -0.0671052
internal_weight=0 3.57012 3.22369 2.88568 2.34696 2.11766 1.92966 1.73286 1.53852 1.33405
internal_count=282 276 271 262 241 218 198 178 158 137
is_linear=0
shrinkage=0.1


Tree=28
num_leaves=13
num_cat=0
split_feature=3 3 2 3 0 0 0 2 3 1 0 3
split_gain=5.53103 4.03144 1.31279 0.109299 0.00148448 2.27169e-05 1.53494e-07 1.55236e-07 2.14644e-10 8.16103e-12 4.91607e-13 4.44089e-16
threshold=0.20600000000000002 -0.18999999999999997 0.13500000000000004 0.17450000000000002 0.10950000000000001 0.088500000000000009 0.029500000000000002 0.10550000000000001 0.11250000000000002 0.58450000000000013 0.070500000000000021 0.0045000000000000014
decision_type=2 2 2 2 2 2 2 2 2 2 2 2
left_child=1 -1 3 4 5 6 -3 8 9 10 11 -8
right_child=-2 2 -4 -5 -6 -7 7 -9 -10 -11 -12 -13
leaf_value=-0.095474496456136995 -0.090345342661365721 0.068320264027418504 -0.054782639486655751 0.10566995686555175 0.072921388582529473 0.068938066112953153 0.068359637290705946 0.068406820080864586 0.068357746049861681 0.068359291606941694 0.06835955619013584 0.06835963972023805
leaf_weight=1.8962125182151819 4.3514817953109732 0.88259103894232804 0.88772398978471834 0.87617211230099279 0.79421548545360643 0.74104913324117738 0.90571267157793078 0.77197925932705391 0.72378206998109806 0.86931373924016941 0.86944395676255215 3.0794270038604736
leaf_count=6 15 25 5 7 8 17 25 21 20 24 24 85
internal_value=0 0.0395395 0.0619942 0.0718543 0.06878 0.0684081 0.0683596 0.0683644 0.0683594 0.0683596 0.0683596 0.0683596
internal_weight=0 13.2976 11.4014 10.5137 9.63751 8.8433 8.10225 7.21966 6.44768 5.7239 4.85458 3.98514
internal_count=282 267 261 256 249 241 224 199 178 158 134 110
is_linear=0
shrinkage=0.1


Tree=29
num_leaves=9
num_cat=0
split_feature=3 3 0 2 3 0 3 1
split_gain=6.95672 0.00060256 0.000113262 9.87513e-08 1.43085e-08 3.09316e-10 3.58147e-10 5.2669e-13
threshold=0.19850000000000004 0.16650000000000004 0.10050000000000002 0.10550000000000001 -0.05849999999999999 0.078500000000000014 0.12250000000000001 0.56800000000000006
decision_type=2 2 2 2 2 2 2 2
left_child=1 2 3 4 -1 6 7 -6
right_child=-2 -3 -4 -5 5 -7 -8 -9
leaf_value=-0.067921136261663156 0.077877872120710012 -0.071343252969015933 -0.069075078546901189 -0.067949106373025633 -0.067904657421724815 -0.067901779747660845 -0.067901890770872178 -0.067904553183721142
leaf_weight=0.54243446886539359 5.5900625288486481 0.60856566950678814 0.9631856009364127 0.5776782240718602 3.463440641760827 0.53576045297086228 0.53578638844192017 0.56377040036022652
leaf_count=20 18 13 20 21 129 20 20 21
internal_value=0 -0.068322 -0.068066 -0.0679097 -0.0679057 -0.0679041 -0.0679043 -0.0679046
internal_weight=0 7.79062 7.18206 6.21887 5.64119 5.09876 4.563 4.02721
internal_count=282 264 251 231 210 190 170 150
is_linear=0
shrinkage=0.1


Tree=30
num_leaves=13
num_cat=0
split_feature=3 0 0 3 2 3 3 0 1 0 0 3
split_gain=3.14963 0.000358587 3.50153e-05 1.89872e-05 9.91859e-09 2.7659e-09 4.13231e-10 1.19318e-11 1.87628e-14 3.55271e-15 5.55112e-17 5.55112e-17
threshold=-0.18999999999999997 0.11450000000000002 0.10050000000000002 0.18550000000000003 0.10750000000000001 0.13450000000000004 -0.05849999999999999 0.079500000000000015 0.56800000000000006 0.031500000000000007 0.042500000000000003 -0.013499999999999998
decision_type=2 2 2 2 2 2 2 2 2 2 2 2
left_child=-1 2 3 4 5 6 -2 8 9 -8 -11 -12
right_child=1 -3 -4 -5 -6 -7 7 -9 -10 10 11 -13
leaf_value=0.095437274877485476 -0.067055565503139708 -0.070904912785834093 -0.068315556469665098 -0.067748234646908684 -0.067073041070181957 -0.067037337141420267 -0.067050518478590032 -0.067049612538226666 -0.067050470496830258 -0.067050503449216009 -0.067050504139497383 -0.067050502446669089
leaf_weight=1.8952401280403135 0.17253155540675003 0.30670689791440953 0.30673580244183529 0.48377595283091057 0.20233375020325173 0.16428792756050814 0.17929939273744888 0.17036123294383276 0.1792772402986883 0.21344431582838297 0.17075508087873503 0.60618037171661809
leaf_count=6 20 5 9 21 23 20 21 20 21 25 20 71
internal_value=0 -0.067656 -0.0673063 -0.0671845 -0.067052 -0.0670497 -0.0670509 -0.0670504 -0.0670505 -0.0670505 -0.0670505 -0.0670505
internal_weight=0 3.15569 2.84898 2.54225 2.05847 1.85614 1.69185 1.51932 1.34896 1.16968 0.99038 0.776935
internal_count=282 276 271 262 241 218 198 178 158 137 116 91
is_linear=0
shrinkage=0.1


Tree=31
num_leaves=15
num_cat=0
split_feature=3 3 2 3 0 0 0 1 0 3 1 2 2 1
split_gain=4.74563 3.44668 1.17467 0.12065 0.000996589 1.53762e-05 1.41456e-07 7.36926e-08 1.0349e-07 6.26298e-08 6.11045e-12 9.38138e-13 1.31006e-14 4.44089e-16
threshold=0.20600000000000002 -0.18999999999999997 0.13500000000000004 0.18550000000000003 0.10950000000000001 0.088500000000000009 0.029500000000000002 0.42250000000000004 0.046500000000000007 0.13000000000000003 0.58450000000000013 0.088500000000000009 0.061500000000000006 0.51900000000000013
decision_type=2 2 2 2 2 2 2 2 2 2 2 2 2 2
left_child=1 -1 3 4 5 6 -3 8 -8 10 11 12 -9 -14
right_child=-2 2 -4 -5 -6 -7 7 9 -10 -11 -12 -13 13 -15
leaf_value=-0.090547413443368072 -0.086747687305060384 0.068101522610967954 -0.050757443693802473 0.11083687906680482 0.072110318568500295 0.06864843062793996 0.068195314409913374 0.068144276549385943 0.068144261708364295 0.068110079147734023 0.068143960789394012 0.06814415513536641 0.06814429113312008 0.068144294592525786
leaf_weight=1.7476199269294728 4.002774953842164 0.80073591321706228 0.85340695455670434 0.73089540004730302 0.70423812419176091 0.65163297578692425 0.65087341889739025 0.70004113391041833 1.018231615424156 0.61917179822921742 0.85896551236510266 0.66816866025328625 1.1773526296019552 0.70004922524094571
leaf_count=6 15 26 5 4 8 17 20 22 32 20 27 21 37 22
internal_value=0 0.0391492 0.0615161 0.0718406 0.0685068 0.0681833 0.0681411 0.0681461 0.0681642 0.0681397 0.0681442 0.0681443 0.0681443 0.0681443
internal_weight=0 11.8814 10.1338 9.28036 8.54946 7.84522 7.19359 6.39285 1.66911 4.72375 4.10458 3.24561 2.57744 1.8774
internal_count=282 267 261 256 252 244 227 201 52 149 129 102 81 59
is_linear=0
shrinkage=0.1


Tree=32
num_leaves=12
num_cat=0
split_feature=3 3 0 2 3 0 3 1 0 0 2
split_gain=5.90771 0.00035921 8.59693e-05 6.62426e-08 9.39866e-09 2.49154e-10 2.37691e-10 3.8658e-13 3.90799e-14 2.22045e-16 1.11022e-16
threshold=0.19850000000000004 0.16650000000000004 0.10050000000000002 0.10550000000000001 -0.05849999999999999 0.078500000000000014 0.12250000000000001 0.56800000000000006 0.033500000000000009 0.047500000000000007 0.076500000000000012
decision_type=2 2 2 2 2 2 2 2 2 2 2
left_child=1 2 3 4 -1 6 7 8 -6 -10 -11
right_child=-2 -3 -4 -5 5 -7 -8 -9 9 10 -12
leaf_value=-0.067762098875860766 0.073118289281476026 -0.070607588335883806 -0.068824934480095551 -0.067786694356554739 -0.06774789267450948 -0.067745138730226306 -0.067745460132953725 -0.067747771654802488 -0.067747862008720072 -0.067747861406832838 -0.067747863493303945
leaf_weight=0.47588781826198001 5.2168575525283813 0.53079109638929356 0.865699142217636 0.50689445436000813 0.49470317177474665 0.4699781835079192 0.47009729780256737 0.49464960396289814 0.84803952835500274 1.2249454613775013 0.4711328838020562
leaf_count=20 18 13 20 21 21 20 20 21 36 52 20
internal_value=0 -0.0681089 -0.0678991 -0.0677523 -0.0677487 -0.0677473 -0.0677476 -0.0677479 -0.0677479 -0.0677479 -0.0677479
internal_weight=0 6.85282 6.32203 5.45633 4.94943 4.47355 4.00357 3.53347 3.03882 2.54412 1.69608
internal_count=282 264 251 231 210 190 170 150 129 108 72
is_linear=0
shrinkage=0.1


Tree=33
num_leaves=14
num_cat=0
split_feature=3 0 0 3 2 3 3 0 1 0 1 0 3
split_gain=2.69029 0.000239189 2.80797e-05 1.39733e-05 1.19203e-08 1.85676e-09 2.74079e-10 9.29523e-12 1.39888e-14 6.60583e-15 1.27676e-15 8.60423e-16 5.55112e-17
threshold=-0.18999999999999997 0.11450000000000002 0.10050000000000002 0.18550000000000003 0.10750000000000001 0.13450000000000004 -0.05849999999999999 0.079500000000000015 0.56800000000000006 0.031500000000000007 0.42050000000000004 0.049500000000000009 0.026500000000000003
decision_type=2 2 2 2 2 2 2 2 2 2 2 2 2
left_child=-1 2 3 4 5 6 -2 8 9 -8 11 -11 -12
right_child=1 -3 -4 -5 -6 -7 7 -9 -10 10 12 -13 -14
leaf_value=0.090620150991490178 -0.067007048073991923 -0.070370722843334232 -0.06819137945053147 -0.06763691415902523 -0.067029159349398043 -0.066991119941090263 -0.067002672699781593 -0.0670018121636905 -0.067002621667211118 -0.067002639718037632 -0.06700265215718347 -0.067002650288684587 -0.067002653842835685
leaf_weight=1.7501304745674131 0.1512245582416657 0.27115382440388192 0.27872656099498261 0.43345018103718747 0.17885385546833266 0.14399918681010593 0.15717546315863795 0.14930882165208448 0.15715114912018169 0.14967581955716014 0.19458501785993576 0.16464885650202632 0.35923439031466842
leaf_count=6 20 5 9 21 23 20 21 20 21 20 26 22 48
internal_value=0 -0.0675487 -0.0672449 -0.067127 -0.0670047 -0.067002 -0.067003 -0.0670026 -0.0670026 -0.0670027 -0.0670027 -0.0670026 -0.0670027
internal_weight=0 2.78919 2.51803 2.23931 1.80586 1.627 1.483 1.33178 1.18247 1.02532 0.868144 0.314325 0.553819
internal_count=282 276 271 262 241 218 198 178 158 137 116 42 74
is_linear=0
shrinkage=0.1


Tree=34
num_leaves=15
num_cat=0
split_feature=3 3 2 3 0 2 3 3 0 1 0 0 2 1
split_gain=4.09602 2.95923 1.28101 0.116226 0.000682165 5.14881e-07 1.40883e-07 1.52655e-08 5.84094e-10 6.9722e-13 4.05675e-13 5.12923e-14 3.10862e-15 1.11022e-16
threshold=0.20600000000000002 -0.18999999999999997 0.14100000000000004 0.18550000000000003 0.10050000000000002 0.10750000000000001 0.13450000000000004 -0.05849999999999999 0.079500000000000015 0.56800000000000006 0.031500000000000007 0.045500000000000006 0.079500000000000015 0.44450000000000006
decision_type=2 2 2 2 2 2 2 2 2 2 2 2 2 2
left_child=1 -1 3 4 5 6 7 -3 9 10 -9 -12 13 -13
right_child=-2 2 -4 -5 -6 -7 -8 8 -10 -11 11 12 -14 -15
leaf_value=-0.086649611645832472 -0.083830156836753961 0.067973738046404025 -0.070712306733241012 0.11139305125729433 0.070870789801202802 0.068046321761925155 0.067904346873453855 0.067956859294465918 0.067953331434926198 0.067956665691783991 0.067956748924207111 0.067956775350149143 0.067956783397386908 0.06795677421702255
leaf_weight=1.5968992710113514 3.6635012179613122 0.56429835967719189 0.68200922012329179 0.6820472627878188 0.91635723784565914 0.66161679103970517 0.533564943820238 0.58668874017894301 0.55727394670248021 0.5866032801568507 0.92186316102743182 0.92188051715493224 0.5587183441966771 0.83807318098843098
leaf_count=6 15 20 3 4 13 23 20 21 20 21 33 33 20 30
internal_value=0 0.0388153 0.0610498 0.071839 0.0683111 0.0679626 0.0679534 0.0679582 0.0679564 0.0679568 0.0679568 0.0679568 0.0679568 0.0679568
internal_weight=0 10.6079 9.01099 8.32899 7.64694 6.73058 6.06896 5.5354 4.9711 4.41383 3.82722 3.24054 2.31867 1.75995
internal_count=282 267 261 258 254 241 218 198 178 158 137 116 83 63
is_linear=0
shrinkage=0.1


Tree=35
num_leaves=14
num_cat=0
split_feature=3 2 3 0 2 3 3 0 1 0 0 1 0
split_gain=5.10205 1.41802 0.111275 5.98473e-05 1.82151e-07 6.05459e-08 5.95392e-09 2.37886e-10 2.67342e-13 1.56097e-13 2.04281e-14 6.66134e-16 1.11022e-16
threshold=0.20600000000000002 0.14100000000000004 0.18550000000000003 0.10050000000000002 0.10750000000000001 0.13450000000000004 -0.05849999999999999 0.079500000000000015 0.56800000000000006 0.031500000000000007 0.045500000000000006 0.49150000000000005 0.058500000000000003
decision_type=2 2 2 2 2 2 2 2 2 2 2 2 2
left_child=1 2 3 4 5 6 -1 8 9 -8 -11 12 -12
right_child=-2 -3 -4 -5 -6 -7 7 -9 -10 10 11 -13 -14
leaf_value=-0.067623490758897994 0.085456994359904642 0.081839036940250298 -0.11149899227057147 -0.068584406915244756 -0.067672895805955355 -0.067571101609328318 -0.0676112395781924 -0.067608623564196363 -0.067611100056969506 -0.06761115972622507 -0.067611179327387694 -0.067611183233499461 -0.067611178025581128
leaf_weight=0.41737505048513357 3.8594940304756165 0.65971378237009037 0.64698088914155949 0.73011434637010086 0.48811514675617207 0.39343316294252861 0.43392709456384349 0.41214653104543675 0.43386461399495591 0.68182950466871295 0.76448982395231702 0.53721162118017662 0.4132377952337265
leaf_count=20 15 3 4 19 23 20 21 20 21 33 37 26 20
internal_value=0 -0.0577044 -0.0721956 -0.0677389 -0.0676149 -0.0676086 -0.0676122 -0.0676109 -0.0676112 -0.0676112 -0.0676112 -0.0676112 -0.0676112
internal_weight=0 7.01244 6.35273 5.70574 4.97563 4.48752 4.09408 3.67671 3.26456 2.8307 2.39677 1.71494 1.17773
internal_count=282 267 264 260 241 218 198 178 158 137 116 83 57
is_linear=0
shrinkage=0.1


Tree=36
num_leaves=15
num_cat=0
split_feature=3 0 0 3 2 1 3 3 0 0 3 2 0 2
split_gain=2.30682 0.000160259 2.12487e-05 9.96586e-06 7.66695e-08 3.85512e-09 2.7405e-09 1.01142e-09 4.86033e-12 5.88418e-15 1.16573e-15 4.44089e-16 5.55112e-17 2.77556e-17
threshold=-0.18999999999999997 0.11450000000000002 0.10050000000000002 0.19850000000000004 0.11250000000000002 0.54950000000000021 0.045500000000000006 0.13000000000000003 0.076500000000000012 0.031500000000000007 0.098500000000000018 0.048500000000000008 0.05050000000000001 0.067500000000000018
decision_type=2 2 2 2 2 2 2 2 2 2 2 2 2 2
left_child=-1 2 3 4 5 7 -7 8 9 -2 11 -11 -13 -14
right_child=1 -3 -4 -5 -6 6 -8 -9 -10 10 -12 12 13 -15
leaf_value=0.086775643456471097 -0.066960775996705191 -0.069906036911361491 -0.068052194306426714 -0.067557306564071343 -0.067043160826503564 -0.066963790915442897 -0.066983147880983751 -0.066951607854213432 -0.066960118757021597 -0.0669607497773754 -0.066960744538181613 -0.066960755005390449 -0.066960758176340215 -0.066960755946112019
leaf_weight=1.6023062467575071 0.13118982315063543 0.23954125680029381 0.24978662095963944 0.34953733161091793 0.1267497120425104 0.16530049731954921 0.13118538027629256 0.13930920977145422 0.13744175201281905 0.13773640571162105 0.13117487961426377 0.19676951412111521 0.13118098862469196 0.19021244300529361
leaf_count=6 20 5 9 18 17 25 19 22 21 21 20 30 20 29
internal_value=0 -0.0674488 -0.0671834 -0.0670731 -0.0669685 -0.0669621 -0.0669724 -0.0669596 -0.0669607 -0.0669608 -0.0669608 -0.0669608 -0.0669608 -0.0669608
internal_weight=0 2.45712 2.21757 1.96779 1.61825 1.4915 0.296486 1.19502 1.05571 0.918264 0.787074 0.655899 0.518163 0.321393
internal_count=282 276 271 262 244 227 44 183 161 140 120 100 79 49
is_linear=0
shrinkage=0.1


Tree=37
num_leaves=15
num_cat=0
split_feature=3 3 2 3 0 2 3 3 0 1 0 1 1 0
split_gain=3.49049 2.53599 1.1028 0.0791939 0.000457123 3.45796e-07 9.38109e-08 1.02023e-08 3.89317e-10 4.80949e-13 2.67786e-13 2.81997e-14 1.44329e-15 3.33067e-16
threshold=0.20600000000000002 -0.18999999999999997 0.14100000000000004 0.18550000000000003 0.10050000000000002 0.10750000000000001 0.13450000000000004 -0.05849999999999999 0.079500000000000015 0.56800000000000006 0.031500000000000007 0.41850000000000004 0.52150000000000019 0.05050000000000001
decision_type=2 2 2 2 2 2 2 2 2 2 2 2 2 2
left_child=1 -1 3 4 5 6 7 -3 9 10 -9 -12 13 -13
right_child=-2 2 -4 -5 -6 -7 -8 8 -10 -11 11 12 -14 -15
leaf_value=-0.083512088185164812 -0.081196492258644296 0.067808199135741432 -0.064901786972044198 0.10516000485221032 0.07033294719080567 0.067871740865914812 0.067747727297447352 0.067793469082449417 0.067790394616293617 0.067793298883542741 0.067793376430121302 0.0677933946314353 0.067793402452935789 0.067793397032977265
leaf_weight=1.4492205083370198 3.3058038353919992 0.49523168429732134 0.64695233106613148 0.63090720772743214 0.80911224335432042 0.58072738908231247 0.46819201484322537 0.51486335135996508 0.48904603719711293 0.51478814706206311 0.93158215284347567 0.61289263516664483 0.49031720682978619 0.80902002565562725
leaf_count=6 15 20 3 4 13 23 20 21 20 21 38 25 20 33
internal_value=0 0.0381982 0.0602639 0.0712861 0.0681038 0.0677985 0.0677905 0.0677946 0.0677931 0.0677934 0.0677934 0.0677934 0.0677934 0.0677934
internal_weight=0 9.44285 7.99363 7.34668 6.71577 5.90666 5.32593 4.85774 4.36251 3.87346 3.35868 2.84381 1.91223 1.42191
internal_count=282 267 261 258 254 241 218 198 178 158 137 116 78 58
is_linear=0
shrinkage=0.1


Tree=38
num_leaves=14
num_cat=0
split_feature=3 2 3 0 2 3 3 0 1 0 0 1 0
split_gain=4.35059 1.22425 0.0757063 4.19081e-05 1.22496e-07 4.03546e-08 3.98324e-09 1.58678e-10 1.86295e-13 1.09468e-13 1.21014e-14 3.33067e-16 5.55112e-17
threshold=0.20600000000000002 0.14100000000000004 0.18550000000000003 0.10050000000000002 0.10750000000000001 0.13450000000000004 -0.05849999999999999 0.079500000000000015 0.56800000000000006 0.031500000000000007 0.045500000000000006 0.48700000000000004 0.057500000000000009
decision_type=2 2 2 2 2 2 2 2 2 2 2 2 2
left_child=1 2 3 4 5 6 -1 8 9 -8 -11 12 -12
right_child=-2 -3 -4 -5 -6 -7 7 -9 -10 10 11 -13 -14
leaf_value=-0.067502717732784531 0.082548541363149597 0.075869955000589628 -0.10523271726681788 -0.068358209313257673 -0.067546020783239846 -0.067457023149809933 -0.067492017786270647 -0.067489734692401132 -0.067491893280235846 -0.067491947506919614 -0.067491963894071125 -0.067491966484424057 -0.067491961752759969
leaf_weight=0.36599298566579852 3.4960222989320755 0.62553824856877316 0.59866207838058461 0.64603273943066586 0.42806789092719544 0.34496257919818152 0.38049785606563258 0.36139721982181061 0.38044297136366356 0.59787606634199653 0.61600509099662282 0.50730057246983051 0.38047377392649651
leaf_count=20 15 3 4 19 23 20 21 20 21 33 34 28 21
internal_value=0 -0.0568217 -0.0716234 -0.0676065 -0.0674952 -0.0674897 -0.0674928 -0.0674917 -0.067492 -0.067492 -0.067492 -0.067492 -0.067492
internal_weight=0 6.23325 5.60771 5.00905 4.36302 3.93495 3.58999 3.22399 2.8626 2.48215 2.10166 1.50378 0.996479
internal_count=282 267 264 260 241 218 198 178 158 137 116 83 55
is_linear=0
shrinkage=0.1


Tree=39
num_leaves=14
num_cat=0
split_feature=3 0 0 3 2 1 3 3 0 0 3 2 1
split_gain=1.98571 0.000107146 1.64631e-05 7.0567e-06 4.77274e-08 2.1474e-09 1.38851e-09 6.79014e-10 3.31157e-12 4.77396e-15 1.77636e-15 5.55112e-16 2.77556e-16
threshold=-0.18999999999999997 0.11450000000000002 0.10050000000000002 0.19850000000000004 0.11250000000000002 0.54950000000000021 0.045500000000000006 0.13000000000000003 0.076500000000000012 0.031500000000000007 0.098500000000000018 0.052500000000000005 0.41850000000000004
decision_type=2 2 2 2 2 2 2 2 2 2 2 2 2
left_child=-1 2 3 4 5 7 -7 8 9 -2 11 -11 -13
right_child=1 -3 -4 -5 -6 6 -8 -9 -10 10 -12 12 -14
leaf_value=0.083660573678635317 -0.066924099533848577 -0.06949987259056041 -0.067936173286105822 -0.067456345106994525 -0.066993470798588362 -0.066926742494312103 -0.066941479652472616 -0.066916071987943124 -0.066923518212313224 -0.066924073821105518 -0.06692406596155287 -0.066924077162520024 -0.066924082637474028
leaf_weight=1.4568096399307253 0.1149551756680014 0.21137409470975388 0.2240636721253394 0.31117130443453778 0.11075528664514411 0.14484748942777503 0.11444618878886104 0.12206257926300168 0.12043168488889933 0.12643848033621907 0.11494074109941721 0.12069307314231992 0.32760015875101089
leaf_count=6 20 5 9 18 17 25 19 22 21 22 20 21 57
internal_value=0 -0.0673612 -0.0671297 -0.0670251 -0.0669304 -0.0669251 -0.0669332 -0.0669231 -0.066924 -0.0669241 -0.0669241 -0.0669241 -0.0669241
internal_weight=0 2.16378 1.95241 1.72834 1.41717 1.30642 0.259294 1.04712 0.925059 0.804628 0.689672 0.574732 0.448293
internal_count=282 276 271 262 244 227 44 183 161 140 120 100 78
is_linear=0
shrinkage=0.1


Tree=40
num_leaves=15
num_cat=0
split_feature=3 3 2 3 0 2 3 3 0 1 0 0 2 1
split_gain=2.98497 2.17799 0.952139 0.0533339 0.000306338 2.32118e-07 6.25185e-08 6.81841e-09 2.59897e-10 3.34399e-13 1.94955e-13 2.04281e-14 1.66533e-15 3.33067e-16
threshold=0.20600000000000002 -0.18999999999999997 0.14100000000000004 0.18550000000000003 0.10050000000000002 0.10750000000000001 0.13450000000000004 -0.05849999999999999 0.079500000000000015 0.56800000000000006 0.031500000000000007 0.045500000000000006 0.079500000000000015 0.42250000000000004
decision_type=2 2 2 2 2 2 2 2 2 2 2 2 2 2
left_child=1 -1 3 4 5 6 7 -3 9 10 -9 -12 13 -13
right_child=-2 2 -4 -5 -6 -7 -8 8 -10 -11 11 12 -14 -15
leaf_value=-0.080951673606517338 -0.079030109617009264 0.067663886122834985 -0.059531419954620413 0.099670548908499426 0.069865374937747818 0.067719502904653145 0.067611161286063856 0.06765103222371309 0.067648347460000507 0.067650879377646897 0.067650946447051344 0.067650966672306106 0.067650972008781174 0.067650963660403587
leaf_weight=1.307916373014449 2.969241365790368 0.43446654826402475 0.61392600089311589 0.58133106678724278 0.71361586451530445 0.50953530333936203 0.41069183126091946 0.45167511701584073 0.42902323976159085 0.45160729624330986 0.70971606485545669 0.51616691797971703 0.43014143407344807 0.83877108804881573
leaf_count=6 15 20 3 4 13 23 20 21 20 21 33 24 20 39
internal_value=0 0.0376193 0.0594905 0.0707725 0.0679229 0.0676554 0.0676484 0.067652 0.0676507 0.067651 0.067651 0.067651 0.067651 0.067651
internal_weight=0 8.39858 7.09067 6.47674 5.89541 5.18179 4.67226 4.26157 3.8271 3.39808 2.94647 2.4948 1.78508 1.35494
internal_count=282 267 261 258 254 241 218 198 178 158 137 116 83 63
is_linear=0
shrinkage=0.1


Tree=41
num_leaves=14
num_cat=0
split_feature=3 2 3 0 2 3 3 0 1 0 0 1 1
split_gain=3.72038 1.0597 0.0508963 2.91501e-05 8.23564e-08 2.69183e-08 2.66598e-09 1.05986e-10 1.18128e-13 6.69464e-14 9.10383e-15 7.77156e-16 2.22045e-16
threshold=0.20600000000000002 0.14100000000000004 0.18550000000000003 0.10050000000000002 0.10750000000000001 0.13450000000000004 -0.05849999999999999 0.079500000000000015 0.56800000000000006 0.031500000000000007 0.045500000000000006 0.49150000000000005 0.42550000000000004
decision_type=2 2 2 2 2 2 2 2 2 2 2 2 2
left_child=1 2 3 4 5 6 -1 8 9 -8 -11 12 -12
right_child=-2 -3 -4 -5 -6 -7 7 -9 -10 10 11 -13 -14
leaf_value=-0.06739733590239573 0.080162658375408535 0.070370607031041602 -0.099711015478922541 -0.068156903865098636 -0.067435285959031796 -0.067357461397121926 -0.067387984310330912 -0.067385993609341097 -0.067387879211852852 -0.067387924534360627 -0.067387939762000706 -0.067387943622405758 -0.067387937086055436
leaf_weight=0.32085725851357061 3.1502996385097504 0.59308823570609082 0.5517875850200652 0.57078235037624825 0.37531042657792557 0.3023929139599203 0.33356607332825827 0.3168198950588702 0.333517875522375 0.52413208223879326 0.49237580224871613 0.4129622858017683 0.41296034678816795
leaf_count=20 15 3 4 19 23 20 21 20 21 33 31 26 26
internal_value=0 -0.0559419 -0.0710838 -0.0674903 -0.0673908 -0.067386 -0.0673887 -0.0673877 -0.0673879 -0.0673879 -0.0673879 -0.0673879 -0.0673879
internal_weight=0 5.54055 4.94746 4.39568 3.82489 3.44958 3.14719 2.82633 2.50951 2.176 1.84243 1.3183 0.905336
internal_count=282 267 264 260 241 218 198 178 158 137 116 83 57
is_linear=0
shrinkage=0.1


Tree=42
num_leaves=15
num_cat=0
split_feature=3 0 0 3 2 1 3 3 0 0 3 2 0 0
split_gain=1.71459 7.14701e-05 1.30425e-05 4.96226e-06 2.99544e-08 1.21931e-09 7.14519e-10 4.56065e-10 2.24376e-12 4.32987e-15 1.22125e-15 3.60822e-16 1.11022e-16 4.16334e-17
threshold=-0.18999999999999997 0.11450000000000002 0.10050000000000002 0.19850000000000004 0.11250000000000002 0.54950000000000021 0.045500000000000006 0.13000000000000003 0.076500000000000012 0.031500000000000007 0.098500000000000018 0.048500000000000008 0.047500000000000007 0.060500000000000005
decision_type=2 2 2 2 2 2 2 2 2 2 2 2 2 2
left_child=-1 2 3 4 5 7 -7 8 9 -2 11 -11 -13 -14
right_child=1 -3 -4 -5 -6 6 -8 -9 -10 10 -12 12 13 -15
leaf_value=0.081105653007150447 -0.066891993445493167 -0.069144814116624043 -0.067839470772882243 -0.067365741209307745 -0.066950657935865521 -0.066894308981035461 -0.066905615394914811 -0.066884961902992285 -0.066891479900852133 -0.066891968120592546 -0.066891961083448859 -0.066891971798551914 -0.066891976416626905 -0.066891974559910347
leaf_weight=1.3169994950294497 0.1007140311412511 0.18633227795362461 0.20118268020451058 0.27644155360758293 0.096794691402464994 0.12690532067790627 0.099888466764241457 0.10693541495129466 0.10551074426621199 0.10573898069560528 0.10070035373792052 0.12084716791287065 0.17623766092583537 0.10070724785327911
leaf_count=6 20 5 9 18 17 25 19 22 21 21 20 24 35 20
internal_value=0 -0.0672846 -0.0670829 -0.0669826 -0.0668972 -0.0668927 -0.0668993 -0.0668911 -0.0668919 -0.066892 -0.066892 -0.066892 -0.066892 -0.066892
internal_weight=0 1.90494 1.7186 1.51742 1.24098 1.14419 0.226794 0.917392 0.810456 0.704945 0.604231 0.503531 0.397792 0.276945
internal_count=282 276 271 262 244 227 44 183 161 140 120 100 79 55
is_linear=0
shrinkage=0.1


Tree=43
num_leaves=15
num_cat=0
split_feature=3 3 2 3 0 2 3 3 0 1 0 0 2 0
split_gain=2.55998 1.87354 0.824503 0.0356505 0.000205297 1.55801e-07 4.16954e-08 4.56056e-09 1.73371e-10 2.41362e-13 1.17462e-13 1.54321e-14 7.77156e-16 1.11022e-16
threshold=0.20600000000000002 -0.18999999999999997 0.14100000000000004 0.18550000000000003 0.10050000000000002 0.10750000000000001 0.13450000000000004 -0.05849999999999999 0.079500000000000015 0.56800000000000006 0.031500000000000007 0.045500000000000006 0.079500000000000015 0.059500000000000004
decision_type=2 2 2 2 2 2 2 2 2 2 2 2 2 2
left_child=1 -1 3 4 5 6 7 -3 9 10 -9 -12 13 -13
right_child=-2 2 -4 -5 -6 -7 -8 8 -10 -11 11 12 -14 -15
leaf_value=-0.078839046751042266 -0.077231085617020051 0.067538019111212794 -0.054479446761170849 0.094923506112756906 0.069458533438448655 0.067586699633990624 0.067492024576124646 0.067526791303769054 0.067524451966824037 0.067526657303250817 0.067526718721973161 0.067526736248798 0.067526741445949792 0.06752673591157636
leaf_weight=1.1750165820121763 2.6567622274160385 0.38104084879159872 0.58369235694408406 0.53315209597349156 0.62877172231674183 0.44692761171609152 0.36014928109943856 0.39612237736582967 0.37625414505600918 0.3960615824908017 0.62242599017918143 0.79219331964850404 0.37723716534674157 0.39609677903354168
leaf_count=6 15 20 3 4 13 23 20 21 20 21 33 42 20 21
internal_value=0 0.0370709 0.0587232 0.0703024 0.067765 0.0675306 0.0675245 0.0675277 0.0675265 0.0675267 0.0675267 0.0675267 0.0675267 0.0675267
internal_weight=0 7.46514 6.29013 5.70643 5.17328 4.54451 4.09758 3.73743 3.35639 2.98014 2.58408 2.18795 1.56553 1.18829
internal_count=282 267 261 258 254 241 218 198 178 158 137 116 83 63
is_linear=0
shrinkage=0.1


Tree=44
num_leaves=14
num_cat=0
split_feature=3 2 0 3 0 0 2 1 3 0 3 0 0
split_gain=3.20969 4.67067e-05 1.87591e-05 3.32072e-06 3.04171e-07 1.01741e-12 2.10276e-13 1.11022e-13 5.59552e-14 2.43139e-14 9.4369e-15 1.4988e-15 5.55112e-17
threshold=0.19850000000000004 0.11850000000000001 0.11450000000000002 0.14400000000000002 0.088500000000000009 0.076500000000000012 0.093500000000000014 0.55400000000000016 0.10650000000000001 0.037500000000000006 -0.019499999999999997 0.047500000000000007 0.057500000000000009
decision_type=2 2 2 2 2 2 2 2 2 2 2 2 2
left_child=1 2 3 4 5 6 7 8 9 -1 -11 -12 -13
right_child=-2 -3 -4 -5 -6 -7 -8 -9 -10 10 11 12 -14
leaf_value=-0.067297163517564706 0.061364950851781133 -0.068667221191831371 -0.068125109335790149 -0.067646648081302413 -0.067403263283919629 -0.067296945214651502 -0.067297047279582883 -0.067297077016881979 -0.06729718608566905 -0.067297115372958308 -0.067297130540232994 -0.067297138973683168 -0.067297138370255458
leaf_weight=0.29235383309424179 3.671271339058876 0.31977596227079619 0.33281966671347607 0.31781138200312842 0.2985418839380144 0.36183869559317816 0.30622032191604365 0.27839434891939152 0.27844185661524523 0.27841163426637794 0.33410116843879045 0.40371059253811836 0.2784211253747344
leaf_count=21 18 12 11 20 19 26 22 20 20 20 24 29 20
internal_value=0 -0.067507 -0.0674083 -0.0673388 -0.0673073 -0.0672971 -0.0672971 -0.0672971 -0.0672971 -0.0672971 -0.0672971 -0.0672971 -0.0672971
internal_weight=0 4.08084 3.76107 3.42825 3.11044 2.81189 2.45005 2.14383 1.86544 1.587 1.29464 1.01623 0.682132
internal_count=282 264 252 241 221 202 176 154 134 114 93 73 49
is_linear=0
shrinkage=0.1


Tree=45
num_leaves=14
num_cat=0
split_feature=3 0 3 2 1 3 3 0 0 3 2 0 1
split_gain=1.48523 4.81857e-05 3.62559e-06 1.88888e-08 7.02066e-10 3.71016e-10 3.06042e-10 1.5079e-12 1.83187e-15 1.58207e-15 3.88578e-16 2.77556e-17 1.38778e-17
threshold=-0.18999999999999997 0.10050000000000002 0.19850000000000004 0.11250000000000002 0.54950000000000021 0.045500000000000006 0.13000000000000003 0.076500000000000012 0.031500000000000007 0.098500000000000018 0.048500000000000008 0.058500000000000003 0.42850000000000005
decision_type=2 2 2 2 2 2 2 2 2 2 2 2 2
left_child=-1 2 3 4 6 -6 7 8 -2 10 -10 12 -12
right_child=1 -3 -4 -5 5 -7 -8 -9 9 -11 11 -13 -14
leaf_value=0.078989032350502947 -0.066863882673360062 -0.068272474797307831 -0.067292193673290757 -0.066913625787854841 -0.066865916570325284 -0.066874629578751857 -0.066857731639198711 -0.066863436267701665 -0.066863863671860119 -0.06686385486235584 -0.066863870184342908 -0.066863870880967818 -0.06686387208623043
leaf_weight=1.1849817931652071 0.088225262705236451 0.34519969020038832 0.24771411158144463 0.084598294692113885 0.11117044417187572 0.087209842633455992 0.093671092530712485 0.092426155228167772 0.092626797035336494 0.088212477043271065 0.092628933023661375 0.114685099106282 0.14115087920799851
leaf_count=6 20 14 18 17 25 19 22 21 21 20 21 26 32
internal_value=0 -0.0672194 -0.066947 -0.0668683 -0.0668644 -0.0668697 -0.0668631 -0.0668638 -0.0668639 -0.0668639 -0.0668639 -0.0668639 -0.0668639
internal_weight=0 1.67952 1.33432 1.08661 1.00201 0.19838 0.803627 0.709956 0.617529 0.529304 0.441092 0.348465 0.23378
internal_count=282 276 262 244 227 44 183 161 140 120 100 79 53
is_linear=0
shrinkage=0.1


Tree=46
num_leaves=15
num_cat=0
split_feature=3 3 2 3 0 2 3 3 0 1 0 1 1 1
split_gain=2.24352 1.624 0.737939 0.033891 0.000137571 1.03067e-07 2.80618e-08 3.04529e-09 1.18351e-10 1.61648e-13 8.63754e-14 1.02141e-14 5.55112e-16 1.66533e-16
threshold=0.20600000000000002 -0.18999999999999997 0.14100000000000004 0.18550000000000003 0.10050000000000002 0.10750000000000001 0.13450000000000004 -0.05849999999999999 0.079500000000000015 0.56800000000000006 0.031500000000000007 0.41850000000000004 0.52150000000000019 0.45900000000000007
decision_type=2 2 2 2 2 2 2 2 2 2 2 2 2 2
left_child=1 -1 3 4 5 6 7 -3 9 10 -9 -12 13 -13
right_child=-2 2 -4 -5 -6 -7 -8 8 -10 -11 11 12 -14 -15
leaf_value=-0.077080202746009796 -0.075877425022736159 0.067428180699941317 -0.051648040190838421 0.094933854722450528 0.069104122024112966 0.067470406900993943 0.06738791537281312 0.067418386951571582 0.067416321189014555 0.067418267775762736 0.067418322312834109 0.067418335481019942 0.067418340948744312 0.067418337634392797
leaf_weight=1.051631838083267 2.3997250199317932 0.33409111015498671 0.54975128173828114 0.50509531795978535 0.55354787781834591 0.39175188448280085 0.31568683125078667 0.34731072001159402 0.32987979985773552 0.34725650027394284 0.62841567210853089 0.38036286458373048 0.3307522889226675 0.57881441153585911
leaf_count=6 15 20 3 4 13 23 20 21 20 21 38 23 20 35
internal_value=0 0.0369305 0.0583686 0.0703619 0.0676269 0.0674217 0.0674164 0.0674191 0.0674181 0.0674183 0.0674183 0.0674183 0.0674183 0.0674183
internal_weight=0 6.64435 5.59272 5.04297 4.53787 3.98432 3.59257 3.27688 2.94279 2.61291 2.26566 1.91835 1.28993 0.959177
internal_count=282 267 261 258 254 241 218 198 178 158 137 116 78 58
is_linear=0
shrinkage=0.1


Tree=47
num_leaves=15
num_cat=0
split_feature=3 2 3 3 0 3 3 0 2 1 0 1 1 1
split_gain=2.79178 0.826468 0.0449952 1.34253e-05 1.37718e-05 9.92998e-09 1.20395e-09 4.59845e-11 1.31006e-12 5.87308e-14 3.45279e-14 4.10783e-15 4.44089e-16 5.55112e-17
threshold=0.20600000000000002 0.14100000000000004 0.19850000000000004 0.15950000000000003 0.10050000000000002 0.13450000000000004 -0.05849999999999999 0.079500000000000015 0.097500000000000017 0.54950000000000021 0.031500000000000007 0.38250000000000006 0.42550000000000004 0.50550000000000017
decision_type=2 2 2 2 2 2 2 2 2 2 2 2 2 2
left_child=1 2 3 4 5 6 -1 8 9 10 -8 -12 -13 -14
right_child=-2 -3 -4 -5 -6 -7 7 -9 -10 -11 11 12 13 -15
leaf_value=-0.067225016810617572 0.076702247142425461 0.062530483994231043 -0.10506337063349358 -0.068022636247011367 -0.06781990940354421 -0.067239236673297148 -0.067217890102621108 -0.06721639665961289 -0.067217602373334587 -0.067217803823423974 -0.0672178388976271 -0.067217849533876009 -0.067217853224323873 -0.06721785538903978
leaf_weight=0.24644099455326962 2.5586894899606705 0.52891763299703587 0.34784939885139454 0.28146667126566161 0.44392641261219967 0.2506972150877117 0.25619788467884186 0.25551282614469517 0.24387304577976454 0.24396156240254629 0.26837488636374462 0.25618035718798615 0.5123631414026022 0.25618214160203934
leaf_count=20 15 3 1 16 19 20 21 21 20 20 22 21 42 21
internal_value=0 -0.0547038 -0.0707552 -0.0673602 -0.0673026 -0.0672202 -0.0672184 -0.0672177 -0.0672178 -0.0672178 -0.0672179 -0.0672178 -0.0672179 -0.0672179
internal_weight=0 4.39194 3.86303 3.51518 3.23371 2.78978 2.53909 2.29265 2.03713 1.79326 1.5493 1.2931 1.02473 0.768545
internal_count=282 267 264 263 247 228 208 188 167 147 127 106 84 63
is_linear=0
shrinkage=0.1


Tree=48
num_leaves=14
num_cat=0
split_feature=3 0 3 2 1 3 3 0 0 3 2 3 1
split_gain=1.28832 3.45419e-05 2.52525e-06 1.18748e-08 4.0136e-10 2.05335e-10 1.87478e-10 1.01846e-12 1.63758e-15 1.11022e-15 3.33067e-16 5.55112e-17 1.38778e-17
threshold=-0.18999999999999997 0.10050000000000002 0.19850000000000004 0.11250000000000002 0.54950000000000021 0.13000000000000003 0.045500000000000006 0.076500000000000012 0.031500000000000007 0.098500000000000018 0.048500000000000008 0.045500000000000006 0.43350000000000005
decision_type=2 2 2 2 2 2 2 2 2 2 2 2 2
left_child=-1 2 3 4 5 7 -6 8 -2 10 -10 12 -12
right_child=1 -3 -4 -5 6 -7 -8 -9 9 -11 11 -13 -14
leaf_value=0.077221585491496825 -0.066839281560900229 -0.068104474897631842 -0.06721921876555513 -0.066881394436210759 -0.066841061525896597 -0.066833896062881537 -0.066847685683465607 -0.066838887836074862 -0.066839262701032756 -0.066839254907673507 -0.066839270628864189 -0.066839267922547213 -0.066839270890526534
leaf_weight=1.0620104670524599 0.077276018448173778 0.307442171499133 0.21945596393197775 0.073921235278248787 0.097374852746725082 0.082042874069884419 0.076129337074235082 0.080954763339832425 0.081131067825481296 0.077264209045097232 0.0772707958240062 0.13135918858461082 0.096588494488969445
leaf_count=6 20 14 18 17 25 22 19 21 21 20 20 34 25
internal_value=0 -0.0671612 -0.0669134 -0.0668429 -0.0668397 -0.0668386 -0.066844 -0.0668392 -0.0668393 -0.0668393 -0.0668393 -0.0668393 -0.0668393
internal_weight=0 1.47821 1.17077 0.951313 0.877392 0.703887 0.173504 0.621845 0.54089 0.463614 0.38635 0.305218 0.173859
internal_count=282 276 262 244 227 183 44 161 140 120 100 79 45
is_linear=0
shrinkage=0.1


Tree=49
num_leaves=15
num_cat=0
split_feature=3 3 2 3 0 2 3 3 0 1 0 0 0 2
split_gain=1.93129 1.3991 0.641764 0.0217884 9.22632e-05 6.88724e-08 1.88899e-08 2.03838e-09 7.90767e-11 1.17684e-13 5.69544e-14 6.66134e-15 3.33067e-16 5.55112e-17
threshold=0.20600000000000002 -0.18999999999999997 0.14100000000000004 0.18550000000000003 0.10050000000000002 0.10750000000000001 0.13450000000000004 -0.05849999999999999 0.079500000000000015 0.56800000000000006 0.031500000000000007 0.045500000000000006 0.055500000000000008 0.071500000000000008
decision_type=2 2 2 2 2 2 2 2 2 2 2 2 2 2
left_child=1 -1 3 4 5 6 7 -3 9 10 -9 -12 13 -13
right_child=-2 2 -4 -5 -6 -7 -8 8 -10 -11 11 12 -14 -15
leaf_value=-0.075604940132784917 -0.074585437129093268 0.067332314586314376 -0.047087815780302203 0.090427081753852112 0.068795944019120883 0.067369167991570722 0.067297048334300197 0.06732375632815453 0.067321952697963788 0.067323649744122596 0.067323699406649146 0.067323713547511321 0.067323711885700063 0.067323716100339534
leaf_weight=0.93821945786476124 2.1352111548185349 0.29286200180649835 0.52429977804422367 0.462988931685686 0.48696166276931752 0.34339232556521881 0.27664684783667315 0.30444380734116006 0.28916289750486601 0.30439562164247025 0.47837147768586863 0.28992762416601159 0.62334450148046017 0.28992904908955097
leaf_count=6 15 20 3 4 13 23 20 21 20 21 33 20 43 20
internal_value=0 0.0363902 0.0575462 0.0698952 0.0675064 0.0673266 0.067322 0.0673244 0.0673235 0.0673237 0.0673237 0.0673237 0.0673237 0.0673237
internal_weight=0 5.90495 4.96673 4.44243 3.97944 3.49248 3.14908 2.87244 2.57957 2.29041 1.98602 1.68157 1.2032 0.579857
internal_count=282 267 261 258 254 241 218 198 178 158 137 116 83 40
is_linear=0
shrinkage=0.1


Tree=50
num_leaves=14
num_cat=0
split_feature=3 2 0 3 0 2 1 3 3 0 2 0 3
split_gain=2.4062 4.92932e-05 9.08541e-06 1.26949e-06 1.34837e-07 1.33382e-12 2.59459e-13 5.9952e-14 4.26326e-14 1.40998e-14 3.4972e-15 1.05471e-15 1.11022e-16
threshold=0.19850000000000004 0.12150000000000001 0.11450000000000002 0.14750000000000002 0.088500000000000009 0.10250000000000001 0.58450000000000013 0.10850000000000001 -0.035499999999999997 0.03450000000000001 0.080500000000000016 0.047500000000000007 0.012500000000000002
decision_type=2 2 2 2 2 2 2 2 2 2 2 2 2
left_child=1 2 3 4 5 6 7 8 -1 -10 11 -11 -13
right_child=-2 -3 -4 -5 -6 -7 -8 -9 9 10 -12 12 -14
leaf_value=-0.067148554539421992 0.057357608735497903 -0.068708700131589251 -0.067796770225944714 -0.067407212002998582 -0.067229160233394869 -0.067148326408256173 -0.067148495462125785 -0.067148650234665305 -0.067148626169709957 -0.067148595585966656 -0.067148586758699738 -0.067148604755385158 -0.067148602026054549
leaf_weight=0.21374816168099764 3.0360773056745529 0.24518385156989086 0.25967239774763573 0.21962144877761591 0.22918355651199807 0.21364840585738409 0.25646684318780888 0.23516906052827824 0.21377839054912406 0.25651891343295552 0.21376273036003113 0.26721241325139999 0.33134173508733511
leaf_count=20 18 10 11 18 19 20 24 22 20 24 20 25 31
internal_value=0 -0.067347 -0.0672323 -0.067177 -0.0671562 -0.0671486 -0.0671486 -0.0671486 -0.0671486 -0.0671486 -0.0671486 -0.0671486 -0.0671486
internal_weight=0 3.15531 2.91012 2.65045 2.43083 2.20165 1.988 1.73153 1.49636 1.28261 1.06884 0.855073 0.598554
internal_count=282 264 254 243 225 206 186 162 140 120 100 80 56
is_linear=0
shrinkage=0.1


Tree=51
num_leaves=14
num_cat=0
split_feature=3 0 3 2 1 3 3 0 2 0 2 0 0
split_gain=1.12036 2.50951e-05 1.8381e-06 7.54837e-09 2.34811e-10 1.37776e-10 9.69634e-11 6.88644e-13 9.71445e-16 5.55112e-16 2.77556e-16 2.77556e-17 1.38778e-17
threshold=-0.18999999999999997 0.10050000000000002 0.19850000000000004 0.11250000000000002 0.54950000000000021 0.13000000000000003 0.045500000000000006 0.076500000000000012 0.085500000000000007 0.033500000000000009 0.052500000000000005 0.047500000000000007 0.058500000000000003
decision_type=2 2 2 2 2 2 2 2 2 2 2 2 2
left_child=-1 2 3 4 5 7 -6 8 9 -2 -11 -12 -13
right_child=1 -3 -4 -5 6 -7 -8 -9 -10 10 11 12 -14
leaf_value=0.075735324124693248 -0.06681774399964982 -0.067962289197336406 -0.067160819507102273 -0.066853603137888726 -0.066819306690928545 -0.066813031674071141 -0.066824401118340981 -0.066817399873300307 -0.066817723232916626 -0.066817729154741518 -0.066817734542711199 -0.066817736418675527 -0.066817736266941971
leaf_weight=0.94863054156303439 0.071062118280678765 0.27417864184826601 0.196462607011199 0.06461207615211606 0.085282294079661369 0.07185104675590992 0.066488422453403473 0.070899925427511334 0.07105195289477706 0.074438457610085607 0.094742561690509319 0.091360015561804175 0.071057792752981186
leaf_count=6 21 14 18 17 25 22 19 21 21 22 28 27 21
internal_value=0 -0.0671121 -0.0668857 -0.0668208 -0.066818 -0.0668171 -0.0668215 -0.0668177 -0.0668177 -0.0668177 -0.0668177 -0.0668177 -0.0668177
internal_weight=0 1.30349 1.02931 0.832847 0.768235 0.616464 0.151771 0.544613 0.473713 0.402661 0.331599 0.25716 0.162418
internal_count=282 276 262 244 227 183 44 161 140 119 98 76 48
is_linear=0
shrinkage=0.1


Tree=52
num_leaves=16
num_cat=0
split_feature=3 3 2 3 0 3 3 3 0 2 1 0 1 1 1
split_gain=1.70044 1.21469 0.577593 0.0278542 5.7575e-05 7.87048e-06 1.12497e-08 1.37849e-09 5.06892e-11 1.87184e-12 7.84928e-14 3.69704e-14 4.55191e-15 3.88578e-16 1.11022e-16
threshold=0.20600000000000002 -0.18999999999999997 0.14100000000000004 0.19850000000000004 0.10050000000000002 0.15950000000000003 0.13450000000000004 -0.05849999999999999 0.079500000000000015 0.097500000000000017 0.54950000000000021 0.031500000000000007 0.38250000000000006 0.42550000000000004 0.49950000000000006
decision_type=2 2 2 2 2 2 2 2 2 2 2 2 2 2 2
left_child=1 -1 3 4 5 6 7 -3 9 10 11 -9 -13 -14 -15
right_child=-2 2 -4 -5 -6 -7 -8 8 -10 -11 -12 12 13 14 -16
leaf_value=-0.074359933585495322 -0.073614194398430796 0.06724859837208759 -0.044739890410180568 0.097958414682817407 0.068526980454194614 0.06780828148607905 0.067263393080504441 0.067241126018269676 0.067239585003577643 0.06724079443985663 0.06724103214754408 0.067241073929504958 0.067241084490453268 0.06724108890723933 0.06724109002558834
leaf_weight=0.83480331301689137 1.923083961009979 0.25666592177003744 0.49414719641208638 0.32609662413597096 0.428090265020728 0.26973335538059462 0.26108205504715432 0.26681412942707705 0.26610714104026545 0.25396445766091336 0.25406717136502255 0.27949527744203795 0.26679547969251849 0.48277504928410053 0.31761575024574995
leaf_count=6 15 20 3 1 13 16 20 21 21 20 20 22 21 38 25
internal_value=0 0.0362771 0.0571568 0.0699712 0.0674383 0.0672916 0.0672436 0.0672416 0.0672409 0.067241 0.0672411 0.0672411 0.0672411 0.0672411 0.0672411
internal_weight=0 5.25825 4.42345 3.9293 3.60321 3.17512 2.90538 2.6443 2.38763 2.12153 1.86756 1.6135 1.34668 1.06719 0.800391
internal_count=282 267 261 258 257 244 228 208 188 167 147 127 106 84 63
is_linear=0
shrinkage=0.1


Tree=53
num_leaves=15
num_cat=0
split_feature=3 2 3 0 3 0 3 0 2 1 0 2 1 0
split_gain=2.10724 0.649762 0.02593 5.44517e-06 5.84181e-06 4.08079e-07 4.62511e-09 1.87528e-12 3.07088e-13 2.86438e-14 1.74305e-14 4.94049e-15 9.99201e-16 8.32667e-17
threshold=0.20600000000000002 0.14100000000000004 0.19850000000000004 0.11450000000000002 0.15950000000000003 0.090500000000000011 0.13450000000000004 0.074500000000000011 0.092500000000000013 0.54950000000000021 0.031500000000000007 0.048500000000000008 0.41850000000000004 0.05050000000000001
decision_type=2 2 2 2 2 2 2 2 2 2 2 2 2 2
left_child=1 2 3 4 5 6 7 8 9 10 -1 -12 -13 -14
right_child=-2 -3 -4 -5 -6 -7 -8 -9 -10 -11 11 12 13 -15
leaf_value=-0.067088127073743523 0.074225933656622764 0.05562669680012633 -0.097172679859363398 -0.067660163922179703 -0.06765210883370304 -0.067235885958298186 -0.067104322744083594 -0.067087804354335992 -0.067087957568948003 -0.06708805778654145 -0.06708808033203241 -0.06708809266845088 -0.067088101549222109 -0.06708809931841464
leaf_weight=0.19664626102894789 2.0580681413412094 0.47318900376558293 0.32307034730911244 0.22894640639424313 0.21211005188524712 0.21018438041210163 0.1924021029844879 0.29942378308624018 0.18720739614218462 0.18725142534822214 0.19662431441247463 0.2434467850252986 0.25281513947993517 0.29026881046593189
leaf_count=21 15 3 1 11 16 18 20 32 20 20 21 26 27 31
internal_value=0 -0.0533305 -0.0704003 -0.0671936 -0.0671504 -0.0671032 -0.0670896 -0.067088 -0.0670881 -0.0670881 -0.0670881 -0.0670881 -0.0670881 -0.0670881
internal_weight=0 3.49359 3.0204 2.69733 2.46838 2.25627 2.04609 1.85368 1.55426 1.36705 1.1798 0.983155 0.786531 0.543084
internal_count=282 267 264 263 252 236 218 198 166 146 126 105 84 58
is_linear=0
shrinkage=0.1


Tree=54
num_leaves=13
num_cat=0
split_feature=3 0 3 2 1 3 3 0 2 0 0 0
split_gain=0.974986 1.84455e-05 1.27023e-06 5.10553e-09 1.5891e-10 9.3436e-11 6.58669e-11 4.60409e-13 5.82867e-16 2.498e-16 5.55112e-17 2.77556e-17
threshold=-0.18999999999999997 0.10050000000000002 0.19850000000000004 0.11250000000000002 0.54950000000000021 0.13000000000000003 0.045500000000000006 0.076500000000000012 0.086500000000000007 0.033500000000000009 0.049500000000000009 0.062500000000000014
decision_type=2 2 2 2 2 2 2 2 2 2 2 2
left_child=-1 2 3 4 5 7 -6 8 9 -2 -11 -12
right_child=1 -3 -4 -5 6 -7 -8 -9 -10 10 11 -13
leaf_value=0.074478513728680182 -0.066798892215004693 -0.067838605202304017 -0.067102495779337148 -0.066830404164300625 -0.066800263215768096 -0.066794746544128078 -0.066804749865764165 -0.066798592807991303 -0.066798875650780173 -0.066798883762535385 -0.066798886973184368 -0.066798883777240872
leaf_weight=0.84497380256652843 0.062230895971879141 0.24446865357458591 0.1736539164558053 0.056597049813717604 0.074684623628854752 0.062907871557399631 0.058234246447682381 0.062088634585961699 0.059258944820612669 0.11556222243234515 0.1185278152115643 0.059262346476316452
leaf_count=6 21 14 18 17 25 22 19 21 20 39 40 20
internal_value=0 -0.067068 -0.0668594 -0.0668016 -0.0667991 -0.0667984 -0.0668022 -0.0667988 -0.0667989 -0.0667989 -0.0667989 -0.0667989
internal_weight=0 1.14748 0.903009 0.729355 0.672758 0.539839 0.132919 0.476931 0.414842 0.355583 0.293352 0.17779
internal_count=282 276 262 244 227 183 44 161 140 120 99 60
is_linear=0
shrinkage=0.1


Tree=55
num_leaves=16
num_cat=0
split_feature=3 3 2 3 0 3 3 3 0 2 1 0 0 0 0
split_gain=1.46751 1.04709 0.504781 0.017318 3.85994e-05 5.29225e-06 7.53664e-09 9.20271e-10 3.47486e-11 1.25322e-12 5.69544e-14 2.39808e-14 2.9976e-15 1.11022e-16 5.55112e-17
threshold=0.20600000000000002 -0.18999999999999997 0.14100000000000004 0.19850000000000004 0.10050000000000002 0.15950000000000003 0.13450000000000004 -0.05849999999999999 0.079500000000000015 0.097500000000000017 0.54950000000000021 0.031500000000000007 0.045500000000000006 0.052500000000000005 0.060500000000000005
decision_type=2 2 2 2 2 2 2 2 2 2 2 2 2 2 2
left_child=1 -1 3 4 5 6 7 -3 9 10 11 -9 -13 -14 -15
right_child=-2 2 -4 -5 -6 -7 -8 8 -10 -11 -12 12 13 14 -16
leaf_value=-0.073303792922196395 -0.07266590225072074 0.067175473518661322 -0.040552857293799066 0.092424728814993015 0.068292450926481368 0.067665536479573338 0.067188420116682329 0.067168952954130959 0.067167590951491427 0.067168663362543499 0.067168869297515379 0.067168909828113063 0.06716892167275236 0.067168920596987536 0.067168921108679211
leaf_weight=0.74110302329063404 1.7042214050889013 0.22490170225501227 0.4735792577266692 0.30153441429138172 0.37615114636719216 0.23660494666546572 0.22878245171159495 0.2337944917380822 0.233166811056435 0.22253440786153067 0.22262473870068777 0.33396430592983939 0.27830858342349529 0.31170561723411083 0.25604400876909494
leaf_count=6 15 20 3 1 13 16 20 21 21 20 20 30 25 28 23
internal_value=0 0.0357326 0.0562749 0.0695276 0.0673417 0.0672131 0.0671711 0.0671694 0.0671687 0.0671689 0.0671689 0.0671689 0.0671689 0.0671689 0.0671689
internal_weight=0 4.6748 3.9337 3.46012 3.15858 2.78243 2.54583 2.31704 2.09214 1.85898 1.63644 1.41382 1.18002 0.846058 0.56775
internal_count=282 267 261 258 257 244 228 208 188 167 147 127 106 76 51
is_linear=0
shrinkage=0.1


Tree=56
num_leaves=14
num_cat=0
split_feature=3 2 0 3 0 2 1 3 3 0 2 0 1
split_gain=1.82182 6.28557e-05 4.29898e-06 4.71168e-07 6.00033e-08 1.09734e-12 1.13243e-13 2.93099e-14 1.83187e-14 5.82867e-15 1.27676e-15 7.21645e-16 1.11022e-16
threshold=0.19850000000000004 0.12450000000000001 0.11450000000000002 0.14750000000000002 0.088500000000000009 0.10250000000000001 0.58450000000000013 -0.035499999999999997 0.10850000000000001 0.03450000000000001 0.080500000000000016 0.049500000000000009 0.48700000000000004
decision_type=2 2 2 2 2 2 2 2 2 2 2 2 2
left_child=1 2 3 4 5 6 7 -1 9 -9 11 -11 -13
right_child=-2 -3 -4 -5 -6 -7 -8 8 -10 10 -12 12 -14
leaf_value=-0.067035193170936744 0.054190216180022212 -0.068965776684054902 -0.067539500196591981 -0.067212838938447095 -0.067096559744442272 -0.067034955859121989 -0.067035151466015228 -0.06703525016186053 -0.067035267587026229 -0.067035226998790887 -0.067035221699683567 -0.067035232539485498 -0.067035235861716266
leaf_weight=0.16401862353086505 2.4963981434702873 0.19608452077954996 0.2016610438004135 0.17431900417432178 0.17585223261266936 0.1721094837412237 0.19679977931082238 0.16404325049370594 0.18045690003782511 0.22964744083583355 0.16403128113597631 0.26245778705924749 0.1640367703512311
leaf_count=20 18 8 11 19 19 21 24 20 22 28 20 32 20
internal_value=0 -0.0672487 -0.067099 -0.0670556 -0.067041 -0.0670352 -0.0670352 -0.0670352 -0.0670352 -0.0670352 -0.0670352 -0.0670352 -0.0670352
internal_weight=0 2.44552 2.24943 2.04777 1.87345 1.6976 1.52549 1.32869 1.16467 0.984217 0.820173 0.656142 0.426495
internal_count=282 264 256 245 226 207 186 162 142 120 100 80 52
is_linear=0
shrinkage=0.1


Tree=57
num_leaves=12
num_cat=0
split_feature=3 0 3 2 1 3 3 0 0 0 2
split_gain=0.850317 1.37885e-05 9.22221e-07 3.44961e-09 1.07319e-10 6.32707e-11 4.46707e-11 3.0892e-13 5.55112e-16 3.33067e-16 1.38778e-17
threshold=-0.18999999999999997 0.10050000000000002 0.19850000000000004 0.11250000000000002 0.54950000000000021 0.13000000000000003 0.045500000000000006 0.076500000000000012 0.059500000000000004 0.031500000000000007 0.058500000000000003
decision_type=2 2 2 2 2 2 2 2 2 2 2
left_child=-1 2 3 4 5 7 -6 8 9 -2 -11
right_child=1 -3 -4 -5 6 -7 -8 -9 -10 10 -12
leaf_value=0.073410641432848173 -0.066782397769684088 -0.067735197724887439 -0.067056388821014237 -0.066810071755555436 -0.066783594531568832 -0.066778748910476568 -0.066787542888043852 -0.066782132579469841 -0.066782381483302608 -0.066782387073950386 -0.06678238914934681
leaf_weight=0.75084346532821666 0.051898326957598107 0.21834101807326078 0.15537275141105056 0.049571142997592688 0.065398635342717171 0.055074970936402678 0.050999781116843224 0.054368125041946769 0.090810332447290421 0.051893566735088825 0.16865685163065791
leaf_count=6 20 14 18 17 25 22 19 21 35 20 65
internal_value=0 -0.0670314 -0.0668379 -0.0667847 -0.0667826 -0.0667819 -0.0667853 -0.0667824 -0.0667824 -0.0667824 -0.0667824
internal_weight=0 1.01239 0.794044 0.638672 0.589101 0.472702 0.116398 0.417627 0.363259 0.272449 0.22055
internal_count=282 276 262 244 227 183 44 161 140 105 85
is_linear=0
shrinkage=0.1


Tree=58
num_leaves=16
num_cat=0
split_feature=3 3 2 3 0 3 3 3 0 2 1 0 0 2 2
split_gain=1.29641 0.909468 0.456685 0.0156026 2.5866e-05 3.54617e-06 4.96577e-09 6.15455e-10 2.3562e-11 8.56093e-13 3.77476e-14 1.87628e-14 1.4988e-15 5.55112e-17 2.77556e-17
threshold=0.20600000000000002 -0.18999999999999997 0.14100000000000004 0.19850000000000004 0.10050000000000002 0.15950000000000003 0.13450000000000004 -0.05849999999999999 0.079500000000000015 0.097500000000000017 0.54950000000000021 0.031500000000000007 0.045500000000000006 0.072500000000000009 0.061500000000000006
decision_type=2 2 2 2 2 2 2 2 2 2 2 2 2 2 2
left_child=1 -1 3 4 5 6 7 -3 9 10 11 -9 -13 14 -14
right_child=-2 2 -4 -5 -6 -7 -8 8 -10 -11 -12 12 13 -15 -16
leaf_value=-0.072403959098106083 -0.071955486260352183 0.067111595446731676 -0.038599480067683517 0.091408232162153824 0.068087530811838243 0.067540020230237835 0.067122784697241103 0.067105901644050003 0.067104701513973478 0.067105644265684869 0.067105826664270368 0.067105862556788423 0.067105869787203787 0.06710587162151746 0.067105871291193053
leaf_weight=0.65664955973625172 1.5322235226631162 0.19703991990536618 0.44708156585693348 0.29611238837242115 0.3302975259721278 0.20744724478572596 0.20040615461766709 0.20482977014035064 0.20427598152309645 0.19496422633528698 0.19504361040890206 0.292589535936713 0.23407586850225925 0.29259487707167864 0.2145695211365819
leaf_count=6 15 20 3 1 13 16 20 21 21 20 20 30 24 30 22
internal_value=0 0.035615 0.0558155 0.0695909 0.0672571 0.0671445 0.0671078 0.0671063 0.0671057 0.0671058 0.0671059 0.0671059 0.0671059 0.0671059 0.0671059
internal_weight=0 4.16798 3.51133 3.06425 2.76813 2.43784 2.23039 2.02998 1.83294 1.62867 1.4337 1.23866 1.03383 0.74124 0.448645
internal_count=282 267 261 258 257 244 228 208 188 167 147 127 106 76 46
is_linear=0
shrinkage=0.1


Tree=59
num_leaves=15
num_cat=0
split_feature=3 2 3 0 3 0 3 0 2 0 1 2 1 3
split_gain=1.59616 0.514864 0.0145545 2.54935e-06 2.63362e-06 1.82012e-07 2.03178e-09 8.60756e-13 1.38001e-13 1.32672e-14 9.60343e-15 2.72005e-15 5.55112e-16 5.55112e-17
threshold=0.20600000000000002 0.14100000000000004 0.19850000000000004 0.11450000000000002 0.15950000000000003 0.090500000000000011 0.13450000000000004 0.074500000000000011 0.092500000000000013 0.031500000000000007 0.54950000000000021 0.048500000000000008 0.41850000000000004 0.055500000000000008
decision_type=2 2 2 2 2 2 2 2 2 2 2 2 2 2
left_child=1 2 3 4 5 6 7 8 9 -1 11 -11 -13 -14
right_child=-2 -3 -4 -5 -6 -7 -8 -9 -10 10 -12 12 13 -15
leaf_value=-0.066989048357042724 0.072415312004683569 0.049390269328455368 -0.090877113757855746 -0.067433076684504975 -0.067420976182615014 -0.067101693681765523 -0.067001301667393834 -0.066988796955976357 -0.066988916386548178 -0.066989008824966931 -0.06698899269885504 -0.066989019331390828 -0.06698902531001448 -0.066989026562759749
leaf_weight=0.15086178528145067 1.6443560644984243 0.42614395171403874 0.29315260052680958 0.1774792382493614 0.16300978790968645 0.16126961261034001 0.14757400145754207 0.22970815189182747 0.14362047007307399 0.15084431599825621 0.14365407871082425 0.18676587846130133 0.22268649376928806 0.19395303493365645
leaf_count=21 15 3 1 11 16 18 20 32 20 21 20 26 31 27
internal_value=0 -0.0517878 -0.0700221 -0.0670707 -0.0670367 -0.0670005 -0.0669901 -0.066989 -0.066989 -0.066989 -0.066989 -0.066989 -0.066989 -0.066989
internal_weight=0 2.79072 2.36458 2.07143 1.89395 1.73094 1.56967 1.42209 1.19239 1.04877 0.897904 0.75425 0.603405 0.41664
internal_count=282 267 264 263 252 236 218 198 166 146 125 105 84 58
is_linear=0
shrinkage=0.1


Tree=60
num_leaves=14
num_cat=0
split_feature=3 0 3 2 1 3 3 0 0 0 0 1 2
split_gain=0.741665 1.04211e-05 6.35042e-07 2.3286e-09 7.24425e-11 4.27582e-11 3.02181e-11 2.08084e-13 2.77556e-16 1.80411e-16 4.16334e-17 4.16334e-17 2.77556e-17
threshold=-0.18999999999999997 0.10050000000000002 0.19850000000000004 0.11250000000000002 0.54950000000000021 0.13000000000000003 0.045500000000000006 0.076500000000000012 0.064500000000000016 0.031500000000000007 0.047500000000000007 0.44450000000000006 0.07350000000000001
decision_type=2 2 2 2 2 2 2 2 2 2 2 2 2
left_child=-1 2 3 4 5 7 -6 8 9 -2 11 -11 -12
right_child=1 -3 -4 -5 6 -7 -8 -9 -10 10 12 -13 -14
leaf_value=0.072499602873383848 -0.066767954811324984 -0.067644447653923023 -0.067010127650809034 -0.066792252430948496 -0.066769005008958979 -0.066764750287715627 -0.066772475350511618 -0.066767723492558897 -0.066767941267141154 -0.066767944160644702 -0.066767949940327961 -0.066767948444687877 -0.06676794702759685
leaf_weight=0.66583576798439026 0.04544196161441505 0.19496142771095037 0.13715540338307619 0.043412912869825959 0.057263221126049757 0.048215227434411645 0.044660279294475913 0.047604372259229422 0.052250981330871582 0.047708818456158042 0.074974155053496361 0.049982537515461445 0.04770961357280612
leaf_count=6 20 14 18 17 25 22 19 21 23 21 33 22 21
internal_value=0 -0.0669982 -0.0668173 -0.06677 -0.0667681 -0.0667675 -0.0667705 -0.0667679 -0.0667679 -0.0667679 -0.0667679 -0.0667679 -0.0667679
internal_weight=0 0.891341 0.696379 0.559224 0.515811 0.413888 0.101924 0.365672 0.318068 0.265817 0.220375 0.0976914 0.122684
internal_count=282 276 262 244 227 183 44 161 140 117 97 43 54
is_linear=0
shrinkage=0.1


Tree=61
num_leaves=16
num_cat=0
split_feature=3 3 2 3 0 3 3 3 0 2 1 0 1 2 2
split_gain=1.12081 0.784064 0.401489 0.00984794 1.73377e-05 2.38278e-06 3.32766e-09 4.11313e-10 1.60651e-11 5.7343e-13 2.73115e-14 1.10467e-14 1.05471e-15 1.11022e-16 2.77556e-17
threshold=0.20600000000000002 -0.18999999999999997 0.14100000000000004 0.19850000000000004 0.10050000000000002 0.15950000000000003 0.13450000000000004 -0.05849999999999999 0.079500000000000015 0.097500000000000017 0.54950000000000021 0.031500000000000007 0.38250000000000006 0.071500000000000008 0.061500000000000006
decision_type=2 2 2 2 2 2 2 2 2 2 2 2 2 2 2
left_child=1 -1 3 4 5 6 7 -3 9 10 11 -9 -13 14 -14
right_child=-2 2 -4 -5 -6 -7 -8 8 -10 -11 -12 12 13 -15 -16
leaf_value=-0.071634462868725532 -0.071248285526188115 0.067055774025368067 -0.034757698976691946 0.087293214249931736 0.067908767423156755 0.0674308632439337 0.067065566558851972 0.067050800721248249 0.067049743608931178 0.067050576865537712 0.067050734956947022 0.067050766785841764 0.067050775600839871 0.067050774215572692 0.067050776838010251
leaf_weight=0.58085927367210421 1.353819854557514 0.1726052835583699 0.43084668368101109 0.27068585157394398 0.28994116280227888 0.18187181139364827 0.1755605787038802 0.1794294146820905 0.1789394887164234 0.17078689858317364 0.17085663601756085 0.18795725237578154 0.17941767070442438 0.33320342097431421 0.20504908170551062
leaf_count=6 15 20 3 1 13 16 20 21 21 20 20 22 21 39 24
internal_value=0 0.0350606 0.0548789 0.069202 0.0671832 0.0670847 0.0670524 0.0670511 0.0670506 0.0670507 0.0670508 0.0670508 0.0670508 0.0670508 0.0670508
internal_weight=0 3.70801 3.12715 2.6963 2.42562 2.13568 1.95381 1.77825 1.60564 1.4267 1.25591 1.08506 0.905627 0.71767 0.384467
internal_count=282 267 261 258 257 244 228 208 188 167 147 127 106 84 45
is_linear=0
shrinkage=0.1


Tree=62
num_leaves=14
num_cat=0
split_feature=3 2 0 3 0 3 0 2 1 0 2 1 0
split_gain=1.39126 8.98475e-05 1.98897e-06 1.94298e-07 5.05155e-08 1.86737e-11 5.65104e-13 8.41549e-14 8.88178e-15 5.77316e-15 1.44329e-15 3.60822e-16 2.77556e-17
threshold=0.19850000000000004 0.13050000000000003 0.11450000000000002 0.14750000000000002 0.090500000000000011 0.12250000000000001 0.074500000000000011 0.088500000000000009 0.54950000000000021 0.033500000000000009 0.048500000000000008 0.41850000000000004 0.051500000000000004
decision_type=2 2 2 2 2 2 2 2 2 2 2 2 2
left_child=1 2 3 4 5 6 7 8 9 -1 -11 -12 -13
right_child=-2 -3 -4 -5 -6 -7 -8 -9 -10 10 11 12 -14
leaf_value=-0.066948651632005113 0.051613783110904823 -0.069541680740025064 -0.067339320943813868 -0.067078009413952519 -0.067014802588194769 -0.066949864144270052 -0.066948433010108721 -0.066948542344658094 -0.066948603465425569 -0.066948618778714594 -0.066948626883333848 -0.066948633016976331 -0.066948632205103262
leaf_weight=0.12582541583105944 2.0466642379760742 0.15091225598007429 0.15608434658497561 0.13950745714828361 0.12666650814935554 0.12631673691794265 0.20116744935512532 0.13206642726436257 0.12580551067367196 0.13210224825888872 0.15097938664257526 0.15098215779289603 0.18243668228387833
leaf_count=20 18 5 11 20 17 20 32 21 20 21 24 24 29
internal_value=0 -0.0672005 -0.0669986 -0.0669653 -0.0669545 -0.0669487 -0.0669486 -0.0669486 -0.0669486 -0.0669486 -0.0669486 -0.0669486 -0.0669486
internal_weight=0 1.90085 1.74994 1.59386 1.45435 1.32768 1.20137 1.0002 0.868131 0.742326 0.6165 0.484398 0.333419
internal_count=282 264 259 248 228 211 191 159 138 118 98 77 53
is_linear=0
shrinkage=0.1


Tree=63
num_leaves=13
num_cat=0
split_feature=3 0 3 2 1 3 3 0 0 3 2 1
split_gain=0.648173 8.03084e-06 4.6111e-07 1.57065e-09 4.87987e-11 2.8903e-11 2.04281e-11 1.42913e-13 3.747e-16 2.22045e-16 1.249e-16 2.77556e-17
threshold=-0.18999999999999997 0.10050000000000002 0.19850000000000004 0.11250000000000002 0.54950000000000021 0.13000000000000003 0.045500000000000006 0.076500000000000012 0.031500000000000007 0.098500000000000018 0.048500000000000008 0.42850000000000005
decision_type=2 2 2 2 2 2 2 2 2 2 2 2
left_child=-1 2 3 4 5 7 -6 8 -2 10 -10 -12
right_child=1 -3 -4 -5 6 -7 -8 -9 9 -11 11 -13
leaf_value=0.071719653176998618 -0.066755318772288727 -0.06756968802176111 -0.066973892993470771 -0.066776639823697248 -0.066756234016758786 -0.06675250000905196 -0.066759283319440102 -0.066755111282678012 -0.066755304969316434 -0.066755301554270674 -0.066755309524340958 -0.066755311762443134
leaf_weight=0.58941784501075745 0.039786393288522959 0.17442948184907436 0.12272207904607058 0.038016763050109148 0.050136754754930735 0.042208212777040899 0.039105875417590141 0.041679573245346546 0.041770794196054339 0.039780024671927094 0.057685758452862501 0.099459249526262283
leaf_count=6 20 14 18 17 25 22 19 21 21 20 29 50
internal_value=0 -0.0669711 -0.0668006 -0.0667571 -0.0667555 -0.066755 -0.0667576 -0.0667553 -0.0667553 -0.0667553 -0.0667553 -0.0667553
internal_weight=0 0.786781 0.612351 0.489629 0.451613 0.36237 0.0892426 0.320162 0.278482 0.238696 0.198916 0.157145
internal_count=282 276 262 244 227 183 44 161 140 120 100 79
is_linear=0
shrinkage=0.1


Tree=64
num_leaves=16
num_cat=0
split_feature=3 3 2 3 0 3 3 3 0 2 1 0 1 1 1
split_gain=0.992743 0.681023 0.365328 0.0088918 1.16173e-05 1.59231e-06 2.19626e-09 2.75151e-10 1.08357e-11 3.89244e-13 1.7264e-14 8.16014e-15 7.77156e-16 5.55112e-17 2.77556e-17
threshold=0.20600000000000002 -0.18999999999999997 0.14100000000000004 0.19850000000000004 0.10050000000000002 0.15950000000000003 0.13450000000000004 -0.05849999999999999 0.079500000000000015 0.097500000000000017 0.54950000000000021 0.031500000000000007 0.38250000000000006 0.49950000000000006 0.46450000000000008
decision_type=2 2 2 2 2 2 2 2 2 2 2 2 2 2 2
left_child=1 -1 3 4 5 6 7 -3 9 10 11 -9 -13 14 -14
right_child=-2 2 -4 -5 -6 -7 -8 8 -10 -11 -12 12 13 -15 -16
leaf_value=-0.070974348635376078 -0.070721084176286683 0.067006987799511433 -0.03316250738267356 0.086534348250287885 0.06775248014647188 0.067334550009123958 0.067015461756328179 0.067002642872094328 0.067001714442939314 0.067002445170561198 0.067002585490924346 0.067002611961863565 0.067002618367363681 0.067002621110181543 0.067002619917884351
leaf_weight=0.51308852434158359 1.2159679457545278 0.15118379332125265 0.40751421451568592 0.26532012224197377 0.25438531301915634 0.15935983462259162 0.15375280566513527 0.15716044977307342 0.15672868955880392 0.14959025243297208 0.14965150970965624 0.16462989198043942 0.29184952238574624 0.18708386085927486 0.1496668066829443
leaf_count=6 15 20 3 1 13 16 20 21 21 20 20 22 39 25 20
internal_value=0 0.034932 0.0543536 0.0692735 0.0671184 0.0670322 0.0670041 0.0670029 0.0670025 0.0670026 0.0670026 0.0670026 0.0670026 0.0670026 0.0670026
internal_weight=0 3.31097 2.79788 2.39036 2.12504 1.87066 1.7113 1.55754 1.40636 1.24963 1.10004 0.950391 0.79323 0.6286 0.441516
internal_count=282 267 261 258 257 244 228 208 188 167 147 127 106 84 59
is_linear=0
shrinkage=0.1


Tree=65
num_leaves=14
num_cat=0
split_feature=3 2 3 0 3 0 3 0 2 1 0 2 1
split_gain=1.21214 0.41176 0.00830011 1.18139e-06 1.18273e-06 8.12295e-08 8.94558e-10 3.8447e-13 5.96745e-14 5.77316e-15 2.9976e-15 1.33227e-15 2.77556e-16
threshold=0.20600000000000002 0.14100000000000004 0.19850000000000004 0.11450000000000002 0.15950000000000003 0.090500000000000011 0.13450000000000004 0.074500000000000011 0.092500000000000013 0.54950000000000021 0.031500000000000007 0.048500000000000008 0.42550000000000004
decision_type=2 2 2 2 2 2 2 2 2 2 2 2 2
left_child=1 2 3 4 5 6 7 8 9 10 -1 -12 -13
right_child=-2 -3 -4 -5 -6 -7 -8 -9 -10 -11 11 12 -14
leaf_value=-0.066913333234827871 0.071070216078528717 0.043733442919596112 -0.086166023468770184 -0.067256797672137061 -0.067243674718108937 -0.06699925959718632 -0.066922620819165141 -0.066913144239663061 -0.066913236545200205 -0.066913293846506489 -0.06691330568427685 -0.066913314806821264 -0.066913319561074616
leaf_weight=0.11569302668795056 1.3077326864004133 0.38686233013868321 0.26263228058814991 0.13718263618648041 0.12514553172513831 0.12368341954424966 0.11315315961837757 0.17615828104317188 0.11013973550871015 0.11016543954610825 0.11567926593124866 0.16526254592463374 0.29747754707932472
leaf_count=21 15 3 1 11 16 18 20 32 20 20 21 30 54
internal_value=0 -0.0501002 -0.069697 -0.0669763 -0.0669498 -0.0669221 -0.0669142 -0.0669133 -0.0669133 -0.0669133 -0.0669133 -0.0669133 -0.0669133
internal_weight=0 2.23924 1.85237 1.58974 1.45256 1.32741 1.20373 1.09058 0.914418 0.804278 0.694112 0.578419 0.46274
internal_count=282 267 264 263 252 236 218 198 166 146 126 105 84
is_linear=0
shrinkage=0.1


Tree=66
num_leaves=13
num_cat=0
split_feature=3 0 3 2 1 3 3 0 0 2 2 1
split_gain=0.566318 6.2417e-06 3.16964e-07 1.05824e-09 3.29163e-11 1.94898e-11 1.38156e-11 9.43551e-14 2.77556e-16 1.249e-16 5.55112e-17 2.08167e-17
threshold=-0.18999999999999997 0.10050000000000002 0.19850000000000004 0.11250000000000002 0.54950000000000021 0.13000000000000003 0.045500000000000006 0.076500000000000012 0.031500000000000007 0.085500000000000007 0.048500000000000008 0.42250000000000004
decision_type=2 2 2 2 2 2 2 2 2 2 2 2
left_child=-1 2 3 4 5 7 -6 8 -2 10 -10 -12
right_child=1 -3 -4 -5 6 -7 -8 -9 9 -11 11 -13
leaf_value=0.071049968663722138 -0.066744255798715901 -0.067503004258136323 -0.066937344975205676 -0.066762958286831778 -0.066745057262168603 -0.066741781494287958 -0.066747737253003689 -0.066744074924951088 -0.066744243241553217 -0.066744240439665828 -0.06674424647090367 -0.0667442487988303
leaf_weight=0.52098441123962402 0.034832862205803394 0.15601219004020095 0.10824499139562249 0.033288632286712527 0.043894831673242152 0.036948343273252249 0.034240054083056748 0.036490254453383386 0.036570151103660464 0.034827453084290028 0.045278891804628074 0.09230089804623276
leaf_count=6 20 14 18 17 25 22 19 21 21 20 26 53
internal_value=0 -0.0669462 -0.0667844 -0.0667458 -0.0667444 -0.0667439 -0.0667462 -0.0667442 -0.0667442 -0.0667442 -0.0667442 -0.0667442
internal_weight=0 0.69293 0.536917 0.428672 0.395384 0.317249 0.0781349 0.280301 0.24381 0.208977 0.17415 0.13758
internal_count=282 276 262 244 227 183 44 161 140 120 100 79
is_linear=0
shrinkage=0.1


Tree=67
num_leaves=15
num_cat=0
split_feature=3 3 2 3 0 3 3 3 0 2 1 0 1 0
split_gain=0.859154 0.586778 0.32315 0.00567611 7.78557e-06 1.06932e-06 1.47162e-09 1.84079e-10 7.3429e-12 2.57849e-13 1.26565e-14 4.71845e-15 6.10623e-16 2.77556e-17
threshold=0.20600000000000002 -0.18999999999999997 0.14100000000000004 0.19850000000000004 0.10050000000000002 0.15950000000000003 0.13450000000000004 -0.05849999999999999 0.079500000000000015 0.097500000000000017 0.54950000000000021 0.031500000000000007 0.38250000000000006 0.055500000000000008
decision_type=2 2 2 2 2 2 2 2 2 2 2 2 2 2
left_child=1 -1 3 4 5 6 7 -3 9 10 11 -9 -13 -14
right_child=-2 2 -4 -5 -6 -7 -8 8 -10 -11 -12 12 13 -15
leaf_value=-0.070406550238867577 -0.070187327672052671 0.0669643422076696 -0.029667416704071609 0.083387777450592254 0.067616074667126561 0.067251098165406184 0.066971756906378313 0.066960544106148268 0.066959728843477673 0.066960373132191775 0.066960493772392535 0.066960518051650139 0.06696052498104578 0.066960525981102179
leaf_weight=0.45267212390899692 1.072009205818176 0.13240665709599886 0.39485445618629444 0.24046969413757313 0.22313646227121342 0.13965561287477601 0.13466039579361666 0.13764117704704426 0.13726021628826846 0.13101097987964749 0.13106474513188004 0.14418290881440043 0.32114126812666655 0.22938697133213282
leaf_count=6 15 20 3 1 13 16 20 21 21 20 20 22 49 35
internal_value=0 0.0343463 0.0533375 0.0689296 0.0670619 0.0669864 0.0669618 0.0669608 0.0669604 0.0669605 0.0669605 0.0669605 0.0669605 0.0669605
internal_weight=0 2.94954 2.49687 2.10202 1.86155 1.63841 1.49876 1.36409 1.23169 1.09443 0.963417 0.832352 0.694711 0.550528
internal_count=282 267 261 258 257 244 228 208 188 167 147 127 106 84
is_linear=0
shrinkage=0.1


Tree=68
num_leaves=14
num_cat=0
split_feature=3 2 0 3 0 1 0 2 0 3 3 0 1
split_gain=1.0698 0.000106843 9.16509e-07 8.73541e-08 2.25798e-08 8.3295e-12 3.97071e-13 1.05971e-13 2.94209e-15 1.83187e-15 1.02696e-15 8.32667e-17 1.38778e-17
threshold=0.19850000000000004 0.13050000000000003 0.11450000000000002 0.14750000000000002 0.090500000000000011 0.59900000000000009 0.074500000000000011 0.095000000000000015 0.031500000000000007 -0.019499999999999997 0.098500000000000018 0.049500000000000009 0.46450000000000008
decision_type=2 2 2 2 2 2 2 2 2 2 2 2 2
left_child=1 2 3 4 5 6 7 8 -1 -10 11 -11 -13
right_child=-2 -3 -4 -5 -6 -7 -8 -9 9 10 -12 12 -14
leaf_value=-0.06688245645865043 0.049414885590576579 -0.069831467569256622 -0.06718423186124732 -0.066981493248209928 -0.066932960712681067 -0.066883355073366568 -0.06688223932168301 -0.066882329713280425 -0.066882426142972282 -0.066882437614097554 -0.066882450478785618 -0.066882440593408393 -0.06688243927073817
leaf_weight=0.11095156753435753 1.6772268787026403 0.13922096323221911 0.12050437880679954 0.10697144619189192 0.097124112769961246 0.10168778616935015 0.1301176086999476 0.096423769369721413 0.096466680523007664 0.15917807770893022 0.096477021463215351 0.12541455822065473 0.10129638342186809
leaf_count=23 18 5 11 20 17 21 27 20 20 33 20 26 21
