tree
version=v4
num_class=4
num_tree_per_iteration=4
label_index=0
max_feature_idx=9
objective=multiclass num_class:4
feature_names=ARI Coleman Grade LexicalDensity LexicalDiversity Reading SentenceLength Smog Tree WordLength
feature_infos=[-9.7029999999999994:43.564] [-11.221:16.138000000000002] [-1.595:35.826999999999998] [0.40699999999999997:0.749] [0.20499999999999999:0.754] [-6.1619999999999999:123.593] [7.4169999999999998:87.382999999999996] [4.4500000000000002:18.399000000000001] [5.5:61.950000000000003] [2.2549999999999999:5.7140000000000004]
tree_sizes=936 933 1235 840 1270 1259 1366 1259 1272 1157 1260 1260 1374 1264 1262 1377 1274 1263 1158 1377 1270 1261 1255 1267 1264 1265 1361 1381 1257 1369 1366 1383 1258 1368 1265 1263 1270 1161 1351 1383 1373 1254 1366 1381 1265 1359 1263 1384 1166 1367 1472 1276 1251 1463 1370 1381 1581 1474 1472 1488 1485 1355 1366 1488 1370 1378 1361 1486 1593 1373 1158 1280 1379 1490 1362 1280 1378 1370 1472 1262 1275 1258 1381 1492 1608 1573 1579 1599 1471 1469 1489 1379 1687 1476 1482 1604 1609 1475 1478 1387 1701 1474 1384 1488 1707 1811 1264 1495 1899 1813 1381 1494 1506 1470 1378 1602 2232 1589 1707 1491 1915 1481 1281 1502 1610 1601 1380 1609 2342 1601 1389 1614 2025 1592 1274 1611 2032 1505 1390 1504 2031 1704 1391 1720 2130 1492 1064 1716 1612 1706 1277 1714 2140 1600 1388 1711 2033 1701 1594 1601 2043 1476 1717 1612 1613 1692 1714 1929 2142 1585 1380 1932 2353 1589 1601 1619 2276 1916 1604 1822 2043 1589 1371 2045 2265 1923 1599 1940 2045 1809 2144 2034 2143 1920 1610 2047 1618 2033 1926 2039 1722 1492 1388 1726 2028 2019 1390 1841 2366 1707 1611 1954 2263 1394 1619 1828 2273 1813 1842 1934 2051 1490 1835 1746 2051 1701 1604 1628 2156 1830 1836 1946 1715 1796 1722 1725 2168 1940 1700 2055 2490 1718 1503 1963 2926 1951 2167 1737 2138 1496 1723 2063 1954 1501 1618 2069 1830 1399 1743 2173 2168 1931 1405 1849 2268 1932 1723 1955 2134 1390 1403 1954 2832 1829 1630 1853 1835 1838 1303 2066 1845 1601 2075 1954 1932 1848 1512 1965 2168 1717 1527 1966 1743 1628 1516 2084 2280 1957 1511 2076 2289 1520 1298 2094 2510 1965 1846 1771 1612 1957 1843 2077 2830 1501 1535 1765 1947 2056 1965 2103 2281 1521 1512 2434 2295 1835 1861 1877 2415 1382 1303 2538 1523 1948 1408 1991 2758 1522 2295 2103 1745 1735 2205 1885 2079 1510 1520 1988 2184 1411 1412 2440 1637 1748 1740 1985 2750 1610 1852 2216 1981 1731 1538 2437 2086 1527 1755 2108 2856 1413 1636 2100 1520 1413 1427 2320 1857 1964 1423 1976 2547 2088 1638 2219 1959 1750 2210 2107 1861 1965 1752 2221 2757 1413 1427 1884 2191 1540 1864 1991

Tree=0
num_leaves=8
num_cat=0
split_feature=8 3 8 5 5 5 0
split_gain=104.362 11.2702 4.6384 11.4652 1.07486 0.781691 3.55271e-15
threshold=9.5600000000000023 0.52950000000000019 11.490000000000002 72.322000000000017 78.158000000000015 42.749500000000005 7.5600000000000005
decision_type=2 2 2 2 2 2 2
left_child=1 -1 3 -2 -5 -4 -7
right_child=2 -3 5 4 -6 6 -8
leaf_value=-1.4689821781613432 -1.5127729259696097 -1.2665014476999241 -1.6822488070977049 -1.6680310318352809 -1.7277456879374622 -1.727745687937462 -1.7277456879374622
leaf_weight=5.0238922834396345 4.1865769028663662 6.0705365091562271 4.3959057480096844 5.0238922834396345 7.5358384251594543 7.3265095800161388 19.46758259832859
leaf_count=24 20 29 21 24 36 35 93
internal_value=-1.63457 -1.35819 -1.69854 -1.65609 -1.70386 -1.72133 -1.72775
internal_weight=0 11.0944 47.9363 16.7463 12.5597 31.19 26.7941
internal_count=282 53 229 80 60 149 128
is_linear=0
shrinkage=1


Tree=1
num_leaves=8
num_cat=0
split_feature=8 8 8 7 3 8 3
split_gain=46.2333 27.6548 6.71835 16.8027 4.62646 1.95192 5.07126
threshold=11.825000000000001 9.5600000000000023 10.475000000000003 7.5290000000000008 0.52950000000000019 14.510000000000002 0.58550000000000002
decision_type=2 2 2 2 2 2 2
left_child=1 4 -3 -4 -1 6 -2
right_child=5 2 3 -5 -6 -7 -8
leaf_value=-1.334467147786393 -1.4659552317583684 -1.154536085508953 -1.4067855939709795 -1.1732882061433265 -1.4523530161750606 -1.4659552317583684 -1.3459008942187387
leaf_weight=6.0842013359069806 8.8727936148643476 9.6333187818527239 5.0701677799224836 7.8587600588798523 7.3517432808876038 20.78768789768219 5.8306929469108573
leaf_count=24 35 38 20 31 29 82 23
internal_value=-1.36524 -1.28539 -1.21775 -1.26486 -1.39897 -1.44623 -1.41835
internal_weight=0 35.9982 22.5622 12.9289 13.4359 35.4912 14.7035
internal_count=282 142 89 51 53 140 58
is_linear=0
shrinkage=1


Tree=2
num_leaves=11
num_cat=0
split_feature=8 8 2 8 4 8 5 6 0 0
split_gain=18.703 31.3243 15.4602 13.7825 12.6985 3.25784 1.15436 0.154389 1.77636e-15 1.77636e-15
threshold=10.475000000000003 14.665000000000001 6.6730000000000009 11.825000000000001 0.53850000000000009 16.330000000000002 87.255500000000026 13.658000000000001 4.6855000000000002 14.275500000000003
decision_type=2 2 2 2 2 2 2 2 2 2
left_child=6 2 -2 -4 -5 -3 7 8 -1 -7
right_child=1 5 3 4 -6 9 -8 -9 -10 -11
leaf_value=-1.5953476907625912 -1.271130451976143 -1.5013716795201426 -1.563326235079979 -1.4551456415576407 -1.2495159693903799 -1.5953476907625912 -1.5335920262318392 -1.573733208176828 -1.5953476907625912 -1.5953476907625912
leaf_weight=6.4771388173103386 7.4024443626403835 5.3205068856477764 6.245812430977824 8.5590762943029386 4.6265277266502371 7.1711179763078672 4.8578541129827491 4.6265277266502371 5.0891804993152618 4.8578541129827499
leaf_count=28 32 23 27 37 20 31 21 20 22 21
internal_value=-1.49877 -1.46181 -1.39411 -1.44096 -1.38299 -1.56653 -1.57635 -1.58917 -1.59535 -1.59535
internal_weight=0 44.1833 26.8339 19.4314 13.1856 17.3495 21.0507 16.1928 11.5663 12.029
internal_count=282 191 116 84 57 75 91 70 50 52
is_linear=0
shrinkage=1


Tree=3
num_leaves=7
num_cat=0
split_feature=8 8 5 6 0 0
split_gain=130.312 13.1234 14.3342 5.76166 0.140323 1.42109e-14
threshold=13.220000000000001 16.330000000000002 57.246500000000005 17.216500000000003 2.7620000000000005 13.368000000000002
decision_type=2 2 2 2 2 2
left_child=3 2 -2 4 -1 -3
right_child=1 5 -4 -5 -6 -7
leaf_value=-1.2151863272189853 -1.1222480136376769 -0.89022718882280172 -0.92813908830235659 -1.1319155480049634 -1.2314342841387946 -0.89022718882280172
leaf_weight=6.1546199619770041 7.326928526163103 6.4476971030235282 7.9130828082561493 7.0338513851165763 38.979259759187698 8.7923142313957197
leaf_count=21 25 22 27 24 133 30
internal_value=-1.12012 -0.955844 -1.02146 -1.2161 -1.22922 -0.890227
internal_weight=0 30.48 15.24 52.1677 45.1339 15.24
internal_count=282 104 52 178 154 52
is_linear=0
shrinkage=1


Tree=4
num_leaves=11
num_cat=0
split_feature=8 5 8 5 5 6 8 1 2 2
split_gain=72.7528 6.18768 3.30085 8.49283 0.789503 0.155 0.000161953 0.000132556 1.49284e-05 2.86874e-05
threshold=9.6900000000000013 82.858000000000018 11.490000000000002 73.336000000000013 42.749500000000005 14.233500000000001 12.615000000000002 9.7150000000000016 8.0315000000000012 9.7775000000000016
decision_type=2 2 2 2 2 2 2 2 2 2
left_child=1 -1 3 -2 -4 -5 -6 8 -8 -10
right_child=2 -3 4 5 6 -7 7 -9 9 -11
leaf_value=0.26486213641339595 0.075776057260760227 0.13424099615858839 -0.044117371528159199 -0.066012502055529637 -0.09151896426155634 -0.091617304973778776 -0.090890924129121656 -0.091307637916133583 -0.090470663235991053 -0.090829595073542074
leaf_weight=6.5551249235868445 5.2757508754730216 8.1177218258380872 4.19053487479687 3.9306638091802579 5.7161500751972225 5.9325200766324997 4.2291394174098995 5.8625317662954322 4.1566023081541044 4.795966312289238
leaf_count=26 24 33 21 20 29 30 22 30 22 25
internal_value=0 0.192596 -0.0644724 -0.0266346 -0.0842585 -0.0814133 -0.0910521 -0.090912 -0.0907361 -0.0906629
internal_weight=0 14.6728 44.0899 15.1389 28.9509 9.86318 24.7604 19.0442 13.1817 8.95257
internal_count=282 59 223 74 149 50 128 99 69 47
is_linear=0
shrinkage=0.1


Tree=5
num_leaves=11
num_cat=0
split_feature=8 6 3 1 5 8 3 8 8 5
split_gain=37.2641 20.4481 4.05144 3.12292 2.67726 1.86194 4.63857 1.68195 0.000342704 8.23249e-06
threshold=11.825000000000001 12.583500000000003 0.52950000000000019 4.8745000000000003 72.054500000000004 14.510000000000002 0.58550000000000002 10.475000000000003 16.330000000000002 45.163000000000004
decision_type=2 2 2 2 2 2 2 2 2 2
left_child=1 2 -1 -3 -5 6 -2 -6 -7 -10
right_child=5 3 -4 4 7 8 -8 -9 9 -11
leaf_value=0.018854635426425986 -0.097504284582003609 0.052937511376013761 -0.098527446927101137 0.082686251762489837 0.18910061988104951 -0.097695906357248244 0.018867457615971528 0.11755450739819587 -0.09671717660798812 -0.096886775974961162
leaf_weight=5.7594636678695661 8.2725771814584714 5.7567388713359859 6.0073528289794922 6.3452468216419247 8.4146417677402479 7.1236329078674343 5.8455482125282279 5.3908357471227637 4.6432369202375394 7.4610991477966309
leaf_count=22 35 22 25 23 30 30 23 20 20 32
internal_value=0 0.0682441 -0.0410728 0.117894 0.136451 -0.0768976 -0.0493211 0.161163 -0.0971456 -0.0968217
internal_weight=0 37.6743 11.7668 25.9075 20.1507 33.3461 14.1181 13.8055 19.228 12.1043
internal_count=282 142 47 95 73 140 58 50 82 52
is_linear=0
shrinkage=0.1


Tree=6
num_leaves=12
num_cat=0
split_feature=6 8 2 8 4 5 8 3 7 6 5
split_gain=16.4303 25.9026 11.2961 10.4698 8.75104 5.15734 2.91751 1.98535 0.170223 0.00263906 5.03255e-06
threshold=14.658500000000002 14.665000000000001 6.6730000000000009 11.490000000000002 0.53850000000000009 70.281500000000008 16.330000000000002 0.49650000000000005 6.4195000000000011 13.658000000000001 45.163000000000004
decision_type=2 2 2 2 2 2 2 2 2 2 2
left_child=7 2 -2 -4 5 -5 -3 -1 -9 -10 -8
right_child=1 6 3 4 -6 -7 10 8 9 -11 -12
leaf_value=-0.017750613416466537 0.19842722329509732 -0.0035388607381671581 -0.073547442235404534 0.11286846807263469 0.19977208618444064 -0.034517122452233477 -0.093433506640183017 -0.072318413114874927 -0.094161684604931753 -0.097229937551063184 -0.093572542634306199
leaf_weight=5.1444185674190548 7.622143059968951 5.3564051687717464 4.7904176563024548 4.7492381781339628 5.2805624902248374 4.7475236356258392 4.2230612039566022 4.4052410870790508 7.1286606788635236 4.6200804859399796 6.7877283096313477
leaf_count=23 29 23 22 20 20 20 20 20 33 20 32
internal_value=0 0.0353219 0.0951529 0.0549248 0.0965721 0.039189 -0.0640718 -0.071853 -0.0890825 -0.0953682 -0.0935192
internal_weight=0 43.5571 27.1899 19.5677 14.7773 9.49676 16.3672 21.2984 16.154 11.7487 11.0108
internal_count=282 186 111 82 60 40 75 96 73 53 52
is_linear=0
shrinkage=0.1


Tree=7
num_leaves=11
num_cat=0
split_feature=8 8 9 6 3 9 8 7 3 7
split_gain=101.326 8.84283 11.127 5.26282 0.301534 0.150486 0.00237717 0.000467552 0.000121605 3.18337e-05
threshold=13.220000000000001 15.585000000000003 4.7760000000000007 17.216500000000003 0.62850000000000017 4.4195000000000002 18.375000000000004 7.5290000000000008 0.5355000000000002 6.6995000000000013
decision_type=2 2 2 2 2 2 2 2 2 2
left_child=3 2 -2 5 6 7 -3 8 9 -1
right_child=1 4 -4 -5 -6 -7 -8 -9 -10 -11
leaf_value=-0.10623449587707721 0.15708254427636512 0.18995527490450359 -0.028004867127991273 -0.0096649261681555632 0.16197017779424183 -0.088874839743840264 0.18725919604264632 -0.1053817720637952 -0.10590105667473092 -0.10653019437707692
leaf_weight=9.685954302549364 7.2034232914447767 6.3681879639625567 5.9152655899524689 6.9555078446865073 6.3181326985359183 6.0243009328842154 6.7228271663188934 10.662277251482008 10.193340271711348 5.8333626091480246
leaf_count=35 23 20 20 24 20 22 21 39 37 21
internal_value=0 0.137046 0.0736259 -0.090288 0.179912 -0.103514 0.188571 -0.105939 -0.106169 -0.106346
internal_weight=0 32.5278 13.1187 49.3547 19.4091 42.3992 13.091 36.3749 25.7127 15.5193
internal_count=282 104 43 178 61 154 41 132 93 56
is_linear=0
shrinkage=0.1


Tree=8
num_leaves=11
num_cat=0
split_feature=8 3 6 5 1 6 8 8 5 2
split_gain=55.4386 4.15624 4.12761 8.20779 1.94892 3.83563 0.00539491 0.00054113 0.000179686 1.92448e-05
threshold=9.5600000000000023 0.52950000000000019 14.950000000000001 78.158000000000015 9.943500000000002 21.842000000000002 11.490000000000002 13.075000000000001 59.411500000000011 9.0675000000000026
decision_type=2 2 2 2 2 2 2 2 2 2
left_child=1 -1 3 -2 6 -6 -4 -8 -9 -10
right_child=2 -3 4 -5 5 -7 7 8 9 -11
leaf_value=0.10372632329216039 0.092400661206045454 0.21055414660325053 -0.092595866774621324 -0.090309771226179739 0.041422290266988737 -0.090088695674457306 -0.089916781887281805 -0.089348113092506162 -0.088344337472166246 -0.088656315287948206
leaf_weight=6.2953415513038626 4.7949028313159925 8.6406510770320875 6.1913800388574627 5.046173095703125 3.777149096131323 5.3717878609895706 6.2491017729043987 3.5856340378522855 4.0980903655290604 3.8207179456949234
leaf_count=24 22 29 31 27 20 29 34 20 24 22
internal_value=0 0.165528 -0.0581458 -0.00128711 -0.0750537 -0.0357942 -0.0900541 -0.0891677 -0.0887608 -0.0884949
internal_weight=0 14.936 42.9349 9.84108 33.0939 9.14894 23.9449 17.7535 11.5044 7.91881
internal_count=282 53 229 49 180 49 131 100 66 46
is_linear=0
shrinkage=0.1


Tree=9
num_leaves=10
num_cat=0
split_feature=8 6 5 5 5 6 3 8 3
split_gain=30.4069 15.5324 3.68923 2.34086 2.62737 1.80079 4.66845 0.00324965 9.18531e-05
threshold=11.825000000000001 12.583500000000003 85.016000000000005 80.391500000000022 72.054500000000004 20.641500000000004 0.58550000000000002 15.585000000000003 0.6130000000000001
decision_type=2 2 2 2 2 2 2 2 2
left_child=1 2 -1 4 -3 6 -2 -7 -9
right_child=5 3 -4 -5 -6 7 -8 8 -10
leaf_value=-0.098178684788610471 -0.094890623510111016 0.071469232394383173 0.015560281226025525 0.060059382302372413 0.15084525032963614 -0.096868430997585284 0.023225716628963469 -0.093548357625114445 -0.094094241297059733
leaf_weight=5.433634862303732 8.1220194846391696 6.6097817718982759 6.0017530769109726 9.4636270403861982 11.297739565372465 4.5972569137811687 5.690746158361434 7.6298155933618528 5.1718530654907227
leaf_count=23 37 23 24 34 38 20 23 36 24
internal_value=0 0.0593948 -0.0384839 0.100288 0.121547 -0.073186 -0.0462277 -0.0945879 -0.0937689
internal_weight=0 38.8065 11.4354 27.3711 17.9075 31.2117 13.8128 17.3989 12.8017
internal_count=282 142 47 95 61 140 60 80 60
is_linear=0
shrinkage=0.1


Tree=10
num_leaves=11
num_cat=0
split_feature=6 8 2 8 4 8 3 7 8 2
split_gain=14.0834 20.3291 7.87495 7.40512 8.1903 2.67817 1.89268 0.16404 0.00308153 6.47629e-06
threshold=14.658500000000002 14.665000000000001 6.7700000000000005 11.825000000000001 0.5335000000000002 16.330000000000002 0.49650000000000005 6.4195000000000011 9.8250000000000011 13.331500000000002
decision_type=2 2 2 2 2 2 2 2 2 2
left_child=6 2 -2 -4 -5 -3 -1 -8 -9 -7
right_child=1 5 3 4 -6 9 7 8 -10 -11
leaf_value=-0.015915951633781202 0.15741774759775307 -0.0033130663353762666 -0.055570904828947901 0.010802323776370729 0.16482159246587139 -0.091029698137097242 -0.069821458451851934 -0.091648798515369237 -0.095059436892492105 -0.090865838563591372
leaf_weight=5.058405905961993 9.3481235355138796 5.3425156921148291 5.2619930952787426 7.2862353324890119 6.562129944562912 5.99662898480892 4.205407738685607 6.3342533558607084 4.5533663183450699 4.0350500792264938
leaf_count=23 33 23 25 30 23 31 20 32 21 21
internal_value=0 0.0321499 0.0822052 0.0454139 0.0837853 -0.0605053 -0.0688539 -0.0865959 -0.0930752 -0.0909638
internal_weight=0 43.8327 28.4585 19.1104 13.8484 15.3742 20.1514 15.093 10.8876 10.0317
internal_count=282 186 111 78 53 75 96 73 53 52
is_linear=0
shrinkage=0.1


Tree=11
num_leaves=11
num_cat=0
split_feature=8 8 6 6 9 3 8 2 8 6
split_gain=80.7789 6.71368 4.86836 1.50019 0.152579 0.0150986 0.00093672 0.00107646 0.000352794 0.000188697
threshold=13.220000000000001 14.665000000000001 17.216500000000003 23.325000000000003 4.4195000000000002 0.6130000000000001 11.460000000000003 4.4830000000000014 9.615000000000002 14.950000000000001
decision_type=2 2 2 2 2 2 2 2 2 2
left_child=2 -2 4 -3 6 -5 7 -1 -9 -10
right_child=1 3 -4 5 -6 -7 -8 8 9 -11
leaf_value=-0.10232718882098274 0.044154650147453331 0.10957872326175278 -0.0079131562331987079 0.15979729551573174 -0.083831551900982598 0.16592032968635703 -0.10280243106229592 -0.10030323938670389 -0.10152176576376125 -0.10079670846032492
leaf_weight=8.08857509493828 8.9865665733814222 7.9827448725700405 6.8809465765953055 9.6299979686737078 5.6540057808160773 6.9219169318675986 5.2490364313125601 5.7807275950908688 8.7453629672527295 6.0881585329771033
leaf_count=31 29 25 24 29 22 21 20 23 34 24
internal_value=0 0.1181 -0.0855526 0.145185 -0.0990413 0.162358 -0.101574 -0.10135 -0.100966 -0.101224
internal_weight=0 33.5212 46.4868 24.5347 39.6059 16.5519 33.9519 28.7028 20.6142 14.8335
internal_count=282 104 178 75 154 50 132 112 81 58
is_linear=0
shrinkage=0.1


Tree=12
num_leaves=12
num_cat=0
split_feature=8 8 5 8 5 5 4 8 1 5 5
split_gain=43.8684 4.53115 9.21951 2.15617 4.31077 0.874975 0.141444 0.000743622 0.000611453 6.14402e-05 1.67626e-05
threshold=9.7750000000000004 8.2850000000000019 81.113500000000016 11.490000000000002 73.336000000000013 42.749500000000005 0.5505000000000001 13.075000000000001 9.7150000000000016 74.540000000000006 70.507500000000007
decision_type=2 2 2 2 2 2 2 2 2 2 2
left_child=1 -1 -3 4 -2 -5 -6 9 10 -7 -9
right_child=3 2 -4 5 6 7 -8 8 -10 -11 -12
leaf_value=0.19237093145984807 0.042708473924457112 0.16939958734904925 -0.0033925230323232462 -0.03517011067989511 -0.088366387451692008 -0.088389237451166502 -0.061336799416018141 -0.086856964855204 -0.088347199917293312 -0.088978755371364238 -0.087139526824501878
leaf_weight=6.4153791964054134 5.0268759280443174 6.6247958093881589 5.7837183028459549 3.7060965150594738 4.2428478449583054 3.5589219480752972 3.5607738047838211 6.1172307729721052 4.7596258372068396 3.512992799282074 3.1965911835432053
leaf_count=21 22 23 22 21 25 21 20 39 28 20 20
internal_value=0 0.124137 0.0888597 -0.0628022 -0.029511 -0.07999 -0.0760329 -0.0878455 -0.0874251 -0.0886821 -0.0869539
internal_weight=0 18.8239 12.4085 37.682 12.8305 24.8515 7.80362 21.1454 14.0734 7.07191 9.31382
internal_count=282 66 45 216 67 149 45 128 87 41 59
is_linear=0
shrinkage=0.1


Tree=13
num_leaves=11
num_cat=0
split_feature=8 6 8 8 7 8 3 8 6 2
split_gain=24.7929 12.2426 3.27534 2.87072 9.40784 1.78564 4.2678 0.0016636 6.28274e-05 4.06139e-06
threshold=11.825000000000001 10.692000000000002 9.5600000000000023 10.475000000000003 7.5290000000000008 14.510000000000002 0.58550000000000002 15.585000000000003 24.375000000000004 13.331500000000002
decision_type=2 2 2 2 2 2 2 2 2 2
left_child=1 -1 -3 -4 -5 6 -2 -7 -9 -10
right_child=5 2 3 4 -6 7 -8 8 9 -11
leaf_value=-0.097255719797865625 -0.092970043367190239 0.015615262131667661 0.12572049516523193 -0.046994697604092542 0.11889091805555599 -0.093356334792816242 0.022768827128572113 -0.091401245619923993 -0.090981378898114307 -0.090837859113544056
leaf_weight=4.8226316571235648 7.2122444510459918 7.7763426005840293 11.995964050292971 5.2990805953741065 9.6349174380302411 4.3774155974388149 5.7071025967597961 3.922505244612692 4.0543196201324463 3.8385578393936157
leaf_count=21 35 32 38 20 31 21 23 20 21 20
internal_value=0 0.0520382 0.0727834 0.0892914 0.0600292 -0.0695694 -0.0418426 -0.0916911 -0.0910741 -0.0909116
internal_weight=0 39.5289 34.7063 26.93 14.934 29.1121 12.9193 16.1928 11.8154 7.89288
internal_count=282 142 121 89 51 140 58 82 61 41
is_linear=0
shrinkage=0.1


Tree=14
num_leaves=11
num_cat=0
split_feature=8 8 5 8 6 1 5 8 1 2
split_gain=12.6042 15.3438 8.83897 7.23497 5.96942 7.68724 1.51121 1.05581 0.00130031 7.14338e-06
threshold=10.260000000000002 16.330000000000002 80.158000000000015 11.825000000000001 18.966500000000003 10.691000000000001 87.255500000000026 11.165000000000001 5.729000000000001 13.331500000000002
decision_type=2 2 2 2 2 2 2 2 2 2
left_child=6 2 3 7 -5 -6 8 -2 -1 -3
right_child=1 9 -4 4 5 -7 -8 -9 -10 -11
leaf_value=-0.092152919687419343 -0.074124202319677673 -0.088839007246619597 0.16772637106057059 0.12147349591450129 -0.053841620205112128 0.10851787762055057 -0.021855505599785635 -0.005273374635509212 -0.090097151618577787 -0.088658120358245052
leaf_weight=6.9694159626960772 4.6500844508409518 5.4353126883506757 5.9685420691967002 10.237081021070482 6.6629711240529996 5.1858991980552673 4.1932900696992865 4.2747074663639069 5.5087363719940186 3.6487661898136139
leaf_count=35 22 31 20 36 28 20 20 19 30 21
internal_value=0 0.0276803 0.0562858 0.0348371 0.0655417 0.0172183 -0.0737921 -0.0411467 -0.0912454 -0.0887664
internal_weight=0 46.0634 36.9793 31.0107 22.086 11.8489 16.6714 8.92479 12.4782 9.08408
internal_count=282 197 145 125 84 48 85 41 65 52
is_linear=0
shrinkage=0.1


Tree=15
num_leaves=12
num_cat=0
split_feature=6 8 6 1 6 6 8 2 2 6 5
split_gain=65.4256 7.83421 5.92412 0.564392 0.173976 0.0752161 0.00356277 0.000837029 0.000656589 0.000696497 0.000530255
threshold=18.966500000000003 14.665000000000001 17.216500000000003 10.795000000000002 10.692000000000002 24.375000000000004 11.650000000000002 4.9025000000000007 6.7700000000000005 14.550000000000002 77.702000000000012
decision_type=2 2 2 2 2 2 2 2 2 2 2
left_child=2 -2 4 5 -1 -3 7 -6 9 10 -9
right_child=1 3 -4 -5 6 -7 -8 8 -10 -11 -12
leaf_value=-0.0782918226597758 0.026588222794426464 0.15477827243321843 0.0010092147997266103 0.11196294699766347 -0.098827696844288493 0.14120114097402101 -0.10059546359580623 -0.096871599916657891 -0.098394403817785192 -0.096147609075769302 -0.098332502261147481
leaf_weight=5.0401662886142722 8.819461375474928 6.6244059801101747 7.6623387634754172 6.5644700229167929 6.0851650834083584 10.624558269977568 5.4905314892530432 4.8816815316677111 5.7916680276393881 4.7935594320297232 5.0595895797014236
leaf_count=21 29 20 26 20 25 32 22 21 24 21 21
internal_value=0 0.1071 -0.0790487 0.136918 -0.0955643 0.146415 -0.0982762 -0.0977977 -0.0974923 -0.0971377 -0.0976151
internal_weight=0 32.6329 44.8047 23.8134 37.1424 17.249 32.1022 26.6117 20.5265 14.7348 9.94127
internal_count=282 101 181 72 155 52 134 112 87 63 42
is_linear=0
shrinkage=0.1


Tree=16
num_leaves=11
num_cat=0
split_feature=8 3 8 5 1 9 8 1 5 8
split_gain=34.8911 3.3418 2.08757 3.90969 1.03051 0.146399 0.000750076 0.000376304 9.24198e-05 4.64445e-05
threshold=9.7750000000000004 0.52950000000000019 11.490000000000002 73.336000000000013 11.219500000000002 4.1475000000000009 13.075000000000001 9.7150000000000016 74.540000000000006 14.985000000000001
decision_type=2 2 2 2 2 2 2 2 2 2
left_child=1 -1 3 -2 6 -5 8 9 -4 -8
right_child=2 -3 4 5 -6 -7 7 -9 -10 -11
leaf_value=0.055885385486580279 0.0403429041029289 0.14029568785630225 -0.086908465003849522 -0.059710529497094433 -0.024931718539716305 -0.088061928943275053 -0.085893293654084546 -0.086763619692180272 -0.087669925346294406 -0.085432797256916257
leaf_weight=7.8043600022792843 5.0913733989000303 11.753967359662054 3.1059015691280427 3.6457369774580002 3.1654579043388358 3.6395912021398544 3.6745376884937269 4.1956548839807501 3.2742763161659241 5.4218754023313522
leaf_count=28 22 38 20 23 19 22 25 27 20 38
internal_value=0 0.106613 -0.0599629 -0.026889 -0.077887 -0.0738743 -0.086408 -0.0859802 -0.0872992 -0.0856188
internal_weight=0 19.5583 35.2144 12.3767 22.8377 7.28533 19.6722 13.2921 6.38018 9.09641
internal_count=282 66 216 67 149 45 130 90 40 63
is_linear=0
shrinkage=0.1


Tree=17
num_leaves=11
num_cat=0
split_feature=8 6 6 6 3 0 0 4 8 3
split_gain=20.3644 9.48389 2.30009 1.75716 4.32407 1.52889 2.73187 2.80431 0.00504212 4.15615e-05
threshold=11.825000000000001 12.141500000000002 10.692000000000002 20.641500000000004 0.58550000000000002 4.7275000000000009 6.0635000000000003 0.5525000000000001 15.585000000000003 0.6130000000000001
decision_type=2 2 2 2 2 2 2 2 2 2
left_child=1 2 -1 4 -2 -3 7 -7 -5 -10
right_child=3 5 -4 8 -6 6 -8 -9 9 -11
leaf_value=-0.094616031247403587 -0.09092277558632908 0.11475857243723085 0.0058683153098244983 -0.092907699628594298 0.027136062339610287 -0.014275464695229346 0.09851377089100026 0.078293670776235127 -0.088585917387017807 -0.088991833596077458
leaf_weight=4.4583744257688505 7.0336208790540713 6.7970799505710628 4.6578669250011444 4.043829694390296 5.5506670475006104 6.7830095887184161 10.684011548757551 6.3235396444797516 6.2318861782550794 4.237667128443718
leaf_count=21 37 23 19 20 23 24 34 21 36 24
internal_value=0 0.0462501 -0.0432744 -0.0661965 -0.0388495 0.0729317 0.0609815 0.0303865 -0.0899086 -0.0887502
internal_weight=0 39.7039 9.11624 27.0977 12.5843 30.5876 23.7906 13.1065 14.5134 10.4696
internal_count=282 142 40 140 60 102 79 45 80 60
is_linear=0
shrinkage=0.1


Tree=18
num_leaves=10
num_cat=0
split_feature=8 8 5 6 4 0 5 1 3
split_gain=10.7537 12.5368 6.49494 5.83771 3.69739 4.87967 1.47357 0.00146579 6.06575e-06
threshold=10.260000000000002 16.330000000000002 80.158000000000015 16.058500000000006 0.51350000000000018 8.5655000000000019 87.255500000000026 5.729000000000001 0.60550000000000004
decision_type=2 2 2 2 2 2 2 2 2
left_child=6 2 3 -2 -5 -6 7 -1 -3
right_child=1 8 -4 4 5 -7 -8 -9 -10
leaf_value=-0.09036383975347162 -0.052900678061833184 -0.086798790752995542 0.14259909551335456 -0.0018954466955324403 0.14263927112145899 0.033081019742548678 -0.019465834594261003 -0.088081632441477486 -0.086975613605847879
leaf_weight=6.473290950059889 6.5364861488342312 5.0108789056539518 6.2782772779464713 8.1194532364606875 7.1657375991344479 9.396127909421919 4.0931599289178839 4.9787425100803375 3.1656518280506134
leaf_count=35 30 32 20 33 25 37 20 30 20
internal_value=0 0.0253276 0.0497932 0.0311289 0.0533828 0.080483 -0.070965 -0.0893717 -0.0868673
internal_weight=0 45.6726 37.4961 31.2178 24.6813 16.5619 15.5452 11.452 8.17653
internal_count=282 197 145 125 95 62 85 65 52
is_linear=0
shrinkage=0.1


Tree=19
num_leaves=12
num_cat=0
split_feature=8 9 8 6 9 6 8 2 8 0 6
split_gain=53.7811 5.08313 7.81509 4.20399 0.756135 0.171503 0.00123784 0.0010343 0.000538016 0.000188824 0.000491667
threshold=13.220000000000001 4.8625000000000007 16.115000000000006 17.216500000000003 4.3655000000000008 10.692000000000002 11.650000000000002 4.9025000000000007 9.740000000000002 6.3825000000000012 14.658500000000002
decision_type=2 2 2 2 2 2 2 2 2 2 2
left_child=3 4 -3 5 -2 -1 7 -7 -9 10 -10
right_child=1 2 -4 -5 -6 6 -8 8 9 -11 -12
leaf_value=-0.074522347794146224 0.1400803163284142 -0.038809080835663194 0.1188982074660619 -0.0059085424660683256 0.10167302806871426 -0.09594192806318691 -0.096509907533347122 -0.09346495240808296 -0.095080873220787329 -0.095245567079803084 -0.093650924525732496
leaf_weight=4.7273625880479804 11.789331376552584 6.0641357302665693 6.5211666822433472 6.7664005756378165 9.0691060423850995 5.6692390590906205 4.8226492702960959 4.628133341670039 5.5408932119607908 4.4565778672695151 4.2479884475469589
leaf_count=21 36 20 20 24 28 25 21 22 25 20 20
internal_value=0 0.0930981 0.0429081 -0.0779095 0.123381 -0.0921995 -0.0950453 -0.0947575 -0.0944017 -0.094706 -0.0944603
internal_weight=0 33.4437 12.5853 40.8592 20.8584 34.0928 29.3655 24.5428 18.8736 14.2455 9.78888
internal_count=282 104 40 178 64 154 133 112 87 65 45
is_linear=0
shrinkage=0.1


Tree=20
num_leaves=11
num_cat=0
split_feature=8 6 5 8 5 9 8 4 8 5
split_gain=28.1013 3.42994 2.68515 2.02556 3.69231 1.1507 0.000640422 0.000330521 0.000341715 0.000287581
threshold=9.7750000000000004 12.583500000000003 85.016000000000005 11.490000000000002 76.011500000000012 5.0125000000000002 15.585000000000003 0.53850000000000009 13.220000000000001 48.668500000000002
decision_type=2 2 2 2 2 2 2 2 2 2
left_child=1 2 -1 4 -2 6 7 8 -5 -8
right_child=3 -3 -4 5 -6 -7 9 -9 -10 -11
leaf_value=0.16034107837142619 0.02557736964103631 0.026836263923707582 0.073849448968019371 -0.086830545793230449 -0.086193628023947366 -0.017138970618955859 -0.085234640375477691 -0.085015906503756372 -0.085482882238372693 -0.083876181733481783
leaf_weight=7.4972718656063098 6.612533435225485 5.6255686879158011 6.8862490355968475 3.5700040310621315 5.3442504554986954 2.8707405775785437 2.7901790663599959 4.2278246730566025 3.9779960215091705 3.5298009067773819
leaf_count=23 31 21 22 23 36 19 20 31 28 28
internal_value=0 0.0930395 0.118932 -0.0572258 -0.0243802 -0.075957 -0.085288 -0.0857238 -0.0861203 -0.0844759
internal_weight=0 20.0091 14.3835 32.9233 11.9568 20.9665 18.0958 11.7758 7.548 6.31998
internal_count=282 66 45 216 67 149 130 82 51 48
is_linear=0
shrinkage=0.1


Tree=21
num_leaves=11
num_cat=0
split_feature=8 6 5 8 9 8 5 5 8 3
split_gain=16.9019 7.65025 3.56532 1.71865 3.79549 1.71534 4.03228 1.70635 0.00304267 7.13428e-05
threshold=11.825000000000001 12.583500000000003 85.016000000000005 14.510000000000002 4.4195000000000002 10.840000000000002 74.777000000000015 76.836500000000015 15.585000000000003 0.60750000000000004
decision_type=2 2 2 2 2 2 2 2 2 2
left_child=1 2 -1 4 -2 7 -7 -3 -5 -10
right_child=3 5 -4 8 -6 6 -8 -9 9 -11
leaf_value=-0.095086726994457041 -0.090021165438428363 0.047349105315080312 0.021945317979268155 -0.09017993272568943 0.023160040229255094 0.089586066323510821 -0.024020786178656384 0.11369484404371338 -0.086603721969902736 -0.087157462037749711
leaf_weight=4.8185166418552381 6.150429844856264 6.1889561116695466 5.6616848111152649 3.8003389537334433 5.7170698791742325 7.1669272482395154 5.5386307090520859 10.375077798962591 5.5670828074216825 3.9973106235265732
leaf_count=23 34 20 24 21 24 22 20 33 36 25
internal_value=0 0.0414523 -0.0318629 -0.063193 -0.0354971 0.0677033 0.0400624 0.0889055 -0.0877863 -0.0868352
internal_weight=0 39.7498 10.4802 25.2322 11.8675 29.2696 12.7056 16.564 13.3647 9.56439
internal_count=282 142 47 140 58 95 42 53 82 61
is_linear=0
shrinkage=0.1


Tree=22
num_leaves=11
num_cat=0
split_feature=8 6 5 6 4 1 5 4 7 4
split_gain=9.31207 10.5317 4.74465 5.80307 3.7998 3.59272 1.78314 1.18471 0.00140284 0.00123316
threshold=10.260000000000002 23.325000000000003 79.722000000000023 16.058500000000006 0.51350000000000018 6.884500000000001 88.074000000000012 0.5505000000000001 6.9345000000000008 0.49950000000000006
decision_type=2 2 2 2 2 2 2 2 2 2
left_child=6 2 3 -2 -5 -6 8 -7 -1 -3
right_child=1 9 -4 4 5 7 -8 -9 -10 -11
leaf_value=-0.089054734268061916 -0.062234992472070927 -0.085162001153507472 0.11873445829876045 -0.0054043932177994577 0.14491846543150178 0.010333640760813188 -0.0056157584014318454 0.075811263182999744 -0.086804221273240612 -0.087808536265433668
leaf_weight=5.601494222879408 5.7915646880865124 4.3426108062267295 7.0807284116744986 8.4808354228734988 5.2845826447010067 5.2625382542610151 3.4501336663961402 5.81850765645504 5.478967159986496 2.9611544460058212
leaf_count=32 28 31 23 36 17 21 17 22 36 19
internal_value=0 0.0236757 0.0449585 0.0279082 0.04892 0.0770715 -0.0683945 0.0447151 -0.0879419 -0.086235
internal_weight=0 45.0225 37.7188 30.638 24.8465 16.3656 14.5306 11.081 11.0805 7.30377
internal_count=282 197 147 124 96 60 85 43 68 50
is_linear=0
shrinkage=0.1


Tree=23
num_leaves=11
num_cat=0
split_feature=6 8 5 9 9 8 2 8 8 6
split_gain=44.8237 8.16712 12.6397 0.703228 0.178691 0.0251373 0.00120137 0.00123738 0.000626623 0.000445314
threshold=17.216500000000003 14.665000000000001 70.281500000000008 4.8625000000000007 4.4315000000000007 17.170000000000005 4.4830000000000014 9.615000000000002 11.490000000000002 14.658500000000002
decision_type=2 2 2 2 2 2 2 2 2 2
left_child=4 2 -2 5 6 -3 -1 -8 9 -9
right_child=1 3 -4 -5 -6 -7 7 8 -10 -11
leaf_value=-0.093815270045304655 -0.061038004183327138 0.126635817830307 0.12037205639342266 0.086428870845568814 -0.070520970291566412 0.11814339305893651 -0.090813811122350208 -0.092881694920128891 -0.093721735937816006 -0.091668415299579031
leaf_weight=6.5933197736740174 9.1932369321584684 6.3531931340694445 6.5966573357582083 9.2043821811676008 4.2116438001394263 7.721503734588623 4.5763023197650936 6.4038309454917925 4.2315673679113379 5.7336917668581009
leaf_count=31 32 20 21 29 20 25 24 31 20 29
internal_value=0 0.0702662 0.014751 0.107921 -0.0897042 0.121977 -0.092638 -0.0922675 -0.0926739 -0.0923085
internal_weight=0 39.069 15.7899 23.2791 31.7504 14.0747 27.5387 20.9454 16.3691 12.1375
internal_count=282 127 53 74 155 45 135 104 80 60
is_linear=0
shrinkage=0.1


Tree=24
num_leaves=11
num_cat=0
split_feature=8 8 5 8 5 9 8 5 8 5
split_gain=22.7992 3 6.54948 1.9601 3.3982 1.15364 0.000780282 0.000375732 0.000516447 0.000221824
threshold=9.7750000000000004 8.2850000000000019 81.113500000000016 11.490000000000002 76.011500000000012 5.0125000000000002 15.585000000000003 57.246500000000005 13.075000000000001 53.342000000000006
decision_type=2 2 2 2 2 2 2 2 2 2
left_child=1 -1 -3 4 -2 6 7 -5 -9 -8
right_child=3 2 -4 5 -6 -7 9 8 -10 -11
leaf_value=0.13616269183373711 0.024626841083768662 0.12027215467281634 -0.020731367243596401 -0.085613175677369646 -0.085049240941147547 -0.014480677648730303 -0.083855532491218077 -0.084881593690545085 -0.083196956116948745 -0.08259645456037272
leaf_weight=6.8551346659660366 6.652386888861658 7.0797560364007932 6.1607370376586914 2.8823536932468468 4.9102768078446388 2.779785878956317 2.6198147460818282 5.095018208026886 2.8308222368359566 3.0034763216972351
leaf_count=21 31 23 22 20 36 19 21 38 24 27
internal_value=0 0.0824652 0.0546639 -0.0544799 -0.0219489 -0.0740592 -0.0841384 -0.0846355 -0.0842799 -0.083183
internal_weight=0 20.0956 13.2405 30.7739 11.5627 19.2113 16.4315 10.8082 7.92584 5.62329
internal_count=282 66 45 216 67 149 130 82 62 48
is_linear=0
shrinkage=0.1


Tree=25
num_leaves=11
num_cat=0
split_feature=8 6 8 6 3 0 0 4 8 9
split_gain=14.0297 6.11541 2.21195 1.73832 3.63139 1.18163 2.0811 2.25595 0.00792715 6.98415e-05
threshold=11.825000000000001 12.141500000000002 8.2850000000000019 20.641500000000004 0.58550000000000002 4.7275000000000009 6.0635000000000003 0.5525000000000001 15.585000000000003 4.5010000000000003
decision_type=2 2 2 2 2 2 2 2 2 2
left_child=1 2 -1 4 -2 -3 7 -7 -5 -10
right_child=3 5 -4 8 -6 6 -8 -9 9 -11
leaf_value=-0.092779792259079327 -0.087396076244637314 0.094111867244628666 0.0096629328595865035 -0.090821399750468712 0.025325413621028525 -0.019826882724166762 0.079512075841808139 0.063351101641550667 -0.084885605689074148 -0.085465647347571116
leaf_weight=3.9392344057559949 5.8605477660894412 6.982190370559695 4.5333132445812225 3.5914044380187979 5.5783268958330154 6.7410756796598452 10.955866292119024 6.3156161159276962 3.7034275233745557 4.7234105169773102
leaf_count=20 37 23 20 20 23 24 34 21 27 33
internal_value=0 0.0373221 -0.0379669 -0.0603292 -0.0324259 0.0579026 0.047374 0.0204069 -0.0868874 -0.0852107
internal_weight=0 39.4673 8.47255 23.4571 11.4389 30.9947 24.0126 13.0567 12.0182 8.42684
internal_count=282 142 40 140 60 102 79 45 80 60
is_linear=0
shrinkage=0.1


Tree=26
num_leaves=12
num_cat=0
split_feature=6 6 2 7 6 6 0 3 3 8 1
split_gain=8.05347 9.28948 3.89646 3.99942 3.33835 3.02957 3.76673 1.7213 0.176738 0.00156612 0.000945379
threshold=14.658500000000002 23.325000000000003 6.6730000000000009 8.334500000000002 17.300000000000004 18.966500000000003 11.416500000000001 0.49650000000000005 0.55600000000000016 9.615000000000002 9.943500000000002
decision_type=2 2 2 2 2 2 2 2 2 2 2
left_child=7 2 -2 -4 -5 -6 -7 -1 9 -9 -3
right_child=1 10 3 4 5 6 -8 8 -10 -11 -12
leaf_value=-0.0070425361710926004 0.10088740390930502 -0.083767246203090492 -0.049810361338737529 -0.025163186491611724 0.1286874463266249 -0.032126330222656638 0.091669260448448031 -0.086557973402683341 -0.060406806817914875 -0.089383011650719477 -0.086212102260898149
leaf_weight=4.5663243532180777 9.202900826930998 3.8718197345733634 5.5850950628519085 5.0139549821615246 5.4522931128740302 4.4721989631652814 5.4567982107400894 4.6381557211279851 3.3473688811063758 3.4014692157506943 2.6738632619380951
leaf_count=23 30 31 25 23 18 20 20 31 22 20 19
internal_value=0 0.0246215 0.0449726 0.0251661 0.0456979 0.068797 0.0359095 -0.0589135 -0.0797143 -0.0877532 -0.084766
internal_weight=0 41.7289 35.1832 25.9803 20.3952 15.3813 9.929 15.9533 11.387 8.03962 6.54568
internal_count=282 186 136 106 81 58 40 96 73 51 50
is_linear=0
shrinkage=0.1


Tree=27
num_leaves=12
num_cat=0
split_feature=6 8 5 6 6 1 8 3 8 4 7
split_gain=37.7345 6.86076 10.5878 0.721016 0.199068 0.0115264 0.00277293 0.000612719 0.00100104 0.000380005 9.03848e-05
threshold=17.216500000000003 14.665000000000001 70.281500000000008 23.325000000000003 10.692000000000002 9.7150000000000016 11.740000000000002 0.53400000000000014 9.7750000000000004 0.52650000000000008 7.8980000000000006
decision_type=2 2 2 2 2 2 2 2 2 2 2
left_child=4 2 -2 -3 -1 -5 7 9 -9 -6 -10
right_child=1 3 -4 5 6 -7 -8 8 10 -11 -12
leaf_value=-0.066806230942327335 -0.057840027501471727 0.074515018539820455 0.10876226589461871 0.10998583505088465 -0.089975891627249213 0.11564204428448772 -0.093113708837305104 -0.088346810497408709 -0.090692288839887794 -0.091239017777724085 -0.089997277530302983
leaf_weight=4.0747455358505276 8.9651858508586866 7.6208603680133846 6.6395654678344718 8.3813310265541059 3.8616020530462318 6.319222003221511 3.8227094113826743 3.7477506548166257 3.7871025949716568 6.2150675356388092 3.6985942125320435
leaf_count=21 32 24 21 29 21 21 19 22 20 32 20
internal_value=0 0.063915 0.0130465 0.0994769 -0.0873095 0.112417 -0.0906337 -0.0901888 -0.0896809 -0.090755 -0.0903489
internal_weight=0 37.9262 15.6048 22.3214 29.2076 14.7006 25.1328 21.3101 11.2334 10.0767 7.4857
internal_count=282 127 53 74 155 50 134 115 62 53 40
is_linear=0
shrinkage=0.1


Tree=28
num_leaves=11
num_cat=0
split_feature=6 5 8 9 6 4 8 8 6 8
split_gain=18.8999 3.65271 7.65589 2.19285 4.73178 0.279664 0.023308 0.000919517 0.000374174 8.10905e-05
threshold=14.408000000000001 76.311000000000021 8.8000000000000025 4.6525000000000007 20.766500000000004 0.56050000000000011 11.490000000000002 12.990000000000002 24.375000000000004 14.81
decision_type=2 2 2 2 2 2 2 2 2 2
left_child=1 -1 -3 5 -5 6 -2 -8 -6 -9
right_child=3 2 -4 4 8 -7 7 9 -10 -11
leaf_value=0.13558898588068377 -0.09102086921203513 0.096921446066817948 -0.038176454078380703 0.062512005129237366 -0.084649008517487731 -0.0503998329222081 -0.084267263109510604 -0.08248259752318382 -0.082920625281191138 -0.081698366339089251
leaf_weight=5.6098792552948025 5.9435221999883714 10.479286849498751 6.9944278597831717 3.9460887983441335 2.6283455565571785 2.5713315531611434 2.7912670224904996 2.292509563267231 2.3928819969296455 3.1033544018864632
leaf_count=19 37 33 35 25 20 18 22 21 21 31
internal_value=0 0.0653834 0.0428441 -0.059318 -0.0194292 -0.0807343 -0.0862542 -0.0827938 -0.0838253 -0.0820316
internal_weight=0 23.0836 17.4737 25.6693 8.96732 16.702 14.1307 8.18713 5.02123 5.39586
internal_count=282 87 68 195 66 129 111 74 41 52
is_linear=0
shrinkage=0.1


Tree=29
num_leaves=12
num_cat=0
split_feature=8 6 6 5 8 5 2 5 8 8 3
split_gain=11.6866 4.88374 1.67905 3.52713 1.07685 3.00025 1.92947 0.814221 0.17949 0.00727817 4.61451e-05
threshold=11.825000000000001 12.141500000000002 20.641500000000004 64.280500000000018 10.840000000000002 74.777000000000015 5.4015000000000013 86.109000000000023 12.845000000000001 15.585000000000003 0.60750000000000004
decision_type=2 2 2 2 2 2 2 2 2 2 2
left_child=1 7 3 -2 6 -6 -3 -1 -5 -4 -11
right_child=2 4 9 8 5 -7 -8 -9 -10 10 -12
leaf_value=-0.067647669004959582 0.04165694198508408 0.10918901394195364 -0.089390704117468953 -0.089997887529078668 0.071710595792525172 -0.026376252589514163 0.042113166356799146 -0.0043093833049706182 -0.057339572780829073 -0.083559391217010337 -0.084061150378171259
leaf_weight=3.9603468030691129 4.2260349020361918 6.9028677195310655 3.333688519895075 3.6150538325309753 7.2656902670860273 5.463249683380127 11.323216140270231 4.1630995273590088 3.1486250981688499 4.2892913296818733 3.2005225196480751
leaf_count=21 18 22 20 21 22 20 38 19 21 35 25
internal_value=0 0.0338205 -0.0575475 -0.0300139 0.0519302 0.0296118 0.0675172 -0.0351881 -0.0747948 -0.0855038 -0.0837738
internal_weight=0 39.0785 21.8132 10.9897 30.955 12.7289 18.2261 8.12345 6.76368 10.8235 7.48981
internal_count=282 142 140 60 102 42 60 40 42 80 60
is_linear=0
shrinkage=0.1


Tree=30
num_leaves=12
num_cat=0
split_feature=8 8 5 6 4 5 0 9 6 7 6
split_gain=7.09467 7.42613 3.71903 3.78559 2.18111 1.8019 1.0774 2.26793 0.00132548 0.00156398 7.55798e-05
threshold=10.260000000000002 16.330000000000002 80.158000000000015 16.058500000000006 0.54950000000000021 88.074000000000012 7.3870000000000013 4.7760000000000007 13.450000000000001 6.9345000000000008 25.858500000000003
decision_type=2 2 2 2 2 2 2 2 2 2 2
left_child=5 2 3 -2 6 8 -5 -8 9 -1 -3
right_child=1 10 -4 4 -6 -7 7 -9 -10 -11 -12
leaf_value=-0.086313056452157547 -0.04840957026443489 -0.083315345886965181 0.10732886337931785 0.05829161481222165 0.080323227284374715 0.00025596398891176823 -0.044958421614784506 0.04488266827150366 -0.087667098965097834 -0.083201697384333917 -0.082585446604990814
leaf_weight=4.0229690447449666 5.9339256137609508 2.3594438508152953 6.3642236292362204 4.772249370813376 8.8509593456983549 3.2711020410060874 5.423032730817793 5.8310776948928833 2.7575406059622765 2.6997950747609138 3.5579690709710121
leaf_count=27 30 20 20 19 31 17 24 21 18 23 32
internal_value=0 0.0211732 0.0377353 0.0233604 0.0404796 -0.0637397 0.0184749 0.00159083 -0.0858209 -0.0850636 -0.0828765
internal_weight=0 43.0929 37.1755 30.8112 24.8773 12.7514 16.0264 11.2541 9.4803 6.72276 5.91741
internal_count=282 197 145 125 95 85 64 45 68 50 52
is_linear=0
shrinkage=0.1


Tree=31
num_leaves=12
num_cat=0
split_feature=6 8 5 9 6 8 8 3 8 4 7
split_gain=32.1511 5.79104 8.68504 0.721455 0.21279 0.0221222 0.00281437 0.000694824 0.000970673 0.000436033 0.000146649
threshold=17.216500000000003 14.665000000000001 70.281500000000008 4.8625000000000007 10.692000000000002 17.170000000000005 11.740000000000002 0.53400000000000014 9.7750000000000004 0.52650000000000008 7.8980000000000006
decision_type=2 2 2 2 2 2 2 2 2 2 2
left_child=4 2 -2 5 -1 -3 7 9 -9 -6 -10
right_child=1 3 -4 -5 6 -7 -8 8 10 -11 -12
leaf_value=-0.06334736580745623 -0.053882317581546907 0.11264576723867675 0.098344294148318176 0.07054754457520869 -0.088199280525299587 0.10420199881546932 -0.091500802672427814 -0.086487260812083924 -0.089014716532467342 -0.089609750728637194 -0.088090597684151783
leaf_weight=3.7864505350589779 8.672174006700514 5.7696222960948962 6.6005241870880118 8.6653030812740308 3.5316807478666359 6.7129345834255219 3.5759559869766226 3.3583989441394788 3.5022496581077576 5.7768551558256149 3.3691623508930206
leaf_count=21 32 20 21 29 21 25 19 22 20 32 20
internal_value=0 0.0588291 0.0119067 0.0927158 -0.0853218 0.108105 -0.0889215 -0.0884495 -0.0878806 -0.0890746 -0.0885616
internal_weight=0 36.4206 15.2727 21.1479 26.9008 12.4826 23.1143 19.5383 10.2298 9.30854 6.87141
internal_count=282 127 53 74 155 45 134 115 62 53 40
is_linear=0
shrinkage=0.1


Tree=32
num_leaves=11
num_cat=0
split_feature=6 5 8 9 6 4 3 8 8 8
split_gain=15.7679 3.03393 6.30265 2.16395 4.31088 0.314576 0.260676 0.0180688 0.000796085 0.000110054
threshold=14.408000000000001 76.311000000000021 9.0850000000000026 4.6525000000000007 19.741500000000006 0.56250000000000011 0.6715000000000001 11.490000000000002 12.990000000000002 14.81
decision_type=2 2 2 2 2 2 2 2 2 2
left_child=1 -1 -3 5 -5 7 -6 -2 -9 -10
right_child=3 2 -4 4 6 -7 -8 8 9 -11
leaf_value=0.12326450153807036 -0.089441390317413383 0.080657669808327906 -0.048739983340208244 0.083995575624307289 -0.082738892194645489 -0.044634385646959679 -0.038724685216717195 -0.083329929768649447 -0.081722945581530204 -0.080757633732289405
leaf_weight=5.6150439232587841 5.6373918280005473 11.57485616207123 5.5782380253076544 2.8492548167705518 3.6197852790355682 2.2422001734375945 2.1417633667588234 2.6646967008709908 2.0820432007312775 2.7292351350188255
leaf_count=19 38 37 31 17 33 16 16 23 21 31
internal_value=0 0.0594626 0.0385772 -0.0567467 -0.01662 -0.0792482 -0.0663773 -0.0851667 -0.0819433 -0.0811754
internal_weight=0 22.7681 17.1531 23.9664 8.6108 15.3556 5.76155 13.1134 7.47598 4.81128
internal_count=282 87 68 195 66 129 49 113 75 52
is_linear=0
shrinkage=0.1


Tree=33
num_leaves=12
num_cat=0
split_feature=8 8 3 6 9 8 5 2 9 8 9
split_gain=9.62676 4.02133 2.64619 1.66387 3.28441 1.47168 2.45438 0.520536 0.481006 0.00651329 5.53646e-05
threshold=11.825000000000001 9.5600000000000023 0.52950000000000019 20.641500000000004 4.8625000000000007 10.840000000000002 74.777000000000015 5.6285000000000016 4.3875000000000011 15.585000000000003 4.8765000000000009
decision_type=2 2 2 2 2 2 2 2 2 2 2
left_child=1 2 -1 4 8 7 -7 -3 -2 -5 -11
right_child=3 5 -4 9 -6 6 -8 -9 -10 10 -12
leaf_value=0.024646877937100135 -0.085161224593684082 0.094415191219498165 -0.07313381434374476 -0.088151277311846576 0.058420483152027095 0.064052576106348888 -0.0251903944161001 0.056419122835011618 -0.033339750867541998 -0.082371683827310263 -0.082964958751927248
leaf_weight=6.0478888601064664 4.2980607300996798 6.2779722362756756 5.1028918474912643 3.0909645333886129 3.1509709358215332 7.2386846840381605 5.3663245737552643 8.4701536744832975 3.0708883032202721 4.1256180182099342 2.5422478467226028
leaf_count=24 32 20 29 20 13 22 20 27 15 38 22
internal_value=0 0.0305153 -0.0201002 -0.0546165 -0.0270277 0.0511492 0.0260592 0.0725933 -0.0635655 -0.0843568 -0.0825979
internal_weight=0 38.5039 11.1508 20.2788 10.5199 27.3531 12.605 14.7481 7.36895 9.75883 6.66787
internal_count=282 142 53 140 60 89 42 47 47 80 60
is_linear=0
shrinkage=0.1


Tree=34
num_leaves=11
num_cat=0
split_feature=8 6 5 8 4 1 3 6 5 1
split_gain=6.09396 6.42661 2.81796 2.82491 3.22396 1.59419 1.46814 0.183078 0.00405054 0.000900312
threshold=10.475000000000003 23.325000000000003 80.158000000000015 11.825000000000001 0.54550000000000021 7.3800000000000008 0.49550000000000005 13.658000000000001 85.358000000000018 9.943500000000002
decision_type=2 2 2 2 2 2 2 2 2 2
left_child=6 2 3 -2 5 -5 -1 8 -8 -3
right_child=1 9 -4 4 -6 -7 7 -9 -10 -11
leaf_value=0.00062868802671102236 -0.029941963798055051 -0.081506520413897485 0.10003029013926885 -0.024655678822992293 0.090598735657725096 0.042739870555913766 -0.083188184180374491 -0.053993109537161056 -0.088084833425156051 -0.084168223782722956
leaf_weight=3.2618983387947074 7.3694376498460796 3.0337415412068358 5.7886981666088095 6.3973727896809596 8.3674735873937589 7.7757316380739212 4.4989527091383916 2.5823534801602364 2.7050756514072418 2.186816081404686
leaf_count=18 37 31 19 29 28 28 39 17 17 19
internal_value=0 0.0210107 0.0361659 0.0238057 0.041378 0.0123193 -0.0574723 -0.0768379 -0.0850269 -0.0826215
internal_weight=0 40.9193 35.6987 29.91 22.5406 14.1731 13.0483 9.78638 7.20403 5.22056
internal_count=282 191 141 122 85 57 91 73 56 50
is_linear=0
shrinkage=0.1


Tree=35
num_leaves=11
num_cat=0
split_feature=6 6 5 1 9 8 2 8 5 1
split_gain=27.504 5.01481 7.37183 1.78764 0.23 0.0986007 0.000690559 0.00111739 0.000560113 0.000505101
threshold=17.216500000000003 20.883000000000003 70.281500000000008 10.992000000000003 4.4315000000000007 17.170000000000005 4.4830000000000014 9.615000000000002 80.158000000000015 6.338000000000001
decision_type=2 2 2 2 2 2 2 2 2 2
left_child=4 2 -2 5 6 -3 -1 -8 9 -9
right_child=1 3 -4 -5 -6 -7 7 8 -10 -11
leaf_value=-0.088309962661840727 -0.051230637709956409 0.11682519317068607 0.090388520602983649 0.041797000210289176 -0.059129917398102506 0.099775364488076668 -0.08536933425861111 -0.088810958047928198 -0.086473418535534391 -0.08724587461015812
leaf_weight=5.2158591002225938 8.4153878390789014 5.9190269112586993 6.5260295867919913 6.0207901746034613 3.350050449371337 7.9443601816892624 3.3790086358785656 3.4642483592033368 4.2361356168985358 5.0945804566144943
leaf_count=31 32 21 21 21 20 32 24 20 28 32
internal_value=0 0.054401 0.010625 0.0872952 -0.0834936 0.107055 -0.0873094 -0.0869867 -0.0874139 -0.0878794
internal_weight=0 34.8256 14.9414 19.8842 24.7399 13.8634 21.3898 16.174 12.795 8.55883
internal_count=282 127 53 74 155 53 135 104 80 52
is_linear=0
shrinkage=0.1


Tree=36
num_leaves=11
num_cat=0
split_feature=6 8 5 1 6 8 4 8 8 8
split_gain=13.0626 2.71295 5.02917 2.28512 3.89858 2.26348 0.340261 0.0146807 0.000774034 0.000171848
threshold=14.550000000000002 8.2850000000000019 76.311000000000021 9.943500000000002 21.033500000000004 9.5600000000000023 0.56450000000000011 11.490000000000002 13.075000000000001 15.585000000000003
decision_type=2 2 2 2 2 2 2 2 2 2
left_child=1 -1 -3 6 -5 -4 7 -2 -9 -10
right_child=3 2 5 4 -6 -7 -8 8 9 -11
leaf_value=0.10695595021928742 -0.088368310988214169 0.10475585534449897 0.026428016950187566 0.076059750469892121 -0.082275388308603592 -0.066675779616879524 -0.040366317243290581 -0.082680838400028406 -0.081329397456509536 -0.08016314575257745
leaf_weight=6.3864468932151821 4.8153350874781635 5.9280311018228558 6.7734109461307508 3.0017630681395522 3.2266616597771645 4.2493804693222046 2.0736509785056105 3.0129354223608953 2.2127402499318123 2.9450589641928673
leaf_count=21 35 21 22 18 31 29 16 28 24 37
internal_value=0 0.0514088 0.0304807 -0.0569119 -0.00596643 -0.00946429 -0.077982 -0.0839885 -0.0814074 -0.0806635
internal_weight=0 23.3373 16.9508 21.2881 6.22842 11.0228 15.0597 12.9861 8.17073 5.1578
internal_count=282 93 72 189 49 51 140 124 89 61
is_linear=0
shrinkage=0.1


Tree=37
num_leaves=10
num_cat=0
split_feature=6 8 3 8 5 8 5 8 9
split_gain=8.25136 3.59305 2.35558 1.85456 3.52263 1.38855 0.442687 0.00486168 6.3605e-05
threshold=16.316500000000001 9.5600000000000023 0.52950000000000019 14.510000000000002 69.719500000000025 10.840000000000002 78.158000000000015 15.585000000000003 4.6525000000000007
decision_type=2 2 2 2 2 2 2 2 2
left_child=1 2 -1 4 -2 6 -3 -5 -9
right_child=3 5 -4 7 -6 -7 -8 8 -10
leaf_value=0.023747793325654101 0.017361763962359087 0.055303526951785115 -0.070348264489089221 -0.086585607007941989 -0.094768946861416695 0.024647101727198677 0.090952624969350165 -0.081237575133970008 -0.081889328373836306
leaf_weight=6.0580775141715986 7.769328139722349 7.2723971456289309 4.7436511665582657 2.8692117333412153 4.3817825168371201 10.818231053650377 6.6857477128505707 2.8323155343532562 3.17685516923666
leaf_count=24 33 23 29 21 30 39 22 30 31
internal_value=0 0.0305545 -0.0175751 -0.0484577 -0.0230734 0.0515375 0.0723789 -0.0831991 -0.0815821
internal_weight=0 35.5781 10.8017 21.0295 12.1511 24.7764 13.9581 8.87838 6.00917
internal_count=282 137 53 145 63 84 45 82 61
is_linear=0
shrinkage=0.1


Tree=38
num_leaves=12
num_cat=0
split_feature=6 6 2 7 3 7 9 7 8 5 1
split_gain=5.29272 5.55833 2.42952 2.82978 2.29082 1.22541 2.13972 0.218303 0.0104262 0.000943301 0.000710696
threshold=14.658500000000002 23.325000000000003 6.7700000000000005 9.0650000000000013 0.49550000000000005 10.089000000000002 4.8765000000000009 6.2285000000000013 10.185 80.158000000000015 9.943500000000002
decision_type=2 2 2 2 2 2 2 2 2 2 2
left_child=4 2 -2 -4 -1 -5 -7 -6 9 -9 -3
right_child=1 10 3 5 7 6 -8 8 -10 -11 -12
leaf_value=0.017051528780759852 0.077164769306318104 -0.080583183897332669 -0.034575583686887811 0.085108618910253009 -0.05109555511099554 -0.02244692295428314 0.06026914683802026 -0.081713580875075631 -0.091014930605905667 -0.084485568396422045 -0.08308627243103428
leaf_weight=3.5309548974037162 9.7637094110250455 2.6627206727862349 7.1845997720956829 4.4823110327124622 2.4551100805401784 5.5327942520380002 7.193278893828392 2.7599923834204674 2.3628789484500885 2.2111310064792633 1.9761346876621244
leaf_count=19 34 31 37 17 17 23 25 28 14 18 19
internal_value=0 0.0210608 0.03501 0.0181368 -0.0519991 0.0401445 0.0243075 -0.0769058 -0.085546 -0.0829465 -0.0816495
internal_weight=0 38.7955 34.1567 24.393 13.3201 17.2084 12.7261 9.78911 7.334 4.97112 4.63886
internal_count=282 186 136 102 96 65 48 77 60 46 50
is_linear=0
shrinkage=0.1


Tree=39
num_leaves=12
num_cat=0
split_feature=6 8 5 9 5 8 8 3 8 3 7
split_gain=23.6794 4.46576 6.25695 0.707881 0.280908 0.022296 0.00216822 0.000366355 0.000735508 0.00032482 6.61938e-05
threshold=17.216500000000003 14.665000000000001 70.281500000000008 4.8625000000000007 88.074000000000012 17.170000000000005 11.740000000000002 0.53250000000000008 9.7750000000000004 0.50600000000000012 7.8980000000000006
decision_type=2 2 2 2 2 2 2 2 2 2 2
left_child=4 2 -2 5 6 -3 7 9 -9 -1 -10
right_child=1 3 -4 -5 -6 -7 -8 8 10 -11 -12
leaf_value=-0.085478116116069938 -0.049013343894510841 0.10464220573836412 0.083139219117060764 0.060461161156732328 -0.052988344539829306 0.095494016864575509 -0.088550143095102091 -0.084163924807582627 -0.086294092252616014 -0.0868334288409226 -0.085622295034629717
leaf_weight=3.2580534592270949 8.1483708918094617 5.0844739377498644 6.3940823674201956 7.9658662676811209 2.9385176226496688 5.5966229438781738 3.1008493006229392 3.7064875066280347 2.9787271097302437 3.8673891723155975 2.8894231021404266
leaf_count=23 32 20 21 29 19 25 19 29 20 25 20
internal_value=0 0.0506288 0.00909201 0.0830226 -0.08184 0.0998488 -0.0861217 -0.0856708 -0.0852667 -0.0862137 -0.0859633
internal_weight=0 33.1894 14.5425 18.647 22.7394 10.6811 19.8009 16.7001 9.57464 7.12544 5.86815
internal_count=282 127 53 74 155 45 136 117 69 48 40
is_linear=0
shrinkage=0.1


Tree=40
num_leaves=12
num_cat=0
split_feature=6 3 9 6 8 4 7 8 8 8 2
split_gain=11.0018 2.50194 2.08312 5.11809 1.6123 0.334854 0.315743 0.0133953 0.00320308 0.000634963 3.32853e-06
threshold=14.408000000000001 0.52700000000000014 4.6525000000000007 18.258500000000002 9.4550000000000018 0.56250000000000011 14.238500000000002 10.900000000000002 11.490000000000002 14.140000000000002 10.013000000000002
decision_type=2 2 2 2 2 2 2 2 2 2 2
left_child=1 -1 5 -4 -3 7 -5 -2 -9 -10 -11
right_child=2 4 3 6 -6 -7 -8 8 9 10 -12
leaf_value=0.011116247582291586 -0.090107809711360287 0.11011808625180941 0.10861872700277971 -0.08269188825961421 0.036044638362573364 -0.039722159747824282 -0.032753907940529861 -0.084868949968998533 -0.081484345908726996 -0.079535432101421347 -0.079316887332797958
leaf_weight=9.4230626076459902 2.4898523464798954 7.1736434102058393 2.4487713426351538 3.5754109993577003 4.9772585332393646 2.0619401410222045 1.9602774903178213 2.3765964955091459 3.2552845627069473 1.42095372825861 1.3676688075065611
leaf_count=37 18 26 13 35 24 16 18 20 35 20 20
internal_value=0 0.0497869 -0.0519446 -0.0117581 0.0797761 -0.0766795 -0.065008 -0.083664 -0.0817587 -0.0805357 -0.0794282
internal_weight=0 21.574 20.9568 7.98446 12.1509 12.9723 5.53569 10.9104 8.4205 6.04391 2.78862
internal_count=282 87 195 66 50 129 53 113 95 75 40
is_linear=0
shrinkage=0.1


Tree=41
num_leaves=11
num_cat=0
split_feature=6 4 6 5 0 1 1 8 8 9
split_gain=7.22812 2.61524 2.01138 4.78418 1.96968 2.66122 0.932172 0.322427 0.00976548 0.000164487
threshold=19.591500000000003 0.59150000000000003 16.183500000000006 70.281500000000008 6.0635000000000003 5.7970000000000015 4.7240000000000011 13.540000000000001 14.81 4.8455000000000004
decision_type=2 2 2 2 2 2 2 2 2 2
left_child=1 2 4 -4 5 6 -1 -2 -9 -10
right_child=7 -3 3 -5 -6 -7 -8 8 9 -11
leaf_value=0.026529651546871726 -0.034112808309495223 -0.042127799645739629 0.04476253760976516 -0.093062817167224768 0.089784808437970598 -0.033366994385013886 0.075501389652759432 -0.088341937227639791 -0.080407703256181684 -0.081463023117956543
leaf_weight=8.7989720180630737 1.5987926721572865 6.1165530234575263 6.4824814200401288 4.1187313571572304 6.6702082455158225 5.3667958527803412 6.9626399278640738 2.4915010631084424 3.2552772164344788 2.7035603076219559
leaf_count=35 8 31 26 31 21 20 26 17 39 28
internal_value=0 0.0186027 0.0282763 -0.0087847 0.0424097 0.0274535 0.0481628 -0.0752934 -0.0830847 -0.0808865
internal_weight=0 44.5164 38.3998 10.6012 27.7986 21.1284 15.7616 10.0491 8.45034 5.95884
internal_count=282 190 159 57 102 81 61 92 84 67
is_linear=0
shrinkage=0.1


Tree=42
num_leaves=12
num_cat=0
split_feature=8 6 5 6 3 4 7 8 5 8 1
split_gain=4.6003 4.50467 2.18772 3.16542 2.06194 1.97339 0.638844 1.76375 0.00182831 0.00109135 0.000548679
threshold=10.260000000000002 23.325000000000003 79.722000000000023 16.183500000000006 0.49550000000000005 0.54950000000000021 12.231000000000002 13.220000000000001 82.858000000000018 9.615000000000002 9.943500000000002
decision_type=2 2 2 2 2 2 2 2 2 2 2
left_child=4 2 3 -2 -1 6 7 -5 9 -6 -3
right_child=1 10 -4 5 8 -7 -8 -9 -10 -11 -12
leaf_value=0.01580324258274007 -0.049164607969091154 -0.079829360974881081 0.081425347313576105 0.066909383118680124 -0.080861171383222269 0.073119292679681966 -0.016442520991018877 -0.016419038648709659 -0.08560060132833594 -0.084114830967518928 -0.082160084215352619
leaf_weight=2.8628432750701887 5.6836967170238522 2.3447867333888999 6.6344644427299491 5.3069238662719744 2.0829214975237846 8.3283591493964177 5.06281954050064 4.8720381259918213 3.4123711436986923 2.0411395281553268 1.7743516787886617
leaf_count=17 31 31 23 21 24 29 18 25 26 18 19
internal_value=0 0.0182121 0.0295802 0.0178223 -0.056444 0.0339755 0.0125867 0.0270252 -0.0838883 -0.0824715 -0.0808333
internal_weight=0 40.0074 35.8883 29.2538 10.3993 23.5701 15.2418 10.179 7.53643 4.12406 4.11914
internal_count=282 197 147 124 85 93 64 46 68 42 50
is_linear=0
shrinkage=0.1


Tree=43
num_leaves=12
num_cat=0
split_feature=6 6 5 1 5 6 8 3 8 3 7
split_gain=20.2656 3.82337 5.15337 2.09187 0.299121 0.0829523 0.00172565 0.000228498 0.000635924 0.000303223 3.04804e-05
threshold=17.216500000000003 20.883000000000003 64.280500000000018 11.036500000000002 88.074000000000012 24.842000000000002 11.740000000000002 0.53250000000000008 9.7750000000000004 0.50600000000000012 7.8980000000000006
decision_type=2 2 2 2 2 2 2 2 2 2 2
left_child=4 2 -2 5 6 -3 7 9 -9 -1 -10
right_child=1 3 -4 -5 -6 -7 -8 8 10 -11 -12
leaf_value=-0.084218450122356681 -0.073907441228812001 0.10911723497207315 0.052661579756874757 0.02295849150934548 -0.049475690605942535 0.092700017966629147 -0.087195494322194811 -0.083100787011204713 -0.085090701061264234 -0.085590007084535805 -0.08461561586395111
leaf_weight=2.9523985311389032 4.9632167071104076 5.5159594565629977 9.1427241265773755 4.9192751049995413 2.7376904487609854 6.9626443088054657 2.8590910881757727 3.344157323241232 2.7268625199794769 3.5500845834612846 2.6754100993275642
leaf_count=23 20 22 33 18 19 34 19 29 20 25 20
internal_value=0 0.046817 0.0081279 0.0781855 -0.0802833 0.099957 -0.084941 -0.0845183 -0.0841845 -0.0849673 -0.0848554
internal_weight=0 31.5038 14.1059 17.3979 20.8457 12.4786 18.108 15.2489 8.74643 6.50248 5.40227
internal_count=282 127 53 74 155 56 136 117 69 48 40
is_linear=0
shrinkage=0.1


Tree=44
num_leaves=11
num_cat=0
split_feature=6 8 5 8 1 6 4 8 8 9
split_gain=9.10592 2.25388 4.4644 2.30932 2.14371 3.44645 0.351833 0.00892808 0.000647977 0.00029528
threshold=14.550000000000002 8.2850000000000019 82.858000000000018 9.5600000000000023 9.943500000000002 20.766500000000004 0.56450000000000011 11.490000000000002 15.585000000000003 4.269000000000001
decision_type=2 2 2 2 2 2 2 2 2 2
left_child=1 -1 3 -3 6 -6 7 -2 9 -9
right_child=4 2 -4 -5 5 -7 -8 8 -10 -11
leaf_value=0.096227564151535161 -0.086182289156681621 0.1139358989635187 -0.049139337538496891 0.0207448828576773 0.072048670326557582 -0.081244477614888594 -0.036014227781535478 -0.080201124071580573 -0.078865713663038642 -0.081849775217976761
leaf_weight=5.8106668889522579 4.0759597830474394 4.6925331801176089 5.5553963109850875 6.1364045888185501 3.0229725018143645 2.8487975262105465 1.9198044724762429 2.3973009884357452 2.2665940225124359 1.9866409189999101
leaf_count=21 35 17 24 31 17 32 16 31 37 21
internal_value=0 0.042717 0.0237397 0.0611276 -0.0522567 -0.00232433 -0.0754406 -0.0824971 -0.0802385 -0.0809482
internal_weight=0 22.195 16.3843 10.8289 18.5181 5.87177 12.6463 10.7265 6.65054 4.38394
internal_count=282 93 72 48 189 49 140 124 89 52
is_linear=0
shrinkage=0.1


Tree=45
num_leaves=12
num_cat=0
split_feature=6 4 8 5 0 0 8 8 8 1 9
split_gain=6.26292 2.11216 1.73685 3.35492 1.25167 1.66735 1.46302 0.327777 0.00860246 0.000165556 6.98698e-06
threshold=19.591500000000003 0.59150000000000003 11.290000000000001 74.540000000000006 6.0635000000000003 5.096000000000001 9.615000000000002 13.540000000000001 14.81 10.591500000000002 4.3760000000000003
decision_type=2 2 2 2 2 2 2 2 2 2 2
left_child=1 2 4 -4 5 6 -1 -2 -9 10 -10
right_child=7 -3 3 -5 -6 -7 -8 8 9 -11 -12
leaf_value=0.015725458331798507 -0.031993119371396733 -0.038610783264651859 0.033812640203453863 -0.075520306013344071 0.079585553423449015 -0.012467271153485364 0.083796815741580891 -0.087445530083694059 -0.079527687492453439 -0.080827071865928066 -0.079825378216873299
leaf_weight=6.3798839002847725 1.5556863695383052 5.8765064328908911 7.8788081705570203 4.359562411904335 6.2477070689201346 6.6451425105333319 6.2508012354373932 2.3227121531963348 1.5004352629184725 2.1150327026844025 1.6614531204104421
leaf_count=28 8 31 36 28 20 25 22 17 21 24 22
internal_value=0 0.0171586 0.0258375 -0.00513403 0.0406881 0.0280806 0.0494133 -0.0738135 -0.0823744 -0.0801422 -0.0796841
internal_weight=0 43.6384 37.7619 12.2384 25.5235 19.2758 12.6307 9.15532 7.59963 5.27692 3.16189
internal_count=282 190 159 64 95 75 50 92 84 67 43
is_linear=0
shrinkage=0.1


Tree=46
num_leaves=11
num_cat=0
split_feature=8 8 9 2 2 5 7 3 6 4
split_gain=4.03325 3.28704 1.92039 1.61098 2.12828 1.39985 1.374 0.173677 0.0115289 0.0011845
threshold=10.475000000000003 14.665000000000001 4.8625000000000007 6.6730000000000009 7.6660000000000013 88.074000000000012 9.9155000000000015 0.5485000000000001 22.700000000000003 0.56050000000000011
decision_type=2 2 2 2 2 2 2 2 2 2
left_child=5 3 8 -2 -5 7 -6 9 -3 -1
right_child=1 2 -4 4 6 -7 -8 -9 -10 -11
leaf_value=-0.084816694005654225 0.070740431156578118 -0.090218745353471547 0.0091867401191371729 -0.026951595397715761 0.086624901659389311 0.0064035029950279031 0.019493001724498853 -0.051670707901375901 -0.079631649254547854 -0.081728343016151284
leaf_weight=3.2267195954918844 8.7071394175291079 1.8685465306043605 4.6423058658838272 6.6751978546381023 4.576331987977027 3.0806184560060501 9.1338994428515417 2.5163899213075638 2.2880768626928329 2.0189262554049492
leaf_count=27 32 12 30 34 18 18 32 25 33 21
internal_value=0 0.0185365 -0.0350194 0.0347343 0.0193552 -0.0506315 0.0419009 -0.0732677 -0.0843909 -0.0836281
internal_weight=0 37.8915 8.79893 29.0926 20.3854 10.8427 13.7102 7.76204 4.15662 5.24565
internal_count=282 191 75 116 84 91 50 73 45 48
is_linear=0
shrinkage=0.1


Tree=47
num_leaves=12
num_cat=0
split_feature=6 8 5 9 2 8 8 8 3 5 7
split_gain=17.4399 3.48056 4.68411 0.748386 0.320809 0.0178727 0.00126866 0.000164644 0.000546934 0.000374891 0.000229424
threshold=17.216500000000003 14.665000000000001 70.281500000000008 4.8625000000000007 3.6905000000000006 17.170000000000005 11.740000000000002 9.7750000000000004 0.53050000000000008 80.757500000000007 7.8545000000000007
decision_type=2 2 2 2 2 2 2 2 2 2 2
left_child=4 2 -2 5 -1 -3 7 8 -6 10 -9
right_child=1 3 -4 -5 6 -7 -8 9 -10 -11 -12
leaf_value=-0.04541938790319161 -0.045193942221463619 0.098770066340610488 0.071975201070131278 0.050956114958274491 -0.08411131075966749 0.089821685959617592 -0.085899516976703783 -0.084878245821462847 -0.082124707174123499 -0.082694683716018957 -0.083646388031365107
leaf_weight=2.4944133460521725 7.729517340660097 4.384818375110628 6.1081918627023697 7.2421611845493308 2.6639257669448879 4.5462495386600494 2.6170637458562842 2.6976246535778028 2.8885050565004349 2.315993532538414 3.4395942166447639
leaf_count=18 32 20 21 29 21 25 19 20 28 21 28
internal_value=0 0.0433437 0.00652644 0.0748442 -0.0788603 0.094215 -0.0838785 -0.0835009 -0.0830778 -0.0837788 -0.0841879
internal_weight=0 30.0109 13.8377 16.1732 19.1171 8.93107 16.6227 14.0056 5.55243 8.45321 6.13722
internal_count=282 127 53 74 155 45 137 118 49 69 48
is_linear=0
shrinkage=0.1


Tree=48
num_leaves=10
num_cat=0
split_feature=6 1 6 3 8 4 8 8 9
split_gain=7.64407 2.02482 2.94982 1.99463 2.04649 0.362576 0.00711006 0.000545807 0.000236094
threshold=14.550000000000002 9.943500000000002 20.766500000000004 0.52700000000000014 9.5600000000000023 0.56450000000000011 11.490000000000002 15.585000000000003 4.269000000000001
decision_type=2 2 2 2 2 2 2 2 2
left_child=3 5 -3 -1 -5 6 -2 8 -8
right_child=1 2 -4 4 -6 -7 7 -9 -10
leaf_value=0.0048001714864589293 -0.0852771255268506 0.063235190326305563 -0.080665103518611433 0.10246906000036159 0.019582693060529701 -0.033525501958215513 -0.079680334921039472 -0.07835972697620408 -0.081224960414744307
leaf_weight=9.4304079264402407 3.7288387864828128 3.1655785813927642 2.590089064091444 6.797777131199835 5.3022913187742233 1.8482692465186108 2.1610158197581772 1.9896326661109922 1.8254345692694185
leaf_count=39 35 17 32 28 26 16 31 37 21
internal_value=0 -0.0499785 -0.00152091 0.0392775 0.066148 -0.0741195 -0.0818505 -0.0797125 -0.0803876
internal_weight=0 17.3089 5.75567 21.5305 12.1001 11.5532 9.70492 5.97608 3.98645
internal_count=282 189 49 93 54 140 124 89 52
is_linear=0
shrinkage=0.1


Tree=49
num_leaves=12
num_cat=0
split_feature=6 4 8 5 7 9 4 8 8 8 9
split_gain=5.42116 1.7141 1.38994 2.91856 1.12911 1.63315 1.9441 0.339874 0.00730392 0.000415047 4.1127e-05
threshold=19.591500000000003 0.59150000000000003 11.290000000000001 74.540000000000006 6.0525000000000011 4.2745000000000006 0.54950000000000021 13.540000000000001 14.615000000000002 16.330000000000002 4.7760000000000007
decision_type=2 2 2 2 2 2 2 2 2 2 2
left_child=1 2 4 -4 -1 6 -6 -2 -9 -10 -11
right_child=7 -3 3 -5 5 -7 -8 8 9 10 -12
leaf_value=-0.01234194199423543 -0.029310677035148214 -0.035432224606924675 0.03132825501054929 -0.072743508221639608 0.026650738578659718 0.0059503804616454882 0.10046785909824783 -0.087533498780408878 -0.081146476653449054 -0.078955142143436741 -0.079651286296037058
leaf_weight=3.8942932263016727 1.5116512551903705 5.6457522436976424 7.8707832843065244 4.0974588394165039 6.7890530228614825 6.8102351725101462 7.5195956900715828 1.636451721191406 1.7167547196149824 2.0247647836804394 1.4610110521316526
leaf_count=15 8 31 36 28 28 24 28 12 20 32 20
internal_value=0 0.01589 0.023725 -0.00430185 0.0371353 0.0462588 0.0654437 -0.0722218 -0.0817066 -0.0798737 -0.0792469
internal_weight=0 42.6272 36.9814 11.9682 25.0132 21.1189 14.3086 8.35063 6.83898 5.20253 3.48578
internal_count=282 190 159 64 95 80 56 92 84 72 52
is_linear=0
shrinkage=0.1


Tree=50
num_leaves=13
num_cat=0
split_feature=6 6 1 3 4 8 8 5 8 8 7 6
split_gain=3.49203 2.71619 4.99531 2.1818 1.98405 2.40886 1.11726 0.211051 0.0210007 0.0108365 0.000209601 1.84659e-05
threshold=14.658500000000002 18.966500000000003 11.036500000000002 0.49550000000000005 0.52150000000000019 11.825000000000001 14.310000000000002 86.109000000000023 16.330000000000002 10.260000000000002 7.1290000000000004 26.683500000000006
decision_type=2 2 2 2 2 2 2 2 2 2 2 2
left_child=3 4 6 -1 -2 -6 -3 9 -8 10 -5 -10
right_child=1 2 -4 7 5 -7 8 -9 11 -11 -12 -13
leaf_value=0.022754272325129193 0.0023045974733891107 -0.016613840416206577 0.063628185368700726 -0.081263897459781742 0.019768846008641205 0.10601102050188629 -0.091388326198025283 -0.046046440413742104 -0.079448235627307615 -0.089791314446203196 -0.079822276203582801 -0.078934658347897091
leaf_weight=3.3206578344106656 7.862813942134383 4.0762631893157941 5.37655285000801 1.9961706511676309 6.0517918020486814 6.9674602448940277 2.8390655368566513 2.0313246250152588 1.3667391426861288 1.8426132872700689 2.038415938615799 1.4353337958455084
leaf_count=19 33 16 24 22 28 24 17 15 21 12 28 23
internal_value=0 0.0186075 -0.0137116 -0.0452708 0.0419683 0.0659227 -0.056503 -0.0738334 -0.0853268 -0.0834374 -0.0805355 -0.0791852
internal_weight=0 35.976 15.094 11.2292 20.8821 13.0193 9.7174 7.90852 5.64114 5.8772 4.03459 2.80207
internal_count=282 186 101 96 85 52 77 77 61 62 50 44
is_linear=0
shrinkage=0.1


Tree=51
num_leaves=11
num_cat=0
split_feature=6 8 9 8 2 9 8 4 2 8
split_gain=15.014 3.09721 4.56394 1.5967 0.337844 0.00306784 0.00111533 0.000159627 0.000126298 0.00010299
threshold=17.216500000000003 16.330000000000002 4.7760000000000007 13.465000000000002 3.6905000000000006 4.7760000000000007 11.825000000000001 0.57150000000000001 5.6765000000000008 10.900000000000002
decision_type=2 2 2 2 2 2 2 2 2 2
left_child=4 2 3 -2 -1 -3 7 8 -6 -10
right_child=1 5 -4 -5 6 -7 -8 -9 9 -11
leaf_value=-0.042221389405085033 0.025067030652912006 0.087331159220104926 -0.040262862827585302 0.099935532641145117 -0.081990185008832872 0.091080126137334419 -0.085164671730533409 -0.083146720508128727 -0.082319871542753997 -0.083252662875604788
leaf_weight=2.3461410626769093 6.4741168916225487 5.1198609769344312 7.9935905188322058 5.0866424441337585 3.9375932589173299 3.8049774467945099 2.052770383656024 4.4277941286563864 2.5319989025592804 2.2227654829621315
leaf_count=18 24 32 31 20 39 20 16 39 24 19
internal_value=0 0.0401156 0.0178364 0.0580086 -0.0775365 0.0889295 -0.0829971 -0.082658 -0.0824091 -0.0827559
internal_weight=0 28.4792 19.5543 11.5608 17.5191 8.92484 15.1729 13.1202 8.69236 4.75476
internal_count=282 127 75 44 155 52 137 121 82 43
is_linear=0
shrinkage=0.1


Tree=52
num_leaves=11
num_cat=0
split_feature=8 5 6 5 9 1 9 8 8 8
split_gain=6.6945 2.48231 5.2042 2.70455 1.9671 0.993 0.003201 0.00354951 0.000993441 7.12563e-05
threshold=11.490000000000002 72.054500000000004 13.008500000000003 84.684500000000014 5.0870000000000006 6.338000000000001 4.7585000000000006 14.615000000000002 13.075000000000001 14.81
decision_type=2 2 2 2 2 2 2 2 2 2
left_child=1 -1 3 -3 6 -4 8 -8 -2 -10
right_child=4 2 5 -5 -6 -7 7 -9 9 -11
leaf_value=0.090888184332605509 -0.080853171752256481 0.099942603727018214 -0.090049916906905308 0.010109572008886248 0.040292923001334857 -0.015581346423390961 -0.085838293934922885 -0.079815946785214642 -0.078815157103224204 -0.077824577459387353
leaf_weight=5.0223276764154461 2.8106979653239232 5.8953366726636904 3.9272619858384124 7.7664408758282661 1.5489430986344803 3.2912547290325165 2.2235796526074414 1.748041648417711 1.2400866970419886 1.7523152455687521
leaf_count=22 35 24 35 30 14 22 16 25 21 38
internal_value=0 0.0277674 0.012585 0.0488744 -0.0644088 -0.0560963 -0.0810002 -0.0831877 -0.0795031 -0.0782351
internal_weight=0 25.9026 20.8803 13.6618 11.3237 7.21852 9.77472 3.97162 5.8031 2.9924
internal_count=282 133 111 54 149 57 135 41 94 59
is_linear=0
shrinkage=0.1


Tree=53
num_leaves=13
num_cat=0
split_feature=6 6 6 5 9 1 1 6 6 8 8 9
split_gain=4.6594 1.54941 1.8225 3.47325 1.29142 1.22416 0.947028 0.897843 0.259918 0.00648675 0.000269885 2.57229e-05
threshold=19.591500000000003 12.141500000000002 16.183500000000006 69.719500000000025 4.0225000000000009 6.5925000000000002 5.729000000000001 10.9335 20.641500000000004 14.510000000000002 16.330000000000002 4.7760000000000007
decision_type=2 2 2 2 2 2 2 2 2 2 2 2
left_child=1 7 4 -4 -3 6 -6 -1 -2 -10 -11 -12
right_child=8 2 3 -5 5 -7 -8 -9 9 10 11 -13
leaf_value=-0.063980106689572755 -0.037762682371586809 0.080623512911400602 0.035447211909260319 -0.081725766086988658 0.032766337767864417 0.056202890464899236 -0.025666793096435988 0.0081322852798887454 -0.087314588355495437 -0.080292926297245923 -0.078396355130497253 -0.078986158445516208
leaf_weight=3.5260445103049269 1.8377977199852455 5.5380205363035229 6.2981989085674268 4.2280219793319702 5.7156649678945559 7.7480318546295157 5.3883968517184258 3.3831380158662796 1.2534726671874521 1.4735849089920519 1.763677913695574 1.27328260615468
leaf_count=24 12 20 26 34 22 28 20 16 9 19 32 20
internal_value=0 0.0145979 0.0231597 -0.0116172 0.0381685 0.0256969 0.00441087 -0.0286697 -0.0705098 -0.0809509 -0.0791825 -0.0786436
internal_weight=0 41.8255 34.9163 10.5262 24.3901 18.8521 11.1041 6.90918 7.60182 5.76402 4.51055 3.03696
internal_count=282 190 150 60 90 70 42 40 92 80 71 52
is_linear=0
shrinkage=0.1


Tree=54
num_leaves=12
num_cat=0
split_feature=8 6 3 5 8 4 3 0 3 6 7
split_gain=3.02178 2.31715 1.82963 1.61686 2.41792 2.16564 1.40403 0.631549 0.193839 0.0120349 0.00378286
threshold=10.475000000000003 22.433000000000003 0.48900000000000005 79.722000000000023 11.825000000000001 0.51350000000000018 0.6715000000000001 8.5655000000000019 0.5485000000000001 24.375000000000004 6.3625000000000007
decision_type=2 2 2 2 2 2 2 2 2 2 2
left_child=2 3 -1 4 -2 -6 9 -7 10 -3 -4
right_child=1 6 8 -5 5 7 -8 -9 -10 -11 -12
leaf_value=0.025228678709863357 -0.036463126079920097 -0.090652953900749234 -0.087493932110707801 0.076433263388796455 -0.0083956772548657108 0.08680017324455977 0.023009101688948499 0.039950009191320163 -0.049400691483926257 -0.078399635710778223 -0.081785614238679541
leaf_weight=2.6233633160591108 6.3984609097242418 1.3110217526555055 2.128305833786726 5.5094929039478293 7.1894506439566639 5.3221996277570707 1.9745933040976522 6.2634657099843025 2.3942789882421494 2.0626958757638931 2.5541083440184593
leaf_count=16 35 11 18 21 33 20 10 23 27 38 30
internal_value=0 0.0167772 -0.0461026 0.0273647 0.0166256 0.0347179 -0.0439632 0.0614719 -0.0725455 -0.0831613 -0.0843802
internal_weight=0 36.0314 9.70006 30.6831 25.1736 18.7751 5.34831 11.5857 7.07669 3.37372 4.68241
internal_count=282 191 91 132 111 76 59 43 75 49 48
is_linear=0
shrinkage=0.1


Tree=55
num_leaves=12
num_cat=0
split_feature=6 5 6 1 5 2 6 8 7 8 6
split_gain=13.0198 3.02388 5.93688 2.12528 0.918954 0.355854 0.060258 0.000764223 0.000126002 0.00028249 5.34478e-05
threshold=17.216500000000003 74.540000000000006 20.883000000000003 11.163000000000002 64.280500000000018 3.6905000000000006 24.842000000000002 11.290000000000001 6.8090000000000011 9.7750000000000004 14.658500000000002
decision_type=2 2 2 2 2 2 2 2 2 2 2
left_child=5 2 4 6 -2 -1 -4 8 -7 -10 -11
right_child=1 -3 3 -5 -6 7 -8 -9 9 10 -12
leaf_value=-0.039054929394371087 -0.070741263985496183 0.11201858338941705 0.10285082039483916 0.0069296356583480496 -0.0081973774182074657 -0.082257935764870199 0.086275947047419643 -0.083456772911328261 -0.080582852697283935 -0.082344380368869152 -0.081644875039738316
leaf_weight=2.2125383913517025 4.5120401531457954 4.5154872536659232 3.9580777287483198 4.143487647175788 4.9009160548448563 3.6230981498956663 4.9195974320173264 3.7443621158599845 2.1466014683246613 2.1174045354127884 2.256266713142395
leaf_count=18 20 19 19 16 20 35 33 33 26 20 23
internal_value=0 0.037355 0.0223269 0.0660653 -0.0381774 -0.0763018 0.0936658 -0.0822358 -0.0817851 -0.0815224 -0.0819835
internal_weight=0 26.9496 22.4341 13.0212 9.41296 16.1003 8.87768 13.8877 10.1434 6.52027 4.37367
internal_count=282 127 108 68 40 155 52 137 104 69 43
is_linear=0
shrinkage=0.1


Tree=56
num_leaves=14
num_cat=0
split_feature=8 8 5 6 5 1 6 3 1 6 9 2 3
split_gain=5.7042 2.33931 3.83441 3.03906 4.02817 2.13505 1.40434 0.308382 0.00245527 0.000621146 0.000244788 7.25162e-05 1.95571e-05
threshold=11.490000000000002 8.2850000000000019 85.016000000000005 12.583500000000003 72.054500000000004 12.105000000000002 13.658000000000001 0.5415000000000002 9.943500000000002 20.766500000000004 4.3875000000000011 6.9685000000000015 0.5545000000000001
decision_type=2 2 2 2 2 2 2 2 2 2 2 2 2
left_child=1 -1 3 -3 -5 8 -6 -8 9 10 11 -2 -11
right_child=5 2 -4 4 6 -7 7 -9 -10 12 -12 -13 -14
leaf_value=0.086085486558086136 -0.079847055387640892 0.10777462868043788 -0.08478806373142167 0.080697780176992973 0.014297645616183 0.052936471493207571 -0.042505550900271118 -0.093276922712974969 -0.082669003241025524 -0.077393959641897672 -0.08096464116062399 -0.078765647815944292 -0.07803127630787754
leaf_weight=5.0638227313756969 1.2922480106353749 3.8676679283380571 3.5187083184719077 4.6667760759592047 3.313225142657755 1.3850126303732384 2.1894023753702641 2.6375227533280849 3.1431202366948128 0.87085524573922146 1.4460148885846136 1.1921527460217474 1.0769396647810934
leaf_count=21 19 16 17 20 17 10 22 20 36 22 18 21 23
internal_value=0 0.0253117 0.0100717 0.0300892 0.00662829 -0.062665 -0.035836 -0.070248 -0.0804129 -0.0792066 -0.0799302 -0.0793281 -0.0777463
internal_weight=0 25.2571 20.1933 16.6746 12.8069 10.4063 8.14015 4.82693 9.02133 5.87821 3.93042 2.4844 1.94779
internal_count=282 133 112 95 79 149 59 42 139 103 58 40 45
is_linear=0
shrinkage=0.1


Tree=57
num_leaves=13
num_cat=0
split_feature=8 4 8 9 6 0 1 1 4 6 8 9
split_gain=4.15751 1.16241 1.39103 3.31368 1.62647 0.947733 1.31171 1.57972 0.698073 0.0104455 0.000227438 2.21616e-05
threshold=14.510000000000002 0.59350000000000003 11.290000000000001 4.8625000000000007 16.183500000000006 6.0635000000000003 5.7970000000000015 4.8745000000000003 0.52150000000000019 20.766500000000004 16.330000000000002 4.6525000000000007
decision_type=2 2 2 2 2 2 2 2 2 2 2 2
left_child=1 2 5 4 -4 6 7 -1 -6 -2 -11 -12
right_child=9 -3 3 -5 8 -7 -8 -9 -10 10 11 -13
leaf_value=0.01194586554303176 -0.088761451151863791 -0.035613350354545624 0.021095831272288271 0.081831604036707861 -0.024837252446037062 0.067077781018388044 -0.02272512628380171 0.0830454150429073 -0.090294699004706519 -0.079756452915337228 -0.077853469733960332 -0.078432029319684307
leaf_weight=8.8763833418488556 1.3887294493615616 4.5620685815811148 3.3394632488489133 3.1191638857126227 2.7133070416748524 5.8399916887283316 5.0318106412887564 4.8229067847132674 4.0777633041143417 1.3325132094323637 1.2695763744413855 1.3836110904812811
leaf_count=37 11 28 13 13 23 20 20 20 26 19 27 25
internal_value=0 0.0120703 0.0178221 -0.00829427 -0.0360438 0.031905 0.0209389 0.0369768 -0.0641418 -0.0812928 -0.0786905 -0.0781552
internal_weight=0 42.3829 37.8208 13.2497 10.1305 24.5711 18.7311 13.6993 6.79107 5.37443 3.9857 2.65319
internal_count=282 200 172 75 62 97 77 57 49 82 71 52
is_linear=0
shrinkage=0.1


Tree=58
num_leaves=13
num_cat=0
split_feature=6 6 3 4 1 3 4 8 5 8 6 7
split_gain=2.63913 1.95359 1.89377 1.47219 2.13483 1.27255 1.203 0.928717 0.225676 0.00932564 0.00886048 0.000129577
threshold=14.658500000000002 22.433000000000003 0.49550000000000005 0.52150000000000019 6.6240000000000006 0.6715000000000001 0.47550000000000003 12.510000000000002 86.109000000000023 10.260000000000002 24.375000000000004 6.9345000000000008
decision_type=2 2 2 2 2 2 2 2 2 2 2 2
left_child=2 3 -1 6 -5 10 -2 -6 9 11 -3 -4
right_child=1 5 8 4 7 -7 -8 -9 -10 -11 -12 -13
leaf_value=0.020363965227802597 0.039470948634208219 -0.089083467409068168 -0.080265132322366886 0.097212133670498857 -0.013990353607371487 0.021204869060479532 -0.023005483429614327 0.045967766786701343 -0.041405757489652986 -0.088670728916928065 -0.07793888561017126 -0.078987463524048049
leaf_weight=3.3453928306698781 5.0894168540835398 1.1822620593011373 1.3236707560718062 5.5459486991167095 4.474992170929907 1.970896318554878 7.8139019645750523 6.1114785298705101 1.8182982131838796 1.6677622348070142 1.7988436408340929 1.9827806130051611
leaf_count=19 23 11 17 22 22 10 37 23 15 12 38 33
internal_value=0 0.0169135 -0.0412219 0.0268145 0.0469525 -0.0411404 0.00163691 0.020623 -0.0715537 -0.0825741 -0.0823587 -0.079499
internal_weight=0 33.9877 10.1379 29.0357 16.1324 4.952 12.9033 10.5865 6.79251 4.97421 2.98111 3.30645
internal_count=282 186 96 127 67 59 60 45 77 62 49 50
is_linear=0
shrinkage=0.1


Tree=59
num_leaves=13
num_cat=0
split_feature=6 5 8 6 5 2 1 8 3 8 3 7
split_gain=11.304 2.79852 5.18714 0.758539 0.62308 0.42467 0.00403822 0.000532013 0.000113604 0.000263706 0.000191192 3.2456e-05
threshold=17.216500000000003 74.540000000000006 14.665000000000001 23.325000000000003 63.716500000000003 3.4850000000000008 10.139500000000002 11.290000000000001 0.53050000000000008 9.5600000000000023 0.50600000000000012 7.6390000000000002
decision_type=2 2 2 2 2 2 2 2 2 2 2 2
left_child=5 2 4 -4 -2 -1 -5 8 10 -10 -7 -11
right_child=1 -3 3 6 -6 7 -8 -9 9 11 -12 -13
leaf_value=-0.03030793393295117 -0.06367479563711391 0.10899618724628356 0.035648079970497439 0.084056492232398819 -0.011817995129312761 -0.080865646569531227 0.08902937859100693 -0.082585606380497223 -0.079675633163033388 -0.081522136921378704 -0.082235264922793885 -0.080949925472061576
leaf_weight=1.8520992696285237 4.3256834447383934 4.2436777353286734 5.3596681952476484 3.670439600944519 4.9897957146167755 2.1114366352558118 2.9416794925928116 3.4005368426442137 1.4529924616217611 2.0837816894054417 1.9703384414315221 1.890593387186527
leaf_count=15 20 19 21 29 20 24 18 33 21 22 19 21
internal_value=0 0.0348448 0.0200625 0.0636064 -0.0358979 -0.0750877 0.0862689 -0.0815121 -0.0811282 -0.0808285 -0.0815268 -0.0812499
internal_weight=0 25.5309 21.2873 11.9718 9.31548 14.7618 6.61212 12.9097 9.50914 5.42737 4.08178 3.97438
internal_count=282 127 108 68 40 155 47 140 107 64 43 43
is_linear=0
shrinkage=0.1


Tree=60
num_leaves=13
num_cat=0
split_feature=8 5 8 1 5 7 8 8 1 9 9 6
split_gain=4.8921 2.10603 3.56178 1.77048 1.73574 0.627277 0.301243 0.00196989 0.00304348 0.000265509 0.000161641 3.43588e-06
threshold=11.385000000000002 72.054500000000004 9.5600000000000023 12.105000000000002 84.684500000000014 7.1710000000000003 11.740000000000002 14.510000000000002 9.943500000000002 4.7585000000000006 4.269000000000001 24.375000000000004
decision_type=2 2 2 2 2 2 2 2 2 2 2 2
left_child=1 -1 4 6 -3 -4 -2 8 10 11 -8 -9
right_child=3 2 5 -5 -6 -7 7 9 -10 -11 -12 -13
leaf_value=0.08916418783372082 -0.032950215899517375 0.086034950417588171 -0.085972220154289611 0.048163165515772655 0.01027462605306635 -0.022978203749267918 -0.078670932473704894 -0.07733703360966479 -0.085014928205358942 -0.078952151774953766 -0.080187404923652339 -0.077038306717761282
leaf_weight=4.2440563589334515 1.655613124370573 5.3165300935506838 2.6308768428862086 1.4191329181194294 7.0135792195796967 3.9601844921708107 1.401721488684416 0.75535325519740604 1.4954633787274358 1.8960307091474531 1.4098304808139799 0.78532979264855385
leaf_count=18 14 24 28 10 26 29 26 20 11 33 20 23
internal_value=0 0.0254997 0.0112197 -0.0559485 0.0429412 -0.0481228 -0.0716676 -0.0799453 -0.0813701 -0.0781598 -0.0794314 -0.0771848
internal_weight=0 23.1652 18.9212 10.8185 12.3301 6.59106 9.39934 7.74373 4.30702 3.43671 2.81155 1.54068
internal_count=282 125 107 157 50 57 147 133 57 76 46 43
is_linear=0
shrinkage=0.1


Tree=61
num_leaves=12
num_cat=0
split_feature=6 6 6 1 9 1 6 1 7 8 8
split_gain=3.7456 1.15649 1.13528 2.98612 1.05523 1.11807 0.799365 0.68422 0.269117 0.0144051 0.000304318
threshold=19.591500000000003 12.141500000000002 16.183500000000006 7.2885000000000009 4.0225000000000009 6.5925000000000002 10.9335 5.729000000000001 13.734000000000002 14.510000000000002 16.465000000000003
decision_type=2 2 2 2 2 2 2 2 2 2 2
left_child=1 6 4 -4 -3 7 -1 -6 9 -2 -11
right_child=8 2 3 -5 5 -7 -8 -9 -10 10 -12
leaf_value=-0.060904756035413232 -0.090553818196927177 0.071693433413203944 -0.076510715195013165 0.035955442891565971 0.025140065539437054 0.050977708708146774 0.0093169205208695656 -0.02568253644978645 -0.041486106514396916 -0.079784831695806122 -0.077494693164339296
leaf_weight=3.2185461744666091 1.8436499647796143 5.3460595458745983 3.8567171171307546 6.0866752788424492 5.416484475135805 7.3794977366924277 3.2660968229174614 5.1845884248614311 2.3222717195749283 1.2588914185762408 1.0763242393732069
leaf_count=24 13 20 35 25 22 28 16 20 33 20 26
internal_value=0 0.0130968 0.0206268 -0.00766651 0.0326873 0.0210898 -0.0255365 0.000284631 -0.068779 -0.0839461 -0.0787293
internal_weight=0 39.7547 33.27 9.94339 23.3266 17.9806 6.48464 10.6011 6.50114 4.17887 2.33522
internal_count=282 190 150 60 90 70 40 42 92 59 46
is_linear=0
shrinkage=0.1


Tree=62
num_leaves=12
num_cat=0
split_feature=6 5 8 6 4 0 4 5 3 2 6
split_gain=2.34733 2.3652 2.41268 1.53528 1.63743 1.55267 1.51139 1.19305 1.18119 0.0095281 0.00712764
threshold=14.000000000000002 80.158000000000015 11.290000000000001 22.433000000000003 0.52150000000000019 8.5655000000000019 0.57800000000000007 69.294000000000025 0.6715000000000001 3.9625000000000008 24.375000000000004
decision_type=2 2 2 2 2 2 2 2 2 2 2
left_child=6 2 -2 4 7 -6 9 -4 10 -1 -5
right_child=1 -3 3 8 5 -7 -8 -9 -10 -11 -12
leaf_value=-0.090559334715918011 -0.066739275529235073 0.076417684555227086 0.025676540158733337 -0.088210525305381274 0.085454126941079053 0.015491385003244979 0.0062692751180721791 -0.049218285143745232 0.021280434132143526 -0.081133618520315365 -0.077523990303141097
leaf_weight=1.9106124415993679 4.190322037786248 5.2468952722847453 4.8268998898565822 1.0400984808802598 6.1080009639263135 6.5993471145629883 3.0788417682051659 3.8024423904716969 1.941704425960779 2.444684874266386 1.5605616867542265
leaf_count=12 31 23 18 10 24 26 34 23 10 33 38
internal_value=0 0.0144654 0.00365515 0.0150534 0.0262916 0.0491202 -0.0473582 -0.00732519 -0.0377355 -0.0852686 -0.0817979
internal_weight=0 35.3163 30.0694 25.8791 21.3367 12.7073 7.43414 8.62934 4.54236 4.3553 2.60066
internal_count=282 203 180 149 91 50 79 41 58 45 48
is_linear=0
shrinkage=0.1


Tree=63
num_leaves=13
num_cat=0
split_feature=6 5 6 1 5 2 6 8 3 8 3 4
split_gain=9.79477 2.60245 4.41918 2.01917 0.819219 0.430558 0.0626523 0.000491409 8.95714e-05 0.000205103 0.000150609 3.34352e-05
threshold=17.216500000000003 74.540000000000006 20.883000000000003 11.163000000000002 64.280500000000018 3.4850000000000008 24.017000000000007 11.290000000000001 0.53050000000000008 9.615000000000002 0.50600000000000012 0.55850000000000011
decision_type=2 2 2 2 2 2 2 2 2 2 2 2
left_child=5 2 4 6 -2 -1 -4 8 10 -10 -7 -11
right_child=1 -3 3 -5 -6 7 -8 -9 9 11 -12 -13
leaf_value=-0.028227957320874398 -0.0667578334029202 0.10614723629373878 0.10222053975402168 0.0019315374020604185 -0.0061635931695387175 -0.080250330572439479 0.083241567346841905 -0.081959181677910109 -0.079248740815776084 -0.080338076334097674 -0.081524060905231413 -0.08096828581312171
leaf_weight=1.7893190756440152 4.2100815176963859 3.9889152720570555 2.864550828933714 3.951066866517067 4.7468690872192383 1.9169264584779724 4.4281715974211693 3.1387979835271826 1.5135823413729665 1.699720695614815 1.8000252954661844 1.6679727509617803
leaf_count=15 20 19 14 16 20 24 38 33 24 21 19 19
internal_value=0 0.0323342 0.0177588 0.0595045 -0.034645 -0.0739221 0.0906964 -0.0808882 -0.0804973 -0.0802156 -0.0808672 -0.0806502
internal_weight=0 24.1897 20.2007 11.2438 8.95695 13.5263 7.29272 11.737 8.59823 4.88128 3.71695 3.36769
internal_count=282 127 108 68 40 155 52 140 107 64 43 40
is_linear=0
shrinkage=0.1


Tree=64
num_leaves=12
num_cat=0
split_feature=6 5 8 1 8 5 6 4 8 6 9
split_gain=4.22946 2.38182 2.91599 2.36057 3.82543 2.09195 3.49313 0.274284 0.0107645 0.000305717 0.000148408
threshold=14.950000000000001 74.115500000000011 8.2850000000000019 9.943500000000002 13.075000000000001 85.016000000000005 13.225000000000003 0.51950000000000018 11.490000000000002 21.400000000000002 4.269000000000001
decision_type=2 2 2 2 2 2 2 2 2 2 2
left_child=1 -1 -3 8 -5 6 -4 -6 -2 10 -10
right_child=3 2 5 4 7 -7 -8 -9 9 -11 -12
leaf_value=0.094590586611692784 -0.085953217446121818 0.079456814579509191 0.069591443193032856 0.12960901562269964 -0.025359328577470863 -0.082177802152979082 -0.063283135423838885 -0.08275325303923152 -0.078071381217866206 -0.07690499574664994 -0.079426292295154369
leaf_weight=4.2440948188304928 3.0702419728040677 4.3952906280755988 4.5195661559700948 1.6914993450045583 1.6111753825098278 3.3965876325964919 3.5189056061208248 1.7232420518994329 1.5801370143890383 1.2164879031479356 1.655281715095043
leaf_count=19 31 20 20 8 19 16 27 22 35 39 26
internal_value=0 0.0280655 0.0102302 -0.0459446 0.00711738 -0.0163784 0.0114245 -0.0550208 -0.081398 -0.0782564 -0.0787646
internal_weight=0 20.0744 15.8304 12.5481 5.02592 11.4351 8.03847 3.33442 7.52215 4.45191 3.23542
internal_count=282 102 83 180 49 63 47 41 131 100 61
is_linear=0
shrinkage=0.1


Tree=65
num_leaves=12
num_cat=0
split_feature=8 4 8 9 6 0 4 7 6 8 9
split_gain=3.34785 0.874435 0.956868 2.71669 1.52345 0.754449 1.17537 0.460706 0.00956133 0.000385772 1.68067e-05
threshold=14.510000000000002 0.59350000000000003 11.290000000000001 4.8625000000000007 17.300000000000004 6.0635000000000003 0.54950000000000021 6.6125000000000007 20.258500000000002 16.330000000000002 4.6525000000000007
decision_type=2 2 2 2 2 2 2 2 2 2 2
left_child=1 2 5 4 -4 6 7 -1 -2 -10 -11
right_child=8 -3 3 -5 -6 -7 -8 -9 9 10 -12
leaf_value=0.015649853224887832 -0.089157406885681509 -0.032343618633496815 -0.0050702614570789402 0.073699973830137086 -0.090308576102278493 0.06004264339548511 0.044148440623052045 -0.029257046868950705 -0.079607437509476686 -0.077107210605328158 -0.077681457730479145
leaf_weight=4.480781584978109 1.0615276694297779 4.2177063636481753 6.3727070018649083 3.1776593774557105 3.125040128827095 5.5338100641965857 8.6700385138392431 4.6609114482998848 1.3174428902566435 0.95436756312847171 1.0937873758375642
leaf_count=18 9 28 33 13 29 20 37 22 21 27 25
internal_value=0 0.010737 0.0157813 -0.00633793 -0.0331162 0.0277908 0.0177707 -0.00724602 -0.0808825 -0.0782725 -0.0774139
internal_weight=0 40.2387 36.0209 12.6754 9.49775 23.3455 17.8117 9.14169 4.42713 3.3656 2.04815
internal_count=282 200 172 75 62 97 77 40 82 73 52
is_linear=0
shrinkage=0.1


Tree=66
num_leaves=12
num_cat=0
split_feature=8 3 5 6 6 1 4 1 1 5 8
split_gain=2.03529 2.03382 1.73667 1.62035 1.28473 3.31304 1.05159 1.0121 0.225322 0.00122111 0.00069184
threshold=10.260000000000002 0.48900000000000005 79.722000000000023 16.058500000000006 18.966500000000003 11.036500000000002 0.47350000000000003 7.0580000000000007 7.791500000000001 82.858000000000018 9.740000000000002
decision_type=2 2 2 2 2 2 2 2 2 2 2
left_child=1 -1 3 -2 7 6 -6 -5 -8 10 -3
right_child=2 9 -4 4 5 -7 8 -9 -10 -11 -12
leaf_value=0.029038338344019921 -0.053765546929002456 -0.078141706352335 0.065085444488422003 0.073565648245840318 0.01514047221109157 0.052823496253672358 -0.045427894493264911 0.012696743354660986 -0.086521461851899253 -0.082963777702630914 -0.081439224843563307
leaf_weight=2.5372590646147719 4.1274437755346325 1.2656550966203215 5.601329803466796 4.8031110167503375 1.8716081529855708 5.3563149943947792 2.1249965522438288 6.3341229110956192 3.5859753526747227 2.3413441404700279 1.279438082128763
leaf_count=16 28 27 24 22 26 24 20 25 28 26 16
internal_value=0 -0.043599 0.0142256 0.00412468 0.014049 -0.00738252 -0.0499119 0.0389474 -0.0712309 -0.0813156 -0.0797994
internal_weight=0 7.4237 33.8049 28.2036 24.0761 12.9389 7.58258 11.1372 5.71097 4.88644 2.54509
internal_count=282 85 197 173 145 98 74 47 48 69 43
is_linear=0
shrinkage=0.1


Tree=67
num_leaves=13
num_cat=0
split_feature=6 5 8 6 5 6 0 2 8 8 5 2
split_gain=8.47795 2.39425 3.97259 1.26414 0.729106 0.492313 0.0485569 0.000500334 0.000359232 0.000139271 0.000147111 0.000148045
threshold=17.216500000000003 74.540000000000006 14.665000000000001 22.433000000000003 64.280500000000018 10.591500000000002 14.849500000000001 4.4830000000000014 11.290000000000001 9.5600000000000023 80.158000000000015 6.6020000000000012
decision_type=2 2 2 2 2 2 2 2 2 2 2 2
left_child=5 2 4 -4 -2 -1 -5 -7 9 -9 11 -11
right_child=1 -3 3 6 -6 7 -8 8 -10 10 -12 -13
leaf_value=-0.022103428102154484 -0.06323864377889718 0.10365132575872096 0.0056294960933599217 0.087404976298441239 -0.00577195128504885 -0.082203307169433304 0.070273358106385603 -0.078989701159930925 -0.081244897786031209 -0.081079542969803575 -0.079257993017443129 -0.079780383462094373
leaf_weight=1.6611373163759697 4.2687018141150528 3.6916455328464499 3.2111308649182302 4.5435823574662209 4.5729380249977112 1.651172462850808 2.601868100464344 1.3530591800808887 2.8346466869115829 1.8933351263403895 1.374117027968168 1.6342601701617239
leaf_count=18 21 19 14 37 19 17 17 23 33 21 21 22
internal_value=0 0.0298976 0.0157155 0.057746 -0.0335166 -0.0727664 0.0811669 -0.080602 -0.0803111 -0.0798878 -0.0801358 -0.0804777
internal_weight=0 22.8899 19.1982 10.3566 8.84164 12.4017 7.14545 10.7406 9.08942 6.25477 4.90171 3.5276
internal_count=282 127 108 68 40 155 54 137 120 87 64 43
is_linear=0
shrinkage=0.1


Tree=68
num_leaves=14
num_cat=0
split_feature=8 9 8 5 6 5 1 3 2 8 1 6 9
split_gain=3.70501 2.44537 1.7256 2.88502 2.13148 3.33239 0.958178 0.00177591 0.000664501 0.000391768 0.000277719 6.32136e-05 1.13215e-05
threshold=11.490000000000002 5.1830000000000007 8.2850000000000019 84.684500000000014 13.008500000000003 72.054500000000004 6.338000000000001 0.61850000000000016 11.769000000000002 14.665000000000001 7.4430000000000005 17.216500000000003 4.4535000000000009
decision_type=2 2 2 2 2 2 2 2 2 2 2 2 2
left_child=2 7 -1 4 -4 -6 -7 9 -9 10 11 -2 -11
right_child=1 -3 3 -5 5 6 -8 8 -10 12 -12 -13 -14
leaf_value=0.077037214185843916 -0.07875275337970522 0.07786040737495209 0.08646343753165564 -0.071227462214307868 0.065313797714450048 -0.089263950685936955 -0.0077632647800704212 -0.082945696658081672 -0.079909231899200045 -0.076570892333627863 -0.080317817558521368 -0.07760464345185597 -0.077161138578724406
leaf_weight=4.3642201572656694 1.0744316205382332 1.1455317251384256 4.2829427346587208 3.7468059938400975 4.6905782818794233 2.861152246594429 2.9093527309596539 1.5150237251073124 1.3746288698166607 0.70172122120857217 0.96264833584427822 0.86616292223334301 0.60525856353342533
leaf_count=21 20 8 20 19 20 31 22 15 25 27 14 22 18
internal_value=0 -0.0577174 0.020478 0.00712884 0.027041 0.0027125 -0.0481732 -0.0795922 -0.0815012 -0.0782819 -0.0789292 -0.0782403 -0.0768442
internal_weight=0 8.24541 22.8551 18.4908 14.744 10.4611 5.7705 7.09988 2.88965 4.21022 2.90324 1.94059 1.30698
internal_count=282 149 133 112 93 73 53 141 40 101 56 42 45
is_linear=0
shrinkage=0.1


Tree=69
num_leaves=12
num_cat=0
split_feature=6 6 2 8 5 4 5 6 7 8 8
split_gain=2.9624 0.953855 0.923155 0.850391 2.34289 1.30981 0.868408 0.372088 0.297856 0.0132953 0.000279382
threshold=19.591500000000003 12.141500000000002 3.4850000000000008 10.960000000000003 74.540000000000006 0.54750000000000021 76.311000000000021 13.658000000000001 13.734000000000002 14.510000000000002 16.330000000000002
decision_type=2 2 2 2 2 2 2 2 2 2 2
left_child=1 2 -1 6 5 -5 -3 -8 9 -2 -11
right_child=8 3 -4 4 -6 -7 7 -9 -10 10 -12
leaf_value=0.016393873959569753 -0.090390404209881481 0.0039743880460372553 -0.061178920700707851 0.064680408375998963 -0.054832300725999761 -0.0061601381446959314 0.069450102422942195 0.031134574447054527 -0.036042750766055176 -0.079342172750388074 -0.076874831708550653
leaf_weight=2.917025350034236 1.7024868279695504 5.8497937843203607 3.2359346561133862 5.1386244520544988 4.9491822123527518 5.3040635250508785 5.6509924754500371 4.595759779214859 2.0394008606672287 0.92808874882757642 0.90782970003783703
leaf_count=15 13 24 25 23 35 25 23 20 33 17 29
internal_value=0 0.0116087 -0.0244028 0.0186455 0.0018399 0.028699 0.0347154 0.0522652 -0.0664813 -0.0840249 -0.0781221
internal_weight=0 37.6414 6.15296 31.4884 15.3919 10.4427 16.0965 10.2468 5.57781 3.53841 1.83592
internal_count=282 190 40 150 83 48 67 43 92 59 46
is_linear=0
shrinkage=0.1


Tree=70
num_leaves=10
num_cat=0
split_feature=6 5 8 4 3 7 4 9 2
split_gain=1.78396 1.84666 1.8702 1.53529 1.08187 1.91519 1.58949 1.14403 0.00767173
threshold=14.000000000000002 80.158000000000015 11.290000000000001 0.57800000000000007 0.68050000000000022 9.9155000000000015 0.52150000000000019 4.7760000000000007 3.9625000000000008
decision_type=2 2 2 2 2 2 2 2 2
left_child=3 2 -2 8 5 6 -4 -7 -1
right_child=1 -3 4 -5 -6 7 -8 -9 -10
leaf_value=-0.08943468302512754 -0.062314951352123761 0.070056956769162931 -0.010515891035439817 0.012201919306658794 0.06429488061267756 -0.064692407543956415 0.070216154570059031 0.0016088499277459802 -0.080460648193513548
leaf_weight=1.756051488220691 3.7431589812040356 4.893943451344966 4.1883491817861849 2.8621768206357956 3.5893466845154753 4.2353975865989906 5.8380157127976418 6.7504614628851414 2.0821132268756628
leaf_count=12 31 23 29 34 15 39 27 39 33
internal_value=0 0.0133314 0.00353727 -0.04323 0.0135568 0.00488959 0.0364917 -0.0239524 -0.0845665
internal_weight=0 33.2387 28.3447 6.70034 24.6016 21.0122 10.0264 10.9859 3.83816
internal_count=282 203 180 79 149 134 56 78 45
is_linear=0
shrinkage=0.1


Tree=71
num_leaves=11
num_cat=0
split_feature=6 9 6 0 6 2 8 8 5 2
split_gain=7.37055 2.08492 4.54255 2.0921 0.517214 0.000442538 0.000294415 0.00011415 0.000108525 0.000148057
threshold=17.216500000000003 4.7760000000000007 22.433000000000003 9.4315000000000015 10.591500000000002 4.4830000000000014 11.290000000000001 9.5600000000000023 80.158000000000015 6.6020000000000012
decision_type=2 2 2 2 2 2 2 2 2 2
left_child=4 3 -3 -2 -1 -6 7 -7 9 -9
right_child=1 2 -4 -5 5 6 -8 8 -10 -11
leaf_value=-0.018280821248048258 0.023835925401541887 -0.078779532222446255 0.061293812217584231 0.10917235677536914 -0.081690623555519148 -0.078572764503458375 -0.080722613804834933 -0.080595021664315078 -0.078880442961116695 -0.079234123677590571
leaf_weight=1.568215176463126 8.03972375392914 4.5989120453596097 4.6623351275920868 4.4702105820178977 1.5321732759475697 1.2035108432173709 2.5970482192933559 1.7595842555165293 1.2542025744915006 1.4650309979915617
leaf_count=18 38 22 29 38 17 23 33 21 21 22
internal_value=0 0.0277031 -0.00826323 0.0543294 -0.0716063 -0.0801294 -0.0798405 -0.0794374 -0.0796697 -0.0799767
internal_weight=0 21.7712 9.26125 12.5099 11.3798 9.81155 8.27938 5.68233 4.47882 3.22462
internal_count=282 127 51 76 155 137 120 87 64 43
is_linear=0
shrinkage=0.1


Tree=72
num_leaves=12
num_cat=0
split_feature=6 1 8 5 9 8 4 8 6 1 8
split_gain=3.25516 2.255 4.07049 1.88167 2.76304 1.55078 0.344955 0.0104637 0.000213308 0.000156388 3.55625e-05
threshold=14.950000000000001 9.943500000000002 12.615000000000002 74.115500000000011 4.1545000000000005 8.8000000000000025 0.49950000000000006 11.490000000000002 21.400000000000002 7.5100000000000007 12.615000000000002
decision_type=2 2 2 2 2 2 2 2 2 2 2
left_child=3 7 -3 -1 5 -5 -4 -2 9 10 -9
right_child=1 2 6 4 -6 -7 -8 8 -10 -11 -12
leaf_value=0.085506815576242581 -0.085867554655517028 0.14533544948542076 -0.016052751759089028 0.080112659870444011 -0.047123445854484747 -0.0035111493084508984 -0.082383421486281055 -0.07809387190202155 -0.076429347103638551 -0.079296330840750245 -0.07721113957391329
leaf_weight=4.0720823630690637 2.831452511250971 1.5054583624005315 1.3695371448993685 4.9707082435488683 5.5168788079172364 4.0039798617362976 1.8339028209447858 0.95245444774627752 0.91322939470410336 0.87520333193242539 0.87627175450325012
leaf_count=19 31 6 17 23 30 30 26 21 39 14 26
internal_value=0 -0.0428983 0.00971107 0.0254462 0.00856938 0.0428046 -0.0540257 -0.0813147 -0.0777507 -0.078197 -0.0776709
internal_weight=0 11.1575 4.7089 18.5636 14.4916 8.97469 3.20344 6.44861 3.61716 2.70393 1.82873
internal_count=282 180 49 102 83 53 43 131 100 61 47
is_linear=0
shrinkage=0.1


Tree=73
num_leaves=13
num_cat=0
split_feature=8 7 6 9 6 9 1 8 6 8 1 7
split_gain=2.72794 0.926477 0.816871 2.25268 1.29091 1.25065 0.961097 0.493652 0.0103664 0.000385203 2.75782e-05 1.02731e-06
threshold=14.510000000000002 6.0525000000000011 16.183500000000006 4.8625000000000007 17.300000000000004 4.0995000000000008 6.5925000000000002 10.100000000000003 19.591500000000003 15.585000000000003 10.691000000000001 11.722500000000002
decision_type=2 2 2 2 2 2 2 2 2 2 2 2
left_child=1 -1 5 4 -4 -3 7 -7 -2 -10 11 -11
right_child=8 2 3 -5 -6 6 -8 -9 9 10 -12 -13
leaf_value=-0.033785352550927988 -0.090010567077892997 0.060734154384853738 -0.0040857714687076632 0.060446643959479185 -0.089174033991435697 0.010565212687250939 0.038241905144155333 -0.036254345743193431 -0.079554137773578559 -0.076596973238809568 -0.077474003535439179 -0.076781342229171323
leaf_weight=4.4167669415473929 0.92083477228879873 7.0212479084730175 4.3943616226315481 3.3294034823775291 3.0004497077316046 4.810366962105034 6.8792779706418505 4.2342749238014221 0.83538453280925784 0.58536546677350976 0.7193258199840783 0.62480486556887627
leaf_count=24 7 34 25 14 30 25 30 18 14 22 18 21
internal_value=0 0.00927714 0.0149261 -0.00785748 -0.0386104 0.0255748 0.0100722 -0.0113535 -0.0808209 -0.0777603 -0.0769836 -0.0766922
internal_weight=0 38.0861 33.6694 10.7242 7.39481 22.9452 15.9239 9.04464 3.68572 2.76488 1.9295 1.21017
internal_count=282 200 176 69 55 107 73 43 82 75 61 43
is_linear=0
shrinkage=0.1


Tree=74
num_leaves=12
num_cat=0
